timestamp ba_x ba_y ba_z bg_x bg_y bg_z
1699281154.605660 0.00000003 0.00000003 -0.00004656 -0.00015684 0.00016074 0.00008099
1699281154.707662 0.00000004 0.00000003 -0.00006105 -0.00015818 0.00015858 0.00008211
1699281154.806664 0.00000004 0.00000004 -0.00006573 -0.00015965 0.00015599 0.00008310
1699281154.905666 0.00000004 0.00000004 -0.00006504 -0.00015938 0.00015449 0.00008415
1699281155.007668 0.00000003 0.00000004 -0.00006420 -0.00015879 0.00015276 0.00008472
1699281155.106670 0.00000003 0.00000004 -0.00006116 -0.00015904 0.00014715 0.00008277
1699281155.205673 0.00000003 0.00000004 -0.00005820 -0.00015902 0.00014022 0.00008163
1699281155.307675 0.00000003 0.00000005 -0.00006981 -0.00015936 0.00013895 0.00008139
1699281155.406677 0.00000003 0.00000005 -0.00008302 -0.00015955 0.00013892 0.00008271
1699281155.505679 0.00000003 0.00000007 -0.00013424 -0.00015888 0.00013914 0.00008776
1699281155.607681 0.00000002 0.00000011 -0.00034131 -0.00015956 0.00013707 0.00009190
1699281155.706683 -0.00000000 0.00000013 -0.00046183 -0.00016157 0.00012917 0.00009979
1699281155.805685 0.00000001 0.00000014 -0.00064210 -0.00016130 0.00012082 0.00010743
1699281155.907687 0.00000003 0.00000014 -0.00086919 -0.00016443 0.00011388 0.00011673
1699281156.006690 0.00000007 0.00000016 -0.00107768 -0.00016460 0.00010596 0.00012706
1699281156.105692 0.00000012 0.00000015 -0.00134422 -0.00016423 0.00010096 0.00013578
1699281156.207694 0.00000013 0.00000015 -0.00157225 -0.00016195 0.00009479 0.00014383
1699281156.306696 0.00000019 0.00000017 -0.00177989 -0.00015914 0.00008708 0.00015215
1699281156.405698 0.00000023 0.00000018 -0.00203021 -0.00015414 0.00007856 0.00015929
1699281156.507700 0.00000031 0.00000005 -0.00246148 -0.00014824 0.00006996 0.00016685
1699281156.606702 0.00000035 -0.00000013 -0.00296549 -0.00013882 0.00006188 0.00017289
1699281156.705704 0.00000040 -0.00000023 -0.00348862 -0.00012723 0.00005064 0.00017613
1699281156.807707 0.00000045 -0.00000039 -0.00400572 -0.00011594 0.00003863 0.00017673
1699281156.906709 0.00000055 -0.00000055 -0.00453031 -0.00010794 0.00002611 0.00017709
1699281157.005711 0.00000070 -0.00000071 -0.00492843 -0.00009897 0.00001517 0.00017519
1699281157.107713 0.00000080 -0.00000014 -0.00526279 -0.00008837 0.00000216 0.00016745
1699281157.206715 -0.00000584 -0.00000011 -0.00569919 -0.00008316 -0.00001833 0.00016049
1699281157.305717 -0.00001242 0.00000133 -0.00612406 -0.00007710 -0.00003671 0.00015956
1699281157.407719 -0.00001998 0.00000335 -0.00654308 -0.00007077 -0.00005485 0.00016409
1699281157.506721 -0.00002633 0.00000613 -0.00695105 -0.00006590 -0.00006921 0.00016621
1699281157.605724 -0.00002950 0.00000817 -0.00725700 -0.00006198 -0.00007737 0.00016733
1699281157.707726 -0.00003115 0.00001121 -0.00754212 -0.00005156 -0.00008294 0.00016831
1699281157.806728 -0.00002435 0.00001081 -0.00781030 -0.00004177 -0.00008965 0.00017271
1699281157.905730 -0.00001531 0.00000920 -0.00810612 -0.00002996 -0.00010460 0.00017433
1699281158.007732 -0.00000718 0.00000759 -0.00834981 -0.00002702 -0.00011663 0.00017464
1699281158.106734 0.00000136 0.00000516 -0.00848781 -0.00002520 -0.00012847 0.00017271
1699281158.205736 0.00000751 0.00000343 -0.00861839 -0.00001625 -0.00013934 0.00016667
1699281158.307739 0.00000393 0.00000626 -0.00868271 0.00001281 -0.00015391 0.00015536
1699281158.406741 0.00002042 0.00000565 -0.00872111 0.00003231 -0.00016347 0.00015159
1699281158.505743 0.00003825 0.00000694 -0.00866320 0.00004749 -0.00017126 0.00015818
1699281158.607745 0.00006239 0.00000935 -0.00862578 0.00006644 -0.00018048 0.00016132
1699281158.706747 0.00011060 0.00000918 -0.00853246 0.00009336 -0.00019395 0.00016438
1699281158.805749 0.00015392 -0.00000237 -0.00841137 0.00011684 -0.00020128 0.00016800
1699281158.907751 0.00016910 -0.00000844 -0.00830327 0.00012506 -0.00020406 0.00016808
1699281159.006753 0.00015929 -0.00001567 -0.00814348 0.00013395 -0.00021139 0.00016233
1699281159.105756 0.00018198 -0.00003929 -0.00800410 0.00013595 -0.00021555 0.00016069
1699281159.207758 0.00021253 -0.00007033 -0.00785300 0.00013296 -0.00021300 0.00015979
1699281159.306760 0.00023769 -0.00009738 -0.00769531 0.00012543 -0.00020970 0.00016004
1699281159.405762 0.00026294 -0.00012570 -0.00759178 0.00012068 -0.00020585 0.00016103
1699281159.507764 0.00028541 -0.00015214 -0.00752184 0.00011241 -0.00019725 0.00015886
1699281159.606766 0.00030443 -0.00017569 -0.00746238 0.00010632 -0.00019089 0.00015246
1699281159.705768 0.00032084 -0.00019752 -0.00739526 0.00010333 -0.00018795 0.00015206
1699281159.807771 0.00033701 -0.00021856 -0.00733313 0.00010228 -0.00018431 0.00015981
1699281159.906773 0.00035500 -0.00024050 -0.00724831 0.00009705 -0.00018389 0.00016513
1699281160.005775 0.00036578 -0.00025272 -0.00714123 0.00009960 -0.00018526 0.00017074
1699281160.107777 0.00037761 -0.00026513 -0.00703832 0.00009384 -0.00017533 0.00018118
1699281160.206779 0.00038737 -0.00027653 -0.00694049 0.00009023 -0.00016663 0.00019481
1699281160.308781 0.00035959 -0.00025833 -0.00669353 0.00010192 -0.00020640 0.00024168
1699281160.407784 0.00017064 -0.00016042 -0.00664110 0.00009316 -0.00016266 0.00022659
1699281160.506786 -0.00003063 -0.00004987 -0.00651939 0.00007248 -0.00012464 0.00020129
1699281160.605788 -0.00020893 0.00001382 -0.00638523 0.00006030 -0.00008558 0.00017900
1699281160.707790 -0.00025706 0.00006118 -0.00623167 0.00004828 -0.00005202 0.00016341
1699281160.806792 -0.00019275 0.00004747 -0.00603499 0.00003338 -0.00002119 0.00015469
1699281160.908794 -0.00011646 0.00002396 -0.00583272 0.00002554 -0.00001704 0.00017842
1699281161.007796 -0.00004801 0.00012465 -0.00543906 -0.00000267 0.00005014 0.00016309
1699281161.106798 0.00005879 0.00026686 -0.00487983 -0.00002926 0.00011482 0.00013935
1699281161.205801 0.00017573 0.00039872 -0.00431632 -0.00004906 0.00019268 0.00011606
1699281161.307803 0.00031319 0.00049962 -0.00372165 -0.00007338 0.00026252 0.00010062
1699281161.406805 0.00047716 0.00061146 -0.00308600 -0.00009417 0.00032229 0.00009377
1699281161.508807 0.00061731 0.00059722 -0.00263024 -0.00010501 0.00036997 0.00010823
1699281161.607809 0.00077108 0.00076568 -0.00211977 -0.00011013 0.00044384 0.00010865
1699281161.706811 0.00107631 0.00117871 -0.00120889 -0.00012785 0.00054703 0.00011157
1699281161.805813 0.00125283 0.00151041 -0.00076185 -0.00013429 0.00061320 0.00011209
1699281161.907815 0.00141748 0.00207569 -0.00016939 -0.00013867 0.00070254 0.00010988
1699281162.006818 0.00149725 0.00253802 0.00037907 -0.00014990 0.00076638 0.00010902
1699281162.108820 0.00157678 0.00276073 0.00092351 -0.00015943 0.00082686 0.00011868
1699281162.207822 0.00169302 0.00304824 0.00154002 -0.00015986 0.00090794 0.00011919
1699281162.306824 0.00184230 0.00343324 0.00205993 -0.00015595 0.00098434 0.00011508
1699281162.405826 0.00208073 0.00402982 0.00257508 -0.00014535 0.00109127 0.00010524
1699281162.507828 0.00233152 0.00456165 0.00299014 -0.00012645 0.00117702 0.00009466
1699281162.606830 0.00265117 0.00505449 0.00362484 -0.00011534 0.00124139 0.00009118
1699281162.705832 0.00290348 0.00544397 0.00416508 -0.00009786 0.00129774 0.00008930
1699281162.807835 0.00316864 0.00570729 0.00464763 -0.00008057 0.00133364 0.00008645
1699281162.906837 0.00360299 0.00609429 0.00509084 -0.00005474 0.00136549 0.00007698
1699281163.005839 0.00406185 0.00661050 0.00527652 -0.00003050 0.00140485 0.00006809
1699281163.107841 0.00456508 0.00696272 0.00538618 -0.00001026 0.00145143 0.00006263
1699281163.206843 0.00493231 0.00714344 0.00539161 -0.00000361 0.00148375 0.00006350
1699281163.308845 0.00562976 0.00728852 0.00535869 0.00001196 0.00151777 0.00006415
1699281163.407847 0.00613083 0.00751440 0.00532701 0.00001976 0.00157749 0.00006688
1699281163.506850 0.00662301 0.00806487 0.00519750 0.00001824 0.00161654 0.00007748
1699281163.605852 0.00698609 0.00851142 0.00502802 0.00001266 0.00164485 0.00008923
1699281163.707854 0.00744509 0.00898466 0.00487510 -0.00000557 0.00167713 0.00010153
1699281163.806856 0.00792275 0.00932177 0.00472858 -0.00001147 0.00169989 0.00011125
1699281163.905858 0.00856340 0.00971294 0.00441904 -0.00001797 0.00173915 0.00012913
1699281164.007860 0.00912476 0.01024391 0.00405512 -0.00001682 0.00176037 0.00013792
1699281164.106862 0.00966659 0.01083266 0.00343493 -0.00002628 0.00177820 0.00015240
1699281164.205864 0.01015180 0.01142008 0.00323667 -0.00005144 0.00181169 0.00017032
1699281164.307867 0.01068804 0.01190096 0.00320304 -0.00006450 0.00184140 0.00018768
1699281164.406869 0.01128932 0.01214880 0.00312345 -0.00005861 0.00186405 0.00019723
1699281164.505871 0.01191548 0.01222103 0.00293205 -0.00004832 0.00190429 0.00019874
1699281164.607873 0.01259405 0.01222203 0.00270139 -0.00004455 0.00193922 0.00020180
1699281164.706875 0.01320138 0.01225532 0.00253023 -0.00002881 0.00196629 0.00019994
1699281164.805877 0.01372718 0.01222879 0.00227256 -0.00001017 0.00199539 0.00019662
1699281164.907879 0.01423806 0.01212414 0.00192583 0.00000013 0.00201601 0.00019744
1699281165.006881 0.01478004 0.01201142 0.00151192 0.00001258 0.00202606 0.00020409
1699281165.108884 0.01533411 0.01179559 0.00121377 0.00001359 0.00202910 0.00016649
1699281165.207886 0.01588427 0.01163848 0.00089227 0.00003900 0.00206664 0.00018175
1699281165.306888 0.01641014 0.01156211 0.00055291 0.00007296 0.00210377 0.00019941
1699281165.405890 0.01690843 0.01150348 0.00025638 0.00010905 0.00214729 0.00021136
1699281165.507892 0.01739760 0.01142517 0.00011661 0.00014318 0.00215455 0.00022524
1699281165.606894 0.01801376 0.01133169 0.00003784 0.00016370 0.00218000 0.00023401
1699281165.705896 0.01846687 0.01128671 -0.00007652 0.00016959 0.00220559 0.00024390
1699281165.807899 0.01881213 0.01126094 -0.00017695 0.00017003 0.00222882 0.00024976
1699281165.906901 0.01929738 0.01121501 -0.00042913 0.00016275 0.00225855 0.00025405
1699281166.005903 0.01976706 0.01117645 -0.00062867 0.00015151 0.00227587 0.00026133
1699281166.107905 0.02023311 0.01115934 -0.00086847 0.00014432 0.00229640 0.00027108
1699281166.206907 0.02079464 0.01114924 -0.00097454 0.00014960 0.00231471 0.00027422
1699281166.305909 0.02126776 0.01113121 -0.00130485 0.00015758 0.00233430 0.00027930
1699281166.407912 0.02155411 0.01112730 -0.00157451 0.00016051 0.00234558 0.00028637
1699281166.506913 0.02201534 0.01112683 -0.00172483 0.00015812 0.00235832 0.00030011
1699281166.605916 0.02253477 0.01111357 -0.00151143 0.00015854 0.00239753 0.00031645
1699281166.707918 0.02302730 0.01104460 -0.00113358 0.00013952 0.00240936 0.00033334
1699281166.806920 0.02367483 0.01099306 -0.00066213 0.00013922 0.00244710 0.00034718
1699281166.905922 0.02419888 0.01098450 -0.00061890 0.00015676 0.00248528 0.00035587
1699281167.007924 0.02474563 0.01095424 -0.00084173 0.00019222 0.00248490 0.00036513
1699281167.106926 0.02515997 0.01098350 -0.00075133 0.00017569 0.00249514 0.00037155
1699281167.205929 0.02556924 0.01101838 -0.00058489 0.00015156 0.00249979 0.00039388
1699281167.307931 0.02602991 0.01099567 -0.00022075 0.00015669 0.00251016 0.00039764
1699281167.406933 0.02631608 0.01095678 -0.00022950 0.00015835 0.00252894 0.00039145
1699281167.505935 0.02687674 0.01056754 -0.00130681 0.00014618 0.00258958 0.00043716
1699281167.607937 0.02739281 0.00986132 -0.00329337 0.00011645 0.00260241 0.00044133
1699281167.706939 0.02784642 0.00946734 -0.00463150 0.00001804 0.00252602 0.00036193
1699281167.805941 0.02827360 0.00930763 -0.00490958 -0.00007067 0.00249326 0.00032356
1699281167.907943 0.02849766 0.00906942 -0.00629087 -0.00010071 0.00255036 0.00031408
1699281168.006946 0.02879183 0.00899767 -0.00680318 -0.00018712 0.00267223 0.00038188
1699281168.105948 0.02883974 0.00890452 -0.01213119 -0.00030028 0.00279867 0.00044569
1699281168.207950 0.02873901 0.00855702 -0.01922646 -0.00040414 0.00290691 0.00046555
1699281168.306952 0.02866266 0.00769507 -0.02980282 -0.00038293 0.00292495 0.00051651
1699281168.405954 0.02902558 0.00666521 -0.04022092 -0.00027668 0.00287898 0.00050804
1699281168.507956 0.03029311 0.00500934 -0.05259520 -0.00007525 0.00271600 0.00047561
1699281168.606958 0.03229064 0.00277229 -0.06311535 0.00009091 0.00250357 0.00045418
1699281168.705961 0.03439534 0.00025191 -0.07021924 0.00019809 0.00230670 0.00042897
1699281168.807963 0.03634258 -0.00241194 -0.07511926 0.00028008 0.00211300 0.00038568
1699281168.906965 0.03843927 -0.00646076 -0.08078961 0.00035348 0.00195738 0.00032482
1699281169.005967 0.04009542 -0.01027227 -0.08419870 0.00039038 0.00188073 0.00028964
1699281169.107969 0.04097612 -0.01359922 -0.08628430 0.00041598 0.00185204 0.00026103
1699281169.206971 0.04155458 -0.01703175 -0.08758131 0.00042259 0.00185590 0.00025182
1699281169.305973 0.04201492 -0.02048231 -0.08850251 0.00042503 0.00188885 0.00024584
1699281169.407975 0.04249184 -0.02397943 -0.08936576 0.00042712 0.00188637 0.00022945
1699281169.506978 0.04281944 -0.02687869 -0.09034876 0.00044018 0.00193221 0.00022613
1699281169.605980 0.04315709 -0.02983824 -0.09116917 0.00045846 0.00199318 0.00022437
1699281169.707982 0.04355753 -0.03286324 -0.09195197 0.00048730 0.00202993 0.00019994
1699281169.806984 0.04397754 -0.03539527 -0.09236918 0.00052126 0.00205563 0.00018784
1699281169.905986 0.04459557 -0.03847152 -0.09273490 0.00056303 0.00205933 0.00017295
1699281170.007988 0.04534253 -0.04159007 -0.09296980 0.00059901 0.00205247 0.00016510
1699281170.106990 0.04616997 -0.04466578 -0.09318026 0.00062217 0.00204260 0.00016079
1699281170.205992 0.04708671 -0.04773765 -0.09333975 0.00063210 0.00204942 0.00015712
1699281170.307995 0.04803620 -0.05070005 -0.09350402 0.00062831 0.00203882 0.00015170
1699281170.406997 0.04911044 -0.05362344 -0.09346880 0.00062215 0.00203784 0.00015417
1699281170.505999 0.05020632 -0.05654318 -0.09322431 0.00061131 0.00203487 0.00016060
1699281170.608001 0.05136736 -0.05940108 -0.09295271 0.00059890 0.00205199 0.00016973
1699281170.707003 0.05256951 -0.06230812 -0.09270666 0.00057610 0.00208261 0.00017617
1699281170.806005 0.05373444 -0.06529259 -0.09224918 0.00055391 0.00209641 0.00017966
1699281170.908007 0.05487893 -0.06826672 -0.09184737 0.00053843 0.00210657 0.00018534
1699281171.007010 0.05599235 -0.07127118 -0.09140599 0.00052661 0.00212000 0.00018337
1699281171.106012 0.05709225 -0.07435083 -0.09095400 0.00051637 0.00211914 0.00018356
1699281171.208014 0.05819747 -0.07736611 -0.09043790 0.00051313 0.00212704 0.00018844
1699281171.307016 0.05955418 -0.08094104 -0.08978807 0.00050723 0.00214721 0.00019290
1699281171.406018 0.06023228 -0.08283577 -0.08943630 0.00050611 0.00215642 0.00019434
1699281171.508020 0.06150188 -0.08661783 -0.08872338 0.00051462 0.00217342 0.00019898
1699281171.607022 0.06257485 -0.08998063 -0.08824257 0.00050951 0.00219375 0.00019519
1699281171.706024 0.06386556 -0.09409835 -0.08780901 0.00050351 0.00220475 0.00019580
1699281171.808027 0.06502397 -0.09763922 -0.08756233 0.00049944 0.00218990 0.00019373
1699281171.907029 0.06646617 -0.10181737 -0.08750595 0.00049811 0.00221012 0.00019391
1699281172.006031 0.06795412 -0.10616241 -0.08741257 0.00049268 0.00222345 0.00019236
1699281172.108033 0.06897162 -0.10900808 -0.08735285 0.00048726 0.00222265 0.00018654
1699281172.207035 0.07066958 -0.11403181 -0.08721349 0.00047368 0.00226169 0.00018065
1699281172.306037 0.07191266 -0.11780683 -0.08696437 0.00046483 0.00227567 0.00017760
1699281172.408039 0.07377682 -0.12294976 -0.08665441 0.00045725 0.00226822 0.00017996
1699281172.507041 0.07522185 -0.12682036 -0.08644521 0.00045796 0.00229560 0.00017676
1699281172.606044 0.07707103 -0.13140183 -0.08611676 0.00045997 0.00232207 0.00018288
1699281172.708046 0.07843358 -0.13457614 -0.08585788 0.00045535 0.00230936 0.00018427
1699281172.807048 0.08048642 -0.13934486 -0.08569592 0.00047003 0.00235397 0.00018589
1699281172.906050 0.08226470 -0.14351124 -0.08549675 0.00047508 0.00237311 0.00018509
1699281173.008052 0.08469051 -0.14911528 -0.08521383 0.00046488 0.00236179 0.00020408
1699281173.107054 0.08694150 -0.15419450 -0.08504761 0.00047219 0.00240060 0.00019731
1699281173.206056 0.08826369 -0.15724112 -0.08481323 0.00047729 0.00240806 0.00019214
1699281173.308059 0.09036503 -0.16209696 -0.08441377 0.00049468 0.00238699 0.00019666
1699281173.407061 0.09248507 -0.16714640 -0.08406052 0.00050458 0.00243088 0.00017759
1699281173.506063 0.09440315 -0.17194036 -0.08349198 0.00051485 0.00244981 0.00017494
1699281173.608065 0.09628869 -0.17690092 -0.08281868 0.00054056 0.00244961 0.00017887
1699281173.707067 0.09802140 -0.18139635 -0.08210030 0.00053431 0.00249349 0.00017030
1699281173.806069 0.09975300 -0.18607066 -0.08106886 0.00053159 0.00250594 0.00016955
1699281173.908072 0.10100580 -0.18962460 -0.08041540 0.00054007 0.00248877 0.00016392
1699281174.007074 0.10250611 -0.19419934 -0.07956349 0.00054507 0.00252932 0.00015292
1699281174.106076 0.10421231 -0.19901468 -0.07884262 0.00054524 0.00254833 0.00014998
1699281174.208078 0.10561197 -0.20315228 -0.07883567 0.00054606 0.00254745 0.00014114
1699281174.307080 0.10709667 -0.20751498 -0.07864522 0.00054852 0.00258718 0.00015086
1699281174.406082 0.10817564 -0.21085826 -0.07858018 0.00054258 0.00258933 0.00014942
1699281174.508084 0.10958018 -0.21504881 -0.07806535 0.00054502 0.00259224 0.00017506
1699281174.607086 0.11069376 -0.21818539 -0.07751606 0.00052461 0.00262228 0.00016842
1699281174.706089 0.11177963 -0.22109901 -0.07716944 0.00051591 0.00262996 0.00017444
1699281174.808091 0.11278342 -0.22372198 -0.07678538 0.00051579 0.00263004 0.00019941
1699281174.907093 0.11373560 -0.22610592 -0.07625764 0.00048265 0.00266297 0.00018791
1699281175.006095 0.11461871 -0.22824725 -0.07544629 0.00045291 0.00269111 0.00017987
1699281175.108097 0.11530729 -0.22983054 -0.07477498 0.00044878 0.00270264 0.00018444
1699281175.207099 0.11609784 -0.23168862 -0.07404225 0.00042579 0.00273153 0.00017952
1699281175.306101 0.11691797 -0.23375150 -0.07342683 0.00040217 0.00274797 0.00017243
1699281175.408103 0.11778210 -0.23588157 -0.07308044 0.00037876 0.00273144 0.00015756
1699281175.507106 0.11849388 -0.23768295 -0.07311413 0.00036150 0.00274962 0.00015889
1699281175.606108 0.11924260 -0.23969505 -0.07297778 0.00035687 0.00276449 0.00015700
1699281175.708110 0.11989966 -0.24143986 -0.07293358 0.00034548 0.00276589 0.00014865
1699281175.807112 0.12059486 -0.24340025 -0.07284623 0.00034196 0.00279902 0.00015210
1699281175.906114 0.12118644 -0.24509218 -0.07270751 0.00034020 0.00281264 0.00015114
1699281176.008116 0.12188775 -0.24709076 -0.07250932 0.00032904 0.00281258 0.00015977
1699281176.107118 0.12258942 -0.24918651 -0.07246235 0.00031599 0.00283518 0.00015551
1699281176.206120 0.12315825 -0.25096381 -0.07242943 0.00030991 0.00284339 0.00015263
1699281176.308123 0.12383142 -0.25307427 -0.07233939 0.00030080 0.00284162 0.00015701
1699281176.407125 0.12427685 -0.25455174 -0.07240303 0.00029239 0.00286684 0.00014988
1699281176.506127 0.12490985 -0.25676499 -0.07252303 0.00027787 0.00289225 0.00014547
1699281176.608129 0.12556871 -0.25911616 -0.07258354 0.00026942 0.00288902 0.00014626
1699281176.707131 0.12609695 -0.26109726 -0.07267598 0.00026762 0.00291062 0.00014164
1699281176.806133 0.12676623 -0.26390798 -0.07273929 0.00027269 0.00290809 0.00014018
1699281176.908135 0.12744087 -0.26683997 -0.07254440 0.00027312 0.00288982 0.00013499
1699281177.007138 0.12797561 -0.26931366 -0.07262540 0.00027542 0.00291926 0.00012672
1699281177.106140 0.12834269 -0.27135480 -0.07255206 0.00028026 0.00293485 0.00012424
1699281177.208142 0.12881811 -0.27394806 -0.07241180 0.00027453 0.00294467 0.00011977
1699281177.307144 0.12931810 -0.27692985 -0.07222946 0.00026937 0.00297571 0.00010878
1699281177.406146 0.12968349 -0.27941876 -0.07212353 0.00026489 0.00297194 0.00010452
1699281177.508148 0.13007106 -0.28218984 -0.07189103 0.00026049 0.00294246 0.00009731
1699281177.607150 0.13064224 -0.28547136 -0.07175325 0.00024807 0.00296629 0.00010001
1699281177.706152 0.13107091 -0.28789512 -0.07141939 0.00024303 0.00297027 0.00009413
1699281177.808155 0.13148577 -0.29062349 -0.07051085 0.00024454 0.00296784 0.00007778
1699281177.907157 0.13199704 -0.29332796 -0.07078158 0.00024164 0.00300196 0.00007633
1699281178.006159 0.13236227 -0.29561090 -0.07080602 0.00024238 0.00300046 0.00007037
1699281178.108161 0.13265534 -0.29787151 -0.07033171 0.00024842 0.00299446 0.00006449
1699281178.207163 0.13298170 -0.30012402 -0.07091292 0.00022690 0.00301079 0.00007316
1699281178.306165 0.13332654 -0.30230247 -0.07099426 0.00022971 0.00301103 0.00007921
1699281178.408167 0.13367232 -0.30438233 -0.07098300 0.00023927 0.00299152 0.00008336
1699281178.507169 0.13400729 -0.30626941 -0.07125125 0.00024243 0.00300845 0.00008537
1699281178.606172 0.13434032 -0.30801588 -0.07137042 0.00024337 0.00301627 0.00008641
1699281178.708174 0.13466132 -0.30921269 -0.06740891 0.00025853 0.00314595 0.00012141
1699281178.807176 0.13502732 -0.31087136 -0.06946418 0.00025236 0.00304976 0.00007416
1699281178.906178 0.13538360 -0.31203309 -0.06817486 0.00024114 0.00306150 0.00009848
1699281179.008180 0.13573596 -0.31303142 -0.06723876 0.00023568 0.00305583 0.00011435
1699281179.107182 0.13611294 -0.31414003 -0.06670861 0.00023812 0.00307024 0.00012913
1699281179.206184 0.13650280 -0.31524906 -0.06639018 0.00024646 0.00307334 0.00013203
1699281179.308187 0.13680217 -0.31616140 -0.06589222 0.00024681 0.00305578 0.00011821
1699281179.407189 0.13702799 -0.31676980 -0.06570640 0.00026902 0.00309202 0.00012131
1699281179.506191 0.13717658 -0.31730465 -0.06546380 0.00028340 0.00309812 0.00011920
1699281179.608193 0.13724089 -0.31771724 -0.06511987 0.00028795 0.00307160 0.00010928
1699281179.707195 0.13727604 -0.31810805 -0.06493605 0.00030031 0.00310196 0.00010643
1699281179.806197 0.13727315 -0.31839804 -0.06479419 0.00031156 0.00311852 0.00010130
1699281179.908199 0.13725818 -0.31875220 -0.06449025 0.00032467 0.00311685 0.00009715
1699281180.007201 0.13726422 -0.31916233 -0.06426849 0.00034338 0.00315345 0.00009266
1699281180.106204 0.13729678 -0.31952335 -0.06401995 0.00035234 0.00316976 0.00009051
1699281180.208206 0.13739520 -0.31993983 -0.06355902 0.00036332 0.00316677 0.00008728
1699281180.307208 0.13747430 -0.32020797 -0.06351496 0.00036297 0.00319216 0.00008390
1699281180.406210 0.13767302 -0.32063641 -0.06326386 0.00036033 0.00320627 0.00008087
1699281180.508212 0.13783219 -0.32095036 -0.06314287 0.00035966 0.00319731 0.00007967
1699281180.607214 0.13811064 -0.32145484 -0.06294451 0.00035631 0.00323538 0.00008046
1699281180.706216 0.13836892 -0.32189271 -0.06295574 0.00035107 0.00324795 0.00008257
1699281180.808219 0.13878215 -0.32245830 -0.06262113 0.00035426 0.00325447 0.00007617
1699281180.907221 0.13911679 -0.32295548 -0.06260352 0.00034491 0.00328988 0.00008241
1699281181.006223 0.13960570 -0.32359628 -0.06228131 0.00034002 0.00330411 0.00008577
1699281181.108225 0.13995844 -0.32403129 -0.06214645 0.00033230 0.00329741 0.00008171
1699281181.207227 0.14052948 -0.32471214 -0.06201232 0.00032462 0.00332534 0.00009357
1699281181.306229 0.14102029 -0.32533378 -0.06193380 0.00031848 0.00333238 0.00009699
1699281181.408231 0.14162128 -0.32605500 -0.06166034 0.00030629 0.00332949 0.00009284
1699281181.507234 0.14208112 -0.32669704 -0.06182080 0.00029974 0.00336212 0.00009763
1699281181.606236 0.14263554 -0.32746556 -0.06173949 0.00029515 0.00337005 0.00010124
1699281181.708238 0.14305121 -0.32798409 -0.06167575 0.00029352 0.00337294 0.00009564
1699281181.807240 0.14358558 -0.32878145 -0.06160451 0.00029427 0.00340244 0.00009805
1699281181.906242 0.14398523 -0.32937599 -0.06144846 0.00029491 0.00340262 0.00009649
1699281182.008244 0.14447292 -0.33001164 -0.06096520 0.00029330 0.00339224 0.00009079
1699281182.107246 0.14500392 -0.33069277 -0.06062100 0.00029391 0.00342724 0.00009064
1699281182.206249 0.14557838 -0.33146489 -0.06006527 0.00029372 0.00344496 0.00009098
1699281182.308251 0.14616695 -0.33222312 -0.05982001 0.00028819 0.00344972 0.00009088
1699281182.407253 0.14662090 -0.33289993 -0.05996878 0.00029753 0.00347730 0.00008416
1699281182.506255 0.14706998 -0.33372191 -0.06005572 0.00030197 0.00347984 0.00008076
1699281182.608257 0.14760563 -0.33456200 -0.06030265 0.00030034 0.00345585 0.00008289
1699281182.707259 0.14813754 -0.33548165 -0.06075900 0.00030438 0.00348028 0.00007364
1699281182.806261 0.14854403 -0.33634201 -0.06104061 0.00030640 0.00348633 0.00006770
1699281182.908263 0.14892460 -0.33716902 -0.06117798 0.00031149 0.00347836 0.00007592
1699281183.007266 0.14934194 -0.33802682 -0.06136639 0.00031156 0.00351120 0.00007525
1699281183.106268 0.14973709 -0.33909756 -0.06173277 0.00031700 0.00350489 0.00007401
1699281183.205270 0.15011712 -0.34006563 -0.06195694 0.00031535 0.00349718 0.00007323
1699281183.307272 0.15057581 -0.34121914 -0.06210395 0.00031924 0.00347694 0.00006773
1699281183.406274 0.15091920 -0.34225641 -0.06216774 0.00031876 0.00346266 0.00006510
1699281183.505276 0.15124177 -0.34346407 -0.06215555 0.00031895 0.00345626 0.00006094
1699281183.607278 0.15155580 -0.34473786 -0.06214449 0.00031819 0.00344570 0.00005686
1699281183.706280 0.15182555 -0.34575894 -0.06222324 0.00031734 0.00343985 0.00005671
1699281183.805283 0.15203533 -0.34687998 -0.06224741 0.00031022 0.00344612 0.00005505
1699281183.907285 0.15223868 -0.34806598 -0.06216711 0.00030919 0.00343761 0.00005237
1699281184.006287 0.15236632 -0.34864284 -0.06202400 0.00030547 0.00342918 0.00005101
1699281184.105289 0.15252790 -0.34971796 -0.06174068 0.00029595 0.00342557 0.00004551
1699281184.207291 0.15268288 -0.35071805 -0.06142840 0.00029590 0.00342075 0.00004145
1699281184.306293 0.15294857 -0.35185461 -0.06094816 0.00029478 0.00341919 0.00003180
1699281184.405295 0.15319718 -0.35286763 -0.06071730 0.00029480 0.00342893 0.00003061
1699281184.507298 0.15349706 -0.35382478 -0.06045528 0.00029331 0.00343340 0.00003243
1699281184.606300 0.15378445 -0.35467783 -0.06026231 0.00029079 0.00343163 0.00003396
1699281184.708302 0.15406419 -0.35546735 -0.05999678 0.00028312 0.00342933 0.00003368
1699281184.807304 0.15424458 -0.35624261 -0.06003362 0.00028129 0.00345645 0.00002690
1699281184.906306 0.15446614 -0.35711197 -0.05978407 0.00027589 0.00346687 0.00002051
1699281185.008308 0.15467549 -0.35784732 -0.05958228 0.00026965 0.00345101 0.00001771
1699281185.107310 0.15487361 -0.35871760 -0.05972003 0.00027111 0.00349019 0.00001245
1699281185.206312 0.15505872 -0.35952060 -0.05958166 0.00027073 0.00349812 0.00000861
1699281185.305315 0.15525879 -0.36038989 -0.05934527 0.00025898 0.00351300 0.00000329
1699281185.407317 0.15548300 -0.36142785 -0.05917373 0.00025529 0.00351342 -0.00000614
1699281185.506319 0.15567362 -0.36215381 -0.05896276 0.00025221 0.00350715 -0.00000832
1699281185.605321 0.15595731 -0.36299149 -0.05873973 0.00024619 0.00351418 -0.00000959
1699281185.707323 0.15621491 -0.36358436 -0.05875065 0.00024182 0.00350749 -0.00001152
1699281185.806325 0.15655568 -0.36430442 -0.05869124 0.00025154 0.00350339 -0.00001946
1699281185.908327 0.15684503 -0.36487761 -0.05865348 0.00024577 0.00349326 -0.00002199
1699281186.007329 0.15715940 -0.36553722 -0.05880189 0.00024276 0.00352179 -0.00002574
1699281186.106332 0.15742490 -0.36616237 -0.05889643 0.00023558 0.00352013 -0.00002917
1699281186.208334 0.15772426 -0.36679870 -0.05858567 0.00023427 0.00349915 -0.00003213
1699281186.307336 0.15798396 -0.36733373 -0.05849733 0.00023776 0.00352744 -0.00003746
1699281186.406338 0.15825873 -0.36806703 -0.05823887 0.00023730 0.00353813 -0.00003701
1699281186.505340 0.15849467 -0.36890805 -0.05826536 0.00023824 0.00354792 -0.00004714
1699281186.607342 0.15866441 -0.36970786 -0.05820805 0.00024163 0.00355095 -0.00005717
1699281186.706344 0.15881541 -0.37059246 -0.05812276 0.00024239 0.00354488 -0.00005690
1699281186.808347 0.15897194 -0.37129604 -0.05814019 0.00025308 0.00352594 -0.00003926
1699281186.907349 0.15908579 -0.37200397 -0.05847964 0.00023893 0.00353644 -0.00005703
1699281187.006351 0.15918366 -0.37273692 -0.05872891 0.00023115 0.00351375 -0.00006113
1699281187.108353 0.15925942 -0.37326827 -0.05868236 0.00022753 0.00348367 -0.00003879
1699281187.207355 0.15933146 -0.37388258 -0.05865921 0.00020809 0.00350247 -0.00005562
1699281187.306357 0.15941275 -0.37444595 -0.05860037 0.00018982 0.00350560 -0.00005940
1699281187.408360 0.15948677 -0.37495791 -0.05826949 0.00017620 0.00350162 -0.00005272
1699281187.507362 0.15953743 -0.37541902 -0.05796477 0.00015443 0.00352510 -0.00006620
1699281187.606364 0.15963296 -0.37578801 -0.05783219 0.00014665 0.00352442 -0.00007949
1699281187.705366 0.15969838 -0.37603167 -0.05757581 0.00013833 0.00352925 -0.00008922
1699281187.807368 0.15974101 -0.37626537 -0.05729593 0.00013274 0.00352907 -0.00009223
1699281187.906370 0.15970875 -0.37641858 -0.05717911 0.00012841 0.00351797 -0.00009530
1699281188.005372 0.15965168 -0.37655243 -0.05727794 0.00012305 0.00351141 -0.00009756
1699281188.107374 0.15956192 -0.37663993 -0.05722281 0.00012512 0.00349963 -0.00009912
1699281188.206377 0.15943321 -0.37666958 -0.05693300 0.00013826 0.00348141 -0.00010622
1699281188.305379 0.15930329 -0.37662255 -0.05664143 0.00015108 0.00346931 -0.00011512
1699281188.407381 0.15917422 -0.37651151 -0.05627606 0.00015616 0.00346498 -0.00011669
1699281188.506383 0.15903553 -0.37638043 -0.05583381 0.00016105 0.00345482 -0.00011433
1699281188.608385 0.15883560 -0.37619468 -0.05527795 0.00016878 0.00343917 -0.00011142
1699281188.707387 0.15862490 -0.37602508 -0.05496740 0.00016589 0.00346022 -0.00011087
1699281188.806389 0.15830253 -0.37576428 -0.05445138 0.00015298 0.00347784 -0.00010526
1699281188.905391 0.15799903 -0.37552731 -0.05406503 0.00015106 0.00349384 -0.00010772
1699281189.007394 0.15771690 -0.37530291 -0.05365098 0.00014462 0.00350387 -0.00010444
1699281189.106396 0.15742314 -0.37508469 -0.05327393 0.00014569 0.00350128 -0.00010522
1699281189.205398 0.15713800 -0.37485656 -0.05292489 0.00013640 0.00351805 -0.00010598
1699281189.307400 0.15679351 -0.37458438 -0.05262507 0.00013262 0.00352849 -0.00010893
1699281189.406402 0.15649554 -0.37433543 -0.05263812 0.00013486 0.00352675 -0.00011432
1699281189.505404 0.15614770 -0.37400961 -0.05276427 0.00012310 0.00354303 -0.00010789
1699281189.607406 0.15580318 -0.37370971 -0.05253941 0.00012004 0.00354727 -0.00010621
1699281189.706409 0.15550253 -0.37345687 -0.05238042 0.00011984 0.00354430 -0.00010767
1699281189.805411 0.15513756 -0.37313537 -0.05244263 0.00010849 0.00354701 -0.00010114
1699281189.907413 0.15468538 -0.37278817 -0.05230312 0.00009772 0.00353768 -0.00010429
1699281190.006415 0.15433494 -0.37256569 -0.05192963 0.00009400 0.00352702 -0.00011002
1699281190.105417 0.15395238 -0.37236415 -0.05148979 0.00008974 0.00351465 -0.00010515
1699281190.207419 0.15370101 -0.37224874 -0.05101947 0.00008359 0.00350994 -0.00010942
1699281190.306421 0.15328863 -0.37209475 -0.05040914 0.00008313 0.00350524 -0.00011119
1699281190.405423 0.15311225 -0.37202309 -0.05022647 0.00008520 0.00349536 -0.00011167
1699281190.507426 0.15300349 -0.37187304 -0.05028832 0.00008557 0.00347556 -0.00011006
1699281190.606428 0.15284163 -0.37176725 -0.05014853 0.00008376 0.00346582 -0.00010929
1699281190.705430 0.15264836 -0.37166645 -0.04999010 0.00008348 0.00345087 -0.00010830
1699281190.807432 0.15249653 -0.37159326 -0.04989710 0.00008447 0.00344024 -0.00010781
1699281190.906434 0.15227378 -0.37147827 -0.04988539 0.00008755 0.00341902 -0.00009913
1699281191.005436 0.15210626 -0.37136404 -0.05001878 0.00008779 0.00339067 -0.00009407
1699281191.107438 0.15183487 -0.37127192 -0.05000291 0.00008469 0.00336645 -0.00009123
1699281191.206440 0.15153013 -0.37119480 -0.04989955 0.00008168 0.00334963 -0.00008710
1699281191.305443 0.15112418 -0.37113456 -0.04960982 0.00008023 0.00333253 -0.00008394
1699281191.407445 0.15082769 -0.37108477 -0.04948593 0.00007817 0.00331763 -0.00008333
1699281191.506447 0.15046686 -0.37102662 -0.04934571 0.00007715 0.00330352 -0.00008664
1699281191.605449 0.15008193 -0.37097221 -0.04915359 0.00007688 0.00329326 -0.00009004
1699281191.707451 0.14970639 -0.37092741 -0.04895353 0.00007753 0.00328798 -0.00009163
1699281191.806453 0.14932037 -0.37088852 -0.04875146 0.00008111 0.00328215 -0.00009511
1699281191.905455 0.14893873 -0.37085419 -0.04855622 0.00008347 0.00327093 -0.00009722
1699281192.007457 0.14857420 -0.37082154 -0.04837542 0.00008386 0.00325999 -0.00009886
1699281192.106460 0.14822265 -0.37078796 -0.04826613 0.00008115 0.00324715 -0.00009724
1699281192.205462 0.14787640 -0.37074676 -0.04828452 0.00007704 0.00323476 -0.00009910
1699281192.307464 0.14747406 -0.37069320 -0.04832454 0.00007322 0.00322198 -0.00009887
1699281192.406466 0.14712965 -0.37064579 -0.04833826 0.00007155 0.00321406 -0.00010005
1699281192.505468 0.14672081 -0.37058842 -0.04835947 0.00006885 0.00320444 -0.00010148
1699281192.607470 0.14632666 -0.37053220 -0.04823363 0.00006805 0.00320281 -0.00010678
1699281192.706472 0.14594104 -0.37047561 -0.04814220 0.00006691 0.00319674 -0.00011007
1699281192.805475 0.14556997 -0.37042113 -0.04805100 0.00006351 0.00318757 -0.00011135
1699281192.907477 0.14526723 -0.37037671 -0.04798409 0.00006104 0.00318422 -0.00011148
1699281193.006479 0.14497814 -0.37033575 -0.04789575 0.00006029 0.00317732 -0.00011108
1699281193.108481 0.14497814 -0.37033575 -0.04789575 0.00006029 0.00317732 -0.00011108
1699281193.207483 0.14473954 -0.37030794 -0.04775907 0.00005960 0.00317554 -0.00011265
1699281193.306485 0.14440472 -0.37026854 -0.04786314 0.00006311 0.00317036 -0.00011316
1699281193.405487 0.14403055 -0.37022785 -0.04785775 0.00006773 0.00316364 -0.00011221
1699281193.507489 0.14376663 -0.37019753 -0.04789180 0.00007668 0.00316946 -0.00011209
1699281193.606492 0.14349178 -0.37016321 -0.04799092 0.00008406 0.00316897 -0.00011312
1699281193.708494 0.14315490 -0.37011850 -0.04807765 0.00009330 0.00313882 -0.00011366
1699281193.807496 0.14278803 -0.37005755 -0.04825022 0.00010114 0.00315875 -0.00011809
1699281193.906498 0.14246150 -0.36999583 -0.04821350 0.00010280 0.00316671 -0.00012101
1699281194.005500 0.14216043 -0.36995844 -0.04818974 0.00009409 0.00316275 -0.00012014
1699281194.107502 0.14187347 -0.36993585 -0.04819434 0.00007850 0.00317761 -0.00011586
1699281194.206504 0.14172957 -0.36992314 -0.04811601 0.00007271 0.00318656 -0.00011483
1699281194.305506 0.14149641 -0.36990237 -0.04780553 0.00006699 0.00319287 -0.00011755
1699281194.407509 0.14135544 -0.36988800 -0.04753917 0.00006372 0.00321391 -0.00012093
1699281194.506511 0.14131615 -0.36988191 -0.04718949 0.00006338 0.00323196 -0.00012480
1699281194.605513 0.14132554 -0.36988562 -0.04685372 0.00006399 0.00323726 -0.00012378
1699281194.707515 0.14136444 -0.36989250 -0.04662948 0.00006077 0.00325352 -0.00012274
1699281194.806517 0.14141777 -0.36990440 -0.04637376 0.00005679 0.00327129 -0.00012164
1699281194.905519 0.14152707 -0.36993444 -0.04606966 0.00005217 0.00327748 -0.00011917
1699281195.007522 0.14161462 -0.36996088 -0.04590640 0.00005168 0.00329324 -0.00011896
1699281195.106524 0.14171645 -0.36999557 -0.04573054 0.00004749 0.00330046 -0.00011938
1699281195.205526 0.14182604 -0.37003610 -0.04550261 0.00004548 0.00329285 -0.00012411
1699281195.307528 0.14190519 -0.37008898 -0.04534416 0.00004566 0.00328628 -0.00012852
1699281195.406530 0.14199056 -0.37015171 -0.04522327 0.00004889 0.00328000 -0.00013246
1699281195.505532 0.14208784 -0.37021249 -0.04512707 0.00005528 0.00327596 -0.00013409
1699281195.607534 0.14215827 -0.37027732 -0.04502526 0.00005696 0.00328113 -0.00013825
1699281195.706537 0.14220917 -0.37034904 -0.04490903 0.00005554 0.00328684 -0.00014293
1699281195.805539 0.14222942 -0.37042787 -0.04473574 0.00005635 0.00329407 -0.00015041
1699281195.907541 0.14224328 -0.37049749 -0.04466188 0.00004719 0.00330116 -0.00015385
1699281196.006543 0.14221791 -0.37059514 -0.04442159 0.00003448 0.00330826 -0.00015529
1699281196.105545 0.14214842 -0.37068685 -0.04420549 0.00002950 0.00330791 -0.00015396
1699281196.207547 0.14204097 -0.37076938 -0.04407483 0.00001666 0.00331039 -0.00015180
1699281196.306549 0.14191156 -0.37083640 -0.04401390 0.00000419 0.00331164 -0.00015308
1699281196.405551 0.14165532 -0.37084675 -0.04399866 -0.00000967 0.00330879 -0.00015294
1699281196.507554 0.14111298 -0.37073747 -0.04379384 -0.00003459 0.00331345 -0.00014894
1699281196.606556 0.14040450 -0.37042818 -0.04345691 -0.00004949 0.00331918 -0.00014664
1699281196.705558 0.13976266 -0.36999137 -0.04311317 -0.00005493 0.00331868 -0.00014272
1699281196.807560 0.13893859 -0.36920854 -0.04276005 -0.00006649 0.00332457 -0.00013939
1699281196.906562 0.13839436 -0.36847009 -0.04253899 -0.00007363 0.00332566 -0.00013699
1699281197.008564 0.13767158 -0.36713358 -0.04233524 -0.00008442 0.00331924 -0.00011850
1699281197.107566 0.13698025 -0.36574883 -0.04221583 -0.00009746 0.00332244 -0.00013013
1699281197.206568 0.13617753 -0.36392737 -0.04206794 -0.00010837 0.00332448 -0.00013428
1699281197.305571 0.13519472 -0.36172838 -0.04183709 -0.00011591 0.00332114 -0.00013564
1699281197.407573 0.13429463 -0.35977467 -0.04161984 -0.00013083 0.00332111 -0.00013198
1699281197.506575 0.13302762 -0.35702221 -0.04132128 -0.00014146 0.00332242 -0.00012695
1699281197.605577 0.13166918 -0.35392387 -0.04105471 -0.00014627 0.00332072 -0.00012419
1699281197.707579 0.13021841 -0.35041212 -0.04095190 -0.00015551 0.00332647 -0.00012168
1699281197.806581 0.12868089 -0.34657511 -0.04078369 -0.00015775 0.00333253 -0.00011696
1699281197.908583 0.12718580 -0.34247306 -0.04051820 -0.00016254 0.00333030 -0.00010050
1699281198.007586 0.12567231 -0.33800860 -0.04018780 -0.00016514 0.00333995 -0.00009863
1699281198.106588 0.12420788 -0.33306884 -0.03979355 -0.00016573 0.00335002 -0.00009647
1699281198.205590 0.12274124 -0.32763293 -0.03943174 -0.00016854 0.00335155 -0.00009170
1699281198.307592 0.12123336 -0.32174819 -0.03904609 -0.00016891 0.00336084 -0.00008804
1699281198.406594 0.11971697 -0.31555355 -0.03873243 -0.00017259 0.00336690 -0.00008481
1699281198.505596 0.11785513 -0.30782145 -0.03834289 -0.00017500 0.00337054 -0.00008141
1699281198.607598 0.11660184 -0.30220042 -0.03805679 -0.00017478 0.00337963 -0.00008405
1699281198.706600 0.11470772 -0.29355274 -0.03759350 -0.00017294 0.00338711 -0.00008253
1699281198.808603 0.11294860 -0.28611072 -0.03717543 -0.00017648 0.00337614 -0.00008632
1699281198.907605 0.11062666 -0.27665467 -0.03669663 -0.00017464 0.00338861 -0.00007735
1699281199.006607 0.10857490 -0.26820106 -0.03641552 -0.00017133 0.00339227 -0.00008008
1699281199.108609 0.10676271 -0.26173383 -0.03614627 -0.00017963 0.00338058 -0.00009687
1699281199.207611 0.10467741 -0.25361002 -0.03584474 -0.00017175 0.00339042 -0.00008249
1699281199.306613 0.10269997 -0.24552771 -0.03544031 -0.00015984 0.00339541 -0.00007512
1699281199.408615 0.10064206 -0.23753298 -0.03507459 -0.00016812 0.00339317 -0.00009470
1699281199.507617 0.09885875 -0.22929422 -0.03463795 -0.00016056 0.00340054 -0.00007766
1699281199.606620 0.09716591 -0.22100916 -0.03409923 -0.00015598 0.00340840 -0.00007311
1699281199.705622 0.09558599 -0.21331069 -0.03359842 -0.00015245 0.00340970 -0.00007184
1699281199.807624 0.09411828 -0.20630509 -0.03315766 -0.00014749 0.00342140 -0.00006969
1699281199.906626 0.09271247 -0.19975862 -0.03276732 -0.00014288 0.00343082 -0.00006549
1699281200.008628 0.09117541 -0.19346758 -0.03262398 -0.00014313 0.00342668 -0.00007034
1699281200.107630 0.08960337 -0.18741818 -0.03253982 -0.00014089 0.00343781 -0.00005916
1699281200.206632 0.08803847 -0.18163316 -0.03235867 -0.00014103 0.00344969 -0.00005180
1699281200.305634 0.08654020 -0.17602825 -0.03221944 -0.00014662 0.00345227 -0.00005010
1699281200.407637 0.08511503 -0.17065610 -0.03213550 -0.00014979 0.00346425 -0.00004831
1699281200.506639 0.08329600 -0.16361115 -0.03213294 -0.00015449 0.00347485 -0.00004645
1699281200.605641 0.08189266 -0.15764912 -0.03214776 -0.00015480 0.00347590 -0.00004662
1699281200.707643 0.08051245 -0.15121330 -0.03234717 -0.00015377 0.00349718 -0.00004852
1699281200.806645 0.07937219 -0.14576473 -0.03260633 -0.00014709 0.00350854 -0.00004915
1699281200.905647 0.07828590 -0.13989126 -0.03272410 -0.00014384 0.00351246 -0.00005216
1699281201.007649 0.07744385 -0.13483660 -0.03272993 -0.00013356 0.00352332 -0.00005626
1699281201.106652 0.07670324 -0.13012790 -0.03262821 -0.00012698 0.00352758 -0.00006167
1699281201.205654 0.07580399 -0.12501971 -0.03255308 -0.00012465 0.00352815 -0.00005792
1699281201.307656 0.07499323 -0.12066932 -0.03258928 -0.00012464 0.00354526 -0.00005735
1699281201.406658 0.07403371 -0.11595461 -0.03270756 -0.00012230 0.00356206 -0.00005544
1699281201.505660 0.07341199 -0.11221290 -0.03260384 -0.00011961 0.00356571 -0.00005807
1699281201.607662 0.07273449 -0.10813333 -0.03268000 -0.00011665 0.00358145 -0.00005479
1699281201.706665 0.07212158 -0.10465474 -0.03242250 -0.00011604 0.00358856 -0.00005719
1699281201.805666 0.07094128 -0.10025871 -0.03194711 -0.00012185 0.00358733 -0.00005073
1699281201.907669 0.07010854 -0.09713405 -0.03202385 -0.00012477 0.00359149 -0.00004840
1699281202.006671 0.06908677 -0.09367047 -0.03179486 -0.00013448 0.00359317 -0.00004155
1699281202.105673 0.06829274 -0.09067102 -0.03131421 -0.00013899 0.00358809 -0.00004173
1699281202.207675 0.06762215 -0.08836652 -0.03093596 -0.00013948 0.00358412 -0.00003963
1699281202.306677 0.06666636 -0.08575311 -0.03054599 -0.00013634 0.00357540 -0.00003736
1699281202.405679 0.06562631 -0.08344943 -0.03016265 -0.00013630 0.00356867 -0.00003463
1699281202.507682 0.06441673 -0.08154387 -0.02971740 -0.00013583 0.00354887 -0.00002953
1699281202.606684 0.06342399 -0.08029529 -0.02939705 -0.00013507 0.00353112 -0.00002523
1699281202.705686 0.06222422 -0.07894913 -0.02911780 -0.00013826 0.00351788 -0.00002256
1699281202.807688 0.06128879 -0.07797100 -0.02892589 -0.00013822 0.00349808 -0.00002234
1699281202.906690 0.06054461 -0.07713883 -0.02882858 -0.00013897 0.00347969 -0.00002395
1699281203.005692 0.06015366 -0.07660256 -0.02884516 -0.00014097 0.00346871 -0.00002526
1699281203.107694 0.05995591 -0.07619165 -0.02886238 -0.00013904 0.00344218 -0.00002823
1699281203.206697 0.05990554 -0.07587902 -0.02898341 -0.00013918 0.00343360 -0.00002835
1699281203.305699 0.05991034 -0.07563590 -0.02909820 -0.00013660 0.00342726 -0.00002625
1699281203.407701 0.05997168 -0.07546504 -0.02920901 -0.00013304 0.00341047 -0.00002452
1699281203.506703 0.06006621 -0.07533005 -0.02934348 -0.00013086 0.00339624 -0.00002284
1699281203.605705 0.06019053 -0.07521297 -0.02942055 -0.00012870 0.00338590 -0.00002220
1699281203.707707 0.06044234 -0.07504856 -0.02947388 -0.00012224 0.00336893 -0.00002311
1699281203.806709 0.06070545 -0.07487250 -0.02942249 -0.00011886 0.00335542 -0.00002471
1699281203.905711 0.06088214 -0.07470795 -0.02926767 -0.00011813 0.00334770 -0.00002380
1699281204.007714 0.06098894 -0.07449294 -0.02900732 -0.00011689 0.00333356 -0.00002355
1699281204.106716 0.06097383 -0.07423614 -0.02880954 -0.00012086 0.00333074 -0.00002019
1699281204.205718 0.06089238 -0.07394325 -0.02855030 -0.00012488 0.00332715 -0.00001769
1699281204.307720 0.06073995 -0.07359404 -0.02829051 -0.00012791 0.00331509 -0.00001354
1699281204.406722 0.06049056 -0.07311758 -0.02817199 -0.00013053 0.00331347 -0.00001006
1699281204.505724 0.06029443 -0.07269166 -0.02811580 -0.00013043 0.00331043 -0.00000894
1699281204.607726 0.06008127 -0.07217934 -0.02806653 -0.00013108 0.00330307 -0.00000799
1699281204.706728 0.05980614 -0.07150006 -0.02807650 -0.00013071 0.00330471 -0.00000829
1699281204.805731 0.05956001 -0.07078119 -0.02800973 -0.00013238 0.00330141 -0.00000721
1699281204.907733 0.05929173 -0.07001241 -0.02792411 -0.00013571 0.00329884 -0.00000489
1699281205.006735 0.05901576 -0.06924285 -0.02787899 -0.00013590 0.00329667 -0.00000329
1699281205.105737 0.05879024 -0.06858481 -0.02783380 -0.00013578 0.00329148 -0.00000166
1699281205.207739 0.05853919 -0.06792582 -0.02783608 -0.00013692 0.00329229 -0.00000187
1699281205.306741 0.05827588 -0.06713732 -0.02780986 -0.00013469 0.00328655 -0.00000458
1699281205.405743 0.05802766 -0.06648333 -0.02788885 -0.00013451 0.00328289 -0.00000489
1699281205.507746 0.05780402 -0.06571131 -0.02793153 -0.00013129 0.00326186 -0.00000229
1699281205.606748 0.05763611 -0.06521327 -0.02812703 -0.00013250 0.00327845 -0.00000652
1699281205.705750 0.05739427 -0.06461315 -0.02832544 -0.00013085 0.00327997 -0.00000790
1699281205.807752 0.05714849 -0.06405509 -0.02836964 -0.00012798 0.00325372 -0.00000175
1699281205.906754 0.05684652 -0.06351996 -0.02861113 -0.00013215 0.00328090 -0.00000328
1699281206.005756 0.05660346 -0.06297528 -0.02853209 -0.00013261 0.00328435 -0.00000313
1699281206.107758 0.05646828 -0.06254565 -0.02836914 -0.00012977 0.00327156 -0.00000719
1699281206.206760 0.05626852 -0.06190033 -0.02835732 -0.00013299 0.00329551 -0.00000748
1699281206.305763 0.05623396 -0.06153671 -0.02819523 -0.00013378 0.00329664 -0.00000900
1699281206.407765 0.05622408 -0.06086509 -0.02777157 -0.00014167 0.00330158 -0.00001443
1699281206.506767 0.05621783 -0.06047659 -0.02763368 -0.00014138 0.00331268 -0.00001144
1699281206.605769 0.05630086 -0.05975565 -0.02712796 -0.00014552 0.00332146 -0.00000903
1699281206.707771 0.05637317 -0.05908412 -0.02678160 -0.00014982 0.00334014 -0.00001968
1699281206.806773 0.05650370 -0.05839025 -0.02642619 -0.00014964 0.00335343 -0.00001009
1699281206.905775 0.05670649 -0.05766293 -0.02602936 -0.00015071 0.00335594 -0.00000912
1699281207.007777 0.05692589 -0.05692999 -0.02576668 -0.00015463 0.00336650 -0.00001137
1699281207.106780 0.05711588 -0.05623100 -0.02561056 -0.00015512 0.00337145 -0.00001170
1699281207.205782 0.05730577 -0.05553011 -0.02545342 -0.00015592 0.00337280 -0.00001105
1699281207.307784 0.05746152 -0.05490876 -0.02552375 -0.00016348 0.00339253 -0.00002378
1699281207.406786 0.05760261 -0.05435416 -0.02548221 -0.00015765 0.00339033 -0.00001437
1699281207.505788 0.05773175 -0.05382378 -0.02528607 -0.00015315 0.00338580 -0.00001034
1699281207.607790 0.05783232 -0.05331015 -0.02501679 -0.00014953 0.00337836 -0.00000859
1699281207.706792 0.05791643 -0.05281925 -0.02482594 -0.00014570 0.00337312 -0.00000836
1699281207.805794 0.05799245 -0.05233409 -0.02469038 -0.00014042 0.00336909 -0.00000816
1699281207.907797 0.05806244 -0.05186746 -0.02459853 -0.00013623 0.00336581 0.00001168
1699281208.006799 0.05811734 -0.05141402 -0.02452315 -0.00012742 0.00336834 -0.00000294
1699281208.105801 0.05812947 -0.05099747 -0.02433089 -0.00012191 0.00336861 -0.00000896
1699281208.207803 0.05811084 -0.05060058 -0.02404689 -0.00010343 0.00337201 0.00001724
1699281208.306805 0.05805295 -0.05022496 -0.02383640 -0.00010224 0.00336448 -0.00000580
1699281208.405807 0.05799813 -0.04988796 -0.02377378 -0.00011150 0.00335911 -0.00001641
1699281208.507810 0.05797270 -0.04953137 -0.02379264 -0.00011083 0.00335290 0.00001566
