timestamp ba_x ba_y ba_z bg_x bg_y bg_z
1698824998.151407 -0.00000001 -0.00000008 -0.00004576 -0.00021667 0.00008603 -0.00007137
1698824998.253409 -0.00000009 -0.00000024 -0.00020215 -0.00021696 0.00008328 -0.00007246
1698824998.352411 -0.00000019 -0.00000041 -0.00039793 -0.00021383 0.00008456 -0.00007539
1698824998.451413 -0.00000030 -0.00000054 -0.00059708 -0.00021319 0.00008255 -0.00007437
1698824998.553415 -0.00000042 -0.00000067 -0.00080330 -0.00021270 0.00008353 -0.00007233
1698824998.652417 -0.00000054 -0.00000080 -0.00101571 -0.00021122 0.00008546 -0.00006821
1698824998.751419 -0.00000065 -0.00000090 -0.00123686 -0.00020842 0.00008303 -0.00006044
1698824998.853421 -0.00000083 -0.00000120 -0.00182133 -0.00021312 0.00008030 -0.00005578
1698824998.952424 -0.00000105 -0.00000134 -0.00219627 -0.00022040 0.00007252 -0.00004969
1698824999.051426 -0.00000145 -0.00000149 -0.00270447 -0.00022193 0.00005819 -0.00003939
1698824999.153428 -0.00000168 -0.00000173 -0.00323271 -0.00021648 0.00004644 -0.00003329
1698824999.252430 -0.00000184 -0.00000191 -0.00356317 -0.00020724 0.00002841 -0.00002974
1698824999.351432 -0.00000205 -0.00000214 -0.00397576 -0.00018991 0.00000869 -0.00002900
1698824999.453434 -0.00000228 -0.00000243 -0.00449618 -0.00016391 -0.00001017 -0.00003195
1698824999.552437 -0.00000239 -0.00000253 -0.00468139 -0.00013608 -0.00003398 -0.00003807
1698824999.651438 -0.00000248 -0.00000264 -0.00490391 -0.00012090 -0.00005527 -0.00004305
1698824999.753441 -0.00000228 -0.00000306 -0.00531111 -0.00010447 -0.00007641 -0.00004959
1698824999.852443 -0.00000214 -0.00000333 -0.00557325 -0.00008685 -0.00010043 -0.00005193
1698824999.951445 -0.00000199 -0.00000355 -0.00582542 -0.00006820 -0.00012653 -0.00005589
1698825000.053447 -0.00000174 -0.00000377 -0.00620556 -0.00005283 -0.00014808 -0.00005766
1698825000.152449 -0.00000176 -0.00000395 -0.00631908 -0.00004461 -0.00017095 -0.00005797
1698825000.251451 -0.00000652 0.00000010 -0.00633307 -0.00003548 -0.00018642 -0.00006141
1698825000.353454 -0.00000282 0.00000595 -0.00654652 -0.00004050 -0.00019401 -0.00005736
1698825000.452456 0.00000222 0.00001226 -0.00644635 -0.00003944 -0.00020515 -0.00005506
1698825000.551458 0.00001224 0.00002122 -0.00647265 -0.00003106 -0.00020784 -0.00005665
1698825000.653460 0.00002132 0.00002845 -0.00661752 -0.00002139 -0.00020613 -0.00005945
1698825000.752462 0.00001605 0.00003789 -0.00670447 -0.00001039 -0.00020313 -0.00005871
1698825000.851464 0.00003101 0.00004180 -0.00681900 0.00000078 -0.00019360 -0.00005659
1698825000.956466 0.00004227 0.00003772 -0.00689819 0.00000682 -0.00018974 -0.00005120
1698825001.058469 0.00004809 0.00002931 -0.00714182 0.00001176 -0.00018003 -0.00004228
1698825001.157471 0.00005913 0.00001677 -0.00707650 0.00003118 -0.00018313 -0.00004079
1698825001.256473 0.00006686 0.00000715 -0.00708230 0.00004457 -0.00018484 -0.00004313
1698825001.358475 0.00005406 0.00002006 -0.00731039 0.00007422 -0.00018796 -0.00004921
1698825001.457477 0.00006046 -0.00000765 -0.00733536 0.00009529 -0.00019686 -0.00005969
1698825001.556479 0.00008837 -0.00003875 -0.00738338 0.00012062 -0.00019946 -0.00006353
1698825001.658481 0.00011730 -0.00006581 -0.00763113 0.00014549 -0.00019990 -0.00006088
1698825001.757483 0.00015419 -0.00008124 -0.00741766 0.00016625 -0.00020426 -0.00005535
1698825001.856486 0.00014528 -0.00002908 -0.00735029 0.00019823 -0.00020919 -0.00004945
1698825001.955488 0.00014020 -0.00000698 -0.00721096 0.00022845 -0.00021210 -0.00004310
1698825002.057490 0.00010480 -0.00000064 -0.00718211 0.00026481 -0.00021951 -0.00004213
1698825002.156492 0.00016614 -0.00002446 -0.00733438 0.00028455 -0.00021698 -0.00003567
1698825002.258494 0.00021605 -0.00004060 -0.00750836 0.00028907 -0.00021354 -0.00003803
1698825002.357496 0.00026009 -0.00004615 -0.00780688 0.00028739 -0.00020731 -0.00003702
1698825002.456498 0.00028121 -0.00003998 -0.00806800 0.00028413 -0.00020165 -0.00003490
1698825002.558501 0.00028821 -0.00003104 -0.00829703 0.00027864 -0.00020291 -0.00003302
1698825002.657503 0.00029499 -0.00002095 -0.00855834 0.00027149 -0.00020503 -0.00002829
1698825002.756505 0.00030167 -0.00001075 -0.00878795 0.00026316 -0.00020623 -0.00002323
1698825002.855507 0.00030705 0.00000036 -0.00900611 0.00025695 -0.00020645 -0.00002137
1698825002.957509 0.00031289 0.00001173 -0.00923617 0.00025406 -0.00020657 -0.00002242
1698825003.056511 0.00031836 0.00002271 -0.00944713 0.00025299 -0.00020691 -0.00002421
1698825003.206514 0.00032324 0.00003411 -0.00964321 0.00024892 -0.00020535 -0.00002772
1698825003.308517 0.00032799 0.00004444 -0.00981058 0.00024395 -0.00020411 -0.00002878
1698825003.407519 0.00033296 0.00005401 -0.00995564 0.00023941 -0.00019944 -0.00002437
1698825003.506521 0.00033764 0.00006339 -0.01007295 0.00023288 -0.00019438 -0.00001793
1698825003.605523 0.00034260 0.00007290 -0.01018115 0.00022532 -0.00019060 -0.00001213
1698825003.707525 0.00034651 0.00008297 -0.01028771 0.00021550 -0.00018892 -0.00000305
1698825003.806527 0.00035008 0.00009388 -0.01040845 0.00020863 -0.00018538 0.00000082
1698825003.905529 0.00035616 0.00010978 -0.01048809 0.00020247 -0.00018437 0.00000498
1698825004.007531 0.00036301 0.00012675 -0.01056189 0.00019566 -0.00017896 0.00000934
1698825004.106534 0.00037071 0.00014536 -0.01060092 0.00018423 -0.00017482 0.00000775
1698825004.205536 0.00038378 0.00016772 -0.01060057 0.00016846 -0.00018440 0.00001505
1698825004.307538 0.00039907 0.00018185 -0.01065061 0.00015821 -0.00018600 0.00001177
1698825004.406540 0.00033178 0.00025926 -0.01084367 0.00016375 -0.00020750 -0.00000096
1698825004.505542 0.00024311 0.00033898 -0.01107660 0.00017097 -0.00023193 -0.00001743
1698825004.607544 0.00023318 0.00035034 -0.01114581 0.00017453 -0.00024156 -0.00002290
1698825004.706547 0.00057682 -0.00013843 -0.01127479 0.00018732 -0.00025869 -0.00003940
1698825004.808549 0.00085951 -0.00053589 -0.01133817 0.00020468 -0.00027238 -0.00002427
1698825004.907551 0.00084006 -0.00081313 -0.01136200 0.00023180 -0.00028694 -0.00003803
1698825005.006553 0.00078452 -0.00076650 -0.01130397 0.00024890 -0.00029592 -0.00004275
1698825005.105555 0.00077074 -0.00075193 -0.01125645 0.00024758 -0.00030219 -0.00004061
1698825005.207557 0.00076487 -0.00072436 -0.01125661 0.00024087 -0.00030835 -0.00003628
1698825005.306559 0.00076451 -0.00066361 -0.01125004 0.00023155 -0.00031240 -0.00002770
1698825005.405561 0.00077341 -0.00061964 -0.01119058 0.00022119 -0.00031517 -0.00002432
1698825005.507564 0.00079438 -0.00058934 -0.01104460 0.00021407 -0.00031615 -0.00002159
1698825005.606566 0.00082923 -0.00056889 -0.01085660 0.00020604 -0.00031552 -0.00002122
1698825005.708568 0.00087635 -0.00056543 -0.01065587 0.00020061 -0.00030891 -0.00000850
1698825005.807570 0.00087985 -0.00054331 -0.01051280 0.00019629 -0.00030612 -0.00001012
1698825005.906572 0.00088516 -0.00050422 -0.01039369 0.00019103 -0.00030292 -0.00001215
1698825006.008574 0.00091564 -0.00047581 -0.01029908 0.00018492 -0.00030727 -0.00000617
1698825006.107576 0.00094791 -0.00042594 -0.01019346 0.00017858 -0.00030529 -0.00001332
1698825006.206578 0.00101796 -0.00036738 -0.01007093 0.00017394 -0.00030547 -0.00002385
1698825006.305581 0.00107366 -0.00029292 -0.00998819 0.00016884 -0.00030379 -0.00003179
1698825006.407583 0.00111570 -0.00021839 -0.00989281 0.00016195 -0.00030259 -0.00003572
1698825006.506585 0.00115481 -0.00011997 -0.00981951 0.00015301 -0.00030299 -0.00003671
1698825006.605587 0.00117051 0.00003686 -0.00981159 0.00014085 -0.00030653 -0.00003791
1698825006.707589 0.00116627 0.00012473 -0.00982553 0.00013341 -0.00031488 -0.00003617
1698825006.806591 0.00115105 0.00023545 -0.00985924 0.00012570 -0.00031824 -0.00003140
1698825006.908593 0.00116837 0.00034357 -0.00983553 0.00011898 -0.00032011 -0.00001798
1698825007.007596 0.00118202 0.00044640 -0.00973379 0.00011070 -0.00032417 -0.00002236
1698825007.106598 0.00121895 0.00059418 -0.00964328 0.00009617 -0.00032988 -0.00002613
1698825007.208600 0.00132177 0.00071409 -0.00957146 0.00009022 -0.00033059 -0.00002584
1698825007.307602 0.00141007 0.00099603 -0.00944901 0.00008523 -0.00033941 -0.00003207
1698825007.406604 0.00158419 0.00131230 -0.00934750 0.00007721 -0.00034459 -0.00004383
1698825007.505606 0.00174517 0.00160114 -0.00927276 0.00007346 -0.00034944 -0.00005090
1698825007.607608 0.00182529 0.00184295 -0.00923429 0.00007099 -0.00035831 -0.00005315
1698825007.706610 0.00193267 0.00212312 -0.00925565 0.00006582 -0.00036620 -0.00005076
1698825007.808613 0.00204068 0.00231504 -0.00944488 0.00005076 -0.00035273 -0.00003854
1698825007.907615 0.00213519 0.00249012 -0.00955526 0.00003695 -0.00037200 -0.00002846
1698825008.006617 0.00217177 0.00275765 -0.00966672 0.00002170 -0.00039176 -0.00002189
1698825008.105619 0.00219041 0.00302658 -0.00993919 0.00000354 -0.00040025 -0.00001731
1698825008.207621 0.00228017 0.00308653 -0.01013417 -0.00001049 -0.00038770 -0.00001234
1698825008.306623 0.00233169 0.00329855 -0.01017898 -0.00001687 -0.00040576 -0.00000248
1698825008.405625 0.00233915 0.00361181 -0.01019571 -0.00002010 -0.00043281 0.00001331
1698825008.507627 0.00239472 0.00393787 -0.01021106 -0.00002426 -0.00046219 0.00003164
1698825008.606630 0.00246406 0.00422362 -0.01026724 -0.00004075 -0.00048023 0.00005188
1698825008.705632 0.00253477 0.00447995 -0.01028750 -0.00005064 -0.00048070 0.00006521
1698825008.807634 0.00262972 0.00470563 -0.01017996 -0.00006867 -0.00048678 0.00007265
1698825008.906636 0.00277814 0.00478446 -0.01010490 -0.00008522 -0.00049036 0.00008545
1698825009.005638 0.00289233 0.00478758 -0.01002373 -0.00008530 -0.00049293 0.00008949
1698825009.107640 0.00322581 0.00458345 -0.01040721 -0.00008327 -0.00049142 0.00009089
1698825009.206642 0.00338204 0.00453629 -0.01054924 -0.00008798 -0.00049751 0.00009276
1698825009.305645 0.00342109 0.00451851 -0.01059501 -0.00008775 -0.00049912 0.00009259
1698825009.407647 0.00347430 0.00448353 -0.01064093 -0.00008630 -0.00050244 0.00009289
1698825009.506649 0.00351372 0.00447307 -0.01069987 -0.00008721 -0.00050674 0.00009491
1698825009.605651 0.00384619 0.00455034 -0.01120847 -0.00009894 -0.00052680 0.00010616
1698825009.707653 0.00402471 0.00461120 -0.01139188 -0.00011083 -0.00054446 0.00011306
1698825009.806655 0.00407316 0.00463088 -0.01143790 -0.00011507 -0.00054775 0.00011499
1698825009.908657 0.00432011 0.00462813 -0.01169592 -0.00013763 -0.00056261 0.00012624
1698825010.007659 0.00501232 0.00450396 -0.01211545 -0.00016483 -0.00057696 0.00014795
1698825010.106662 0.00536169 0.00444805 -0.01228200 -0.00017891 -0.00057892 0.00015439
1698825010.208664 0.00581963 0.00434416 -0.01243659 -0.00018783 -0.00057379 0.00016053
1698825010.307666 0.00632412 0.00424993 -0.01247404 -0.00019897 -0.00057663 0.00016139
1698825010.406668 0.00721092 0.00423704 -0.01242105 -0.00021930 -0.00059141 0.00016354
1698825010.505670 0.00806610 0.00420209 -0.01257933 -0.00022120 -0.00060751 0.00017434
1698825010.607672 0.00916385 0.00400948 -0.01242557 -0.00021861 -0.00061374 0.00017556
1698825010.706674 0.00932611 0.00400959 -0.01238573 -0.00021630 -0.00061668 0.00017600
1698825010.805676 0.00950871 0.00401416 -0.01233310 -0.00021471 -0.00061832 0.00017808
1698825010.907679 0.00970807 0.00398411 -0.01225717 -0.00021269 -0.00062441 0.00017857
1698825011.006681 0.00990973 0.00396986 -0.01214853 -0.00021418 -0.00062594 0.00017853
1698825011.105683 0.01109943 0.00405617 -0.01162933 -0.00022569 -0.00063184 0.00017140
1698825011.207685 0.01130368 0.00402489 -0.01154868 -0.00022879 -0.00063393 0.00017414
1698825011.306687 0.01151734 0.00400675 -0.01143588 -0.00023366 -0.00063877 0.00017835
1698825011.405689 0.01173973 0.00397992 -0.01136893 -0.00023894 -0.00064411 0.00018556
1698825011.507692 0.01198532 0.00391381 -0.01131759 -0.00024379 -0.00065163 0.00019181
1698825011.606694 0.01337953 0.00358609 -0.01099037 -0.00024828 -0.00067971 0.00019268
1698825011.705696 0.01351046 0.00354960 -0.01097469 -0.00024847 -0.00068040 0.00019208
1698825011.807698 0.01379314 0.00345870 -0.01095946 -0.00025310 -0.00068911 0.00019156
1698825011.906700 0.01407555 0.00340596 -0.01097586 -0.00026050 -0.00069706 0.00019516
1698825012.005702 0.01420804 0.00339538 -0.01100014 -0.00026257 -0.00070214 0.00019613
1698825012.107704 0.01447895 0.00334676 -0.01106995 -0.00026631 -0.00071390 0.00019933
1698825012.206707 0.01461422 0.00334687 -0.01109667 -0.00026799 -0.00071989 0.00020126
1698825012.305709 0.01608382 0.00340224 -0.01117444 -0.00026921 -0.00074811 0.00020085
1698825012.407711 0.01623960 0.00339548 -0.01118685 -0.00027132 -0.00074894 0.00020165
1698825012.506713 0.01640833 0.00340767 -0.01119864 -0.00027397 -0.00075118 0.00020427
1698825012.605715 0.01657299 0.00342127 -0.01123935 -0.00027541 -0.00075422 0.00020761
1698825012.707717 0.01674470 0.00342427 -0.01129661 -0.00027520 -0.00075800 0.00020920
1698825012.806719 0.01691945 0.00343748 -0.01133301 -0.00027540 -0.00076203 0.00021086
1698825012.905721 0.01709908 0.00345011 -0.01137059 -0.00027704 -0.00076523 0.00021358
1698825013.007724 0.01889801 0.00333985 -0.01139256 -0.00030037 -0.00076955 0.00021192
1698825013.106726 0.01908903 0.00334288 -0.01137134 -0.00030081 -0.00077023 0.00021164
1698825013.205728 0.01929651 0.00334754 -0.01135248 -0.00030086 -0.00077012 0.00021207
1698825013.307730 0.01951724 0.00334440 -0.01134935 -0.00030143 -0.00077143 0.00021445
1698825013.406732 0.01975253 0.00337073 -0.01131278 -0.00030186 -0.00077368 0.00021736
1698825013.505734 0.02064605 0.00346350 -0.01122356 -0.00030360 -0.00077901 0.00022277
1698825013.607736 0.02152920 0.00353536 -0.01122883 -0.00030584 -0.00078513 0.00022308
1698825013.706738 0.02355638 0.00383961 -0.01116673 -0.00029958 -0.00078772 0.00022070
1698825013.805741 0.02438456 0.00397215 -0.01122632 -0.00030274 -0.00078262 0.00022377
1698825013.907743 0.02528635 0.00407790 -0.01122696 -0.00030931 -0.00077816 0.00022253
1698825014.006745 0.02617893 0.00426720 -0.01118212 -0.00031206 -0.00077274 0.00023024
1698825014.105747 0.02702094 0.00446401 -0.01129313 -0.00031364 -0.00077455 0.00024083
1698825014.207749 0.02863737 0.00499339 -0.01177023 -0.00031371 -0.00079010 0.00024225
1698825014.306751 0.02931122 0.00529523 -0.01194643 -0.00031181 -0.00079219 0.00025231
1698825014.405753 0.03050258 0.00582320 -0.01210149 -0.00031045 -0.00079573 0.00026174
1698825014.507756 0.03198292 0.00630862 -0.01233297 -0.00029968 -0.00080434 0.00023652
1698825014.606758 0.03317177 0.00677731 -0.01232388 -0.00030636 -0.00081209 0.00024475
1698825014.705760 0.03441191 0.00725733 -0.01229988 -0.00030923 -0.00081992 0.00025280
1698825014.807762 0.03581858 0.00777067 -0.01241849 -0.00029456 -0.00084247 0.00023083
1698825014.906764 0.03693719 0.00832680 -0.01244706 -0.00029363 -0.00085395 0.00022871
1698825015.005766 0.03812847 0.00889555 -0.01258343 -0.00028804 -0.00086503 0.00022993
1698825015.107768 0.03943058 0.00949081 -0.01285685 -0.00027092 -0.00085969 0.00020417
1698825015.206770 0.04044206 0.00993334 -0.01273865 -0.00026900 -0.00087259 0.00021196
1698825015.305773 0.04148161 0.01036256 -0.01266376 -0.00026760 -0.00086968 0.00021795
1698825015.407775 0.04266337 0.01084609 -0.01269502 -0.00025723 -0.00088301 0.00020621
1698825015.506777 0.04357517 0.01125241 -0.01263829 -0.00025198 -0.00088248 0.00021272
1698825015.605779 0.04449804 0.01163892 -0.01248489 -0.00024743 -0.00088527 0.00021630
1698825015.707781 0.04573459 0.01211677 -0.01231921 -0.00023323 -0.00089546 0.00020049
1698825015.806783 0.04664936 0.01252587 -0.01227977 -0.00022673 -0.00090129 0.00020679
1698825015.908785 0.04761001 0.01294278 -0.01242320 -0.00022528 -0.00090530 0.00021072
1698825016.010787 0.04876201 0.01339977 -0.01281239 -0.00022009 -0.00089867 0.00020329
1698825016.109790 0.04958909 0.01378126 -0.01276688 -0.00021759 -0.00090627 0.00020724
1698825016.208792 0.05005760 0.01399788 -0.01280334 -0.00022183 -0.00090808 0.00021033
1698825016.310794 0.05084799 0.01441036 -0.01292503 -0.00021853 -0.00091963 0.00022428
1698825016.409796 0.05151821 0.01476533 -0.01290577 -0.00021613 -0.00092187 0.00022710
1698825016.508798 0.05206055 0.01507606 -0.01295294 -0.00022078 -0.00092457 0.00022995
1698825016.610800 0.05272074 0.01545807 -0.01309593 -0.00022036 -0.00093336 0.00022986
1698825016.709802 0.05328876 0.01584072 -0.01301705 -0.00021876 -0.00093545 0.00024043
1698825016.808805 0.05354457 0.01601413 -0.01299926 -0.00021829 -0.00093262 0.00024153
1698825016.910807 0.05403332 0.01632005 -0.01291349 -0.00021852 -0.00093040 0.00023636
1698825017.009809 0.05468075 0.01675093 -0.01273398 -0.00021480 -0.00092898 0.00023356
1698825017.111811 0.05511210 0.01702594 -0.01270549 -0.00020807 -0.00093004 0.00022939
1698825017.210813 0.05571510 0.01743062 -0.01261311 -0.00020603 -0.00092258 0.00022043
1698825017.309815 0.05633060 0.01788447 -0.01261531 -0.00021420 -0.00091218 0.00022460
1698825017.408817 0.05672269 0.01818028 -0.01258327 -0.00021474 -0.00090320 0.00022413
1698825017.510820 0.05712205 0.01845948 -0.01249160 -0.00021291 -0.00090547 0.00021860
1698825017.609822 0.05750255 0.01874427 -0.01247998 -0.00020866 -0.00090443 0.00021373
1698825017.711824 0.05800414 0.01908422 -0.01252355 -0.00020967 -0.00090248 0.00020975
1698825017.810826 0.05854277 0.01947939 -0.01239042 -0.00021463 -0.00089742 0.00020849
1698825017.909828 0.05896993 0.01981520 -0.01227364 -0.00021408 -0.00088652 0.00020541
1698825018.008830 0.05896993 0.01981520 -0.01227364 -0.00021408 -0.00088652 0.00020541
1698825018.110832 0.05941218 0.02015289 -0.01237078 -0.00021977 -0.00088614 0.00021005
1698825018.209835 0.05979617 0.02046008 -0.01230587 -0.00022212 -0.00088255 0.00020652
1698825018.308837 0.06009269 0.02070917 -0.01237719 -0.00022626 -0.00088101 0.00020678
1698825018.410839 0.06038448 0.02094094 -0.01241859 -0.00023220 -0.00088296 0.00020797
1698825018.509841 0.06072158 0.02123353 -0.01228873 -0.00023507 -0.00087301 0.00020985
1698825018.608843 0.06106621 0.02150921 -0.01225956 -0.00023966 -0.00086316 0.00021597
1698825018.710845 0.06148315 0.02182851 -0.01252842 -0.00024724 -0.00085931 0.00020707
1698825018.809847 0.06177512 0.02206082 -0.01241127 -0.00023517 -0.00085527 0.00020349
1698825018.908849 0.06200803 0.02226087 -0.01240940 -0.00023040 -0.00084778 0.00020175
1698825019.010852 0.06229007 0.02249159 -0.01247969 -0.00022889 -0.00083552 0.00020274
1698825019.109854 0.06250655 0.02269371 -0.01245541 -0.00022989 -0.00084077 0.00020576
1698825019.208856 0.06271944 0.02289814 -0.01251929 -0.00022647 -0.00084486 0.00020776
1698825019.310858 0.06293642 0.02309306 -0.01267454 -0.00022607 -0.00084947 0.00020484
1698825019.409860 0.06313572 0.02329350 -0.01268957 -0.00022198 -0.00084633 0.00020542
1698825019.508862 0.06333460 0.02349071 -0.01274833 -0.00021681 -0.00084605 0.00020576
1698825019.610864 0.06351353 0.02367713 -0.01295349 -0.00021786 -0.00085241 0.00021100
1698825019.709867 0.06374631 0.02389766 -0.01317216 -0.00021883 -0.00084694 0.00020618
1698825019.808869 0.06401496 0.02412313 -0.01309834 -0.00021071 -0.00083885 0.00020202
1698825019.910871 0.06424169 0.02430015 -0.01299044 -0.00020432 -0.00084119 0.00020132
1698825020.009873 0.06444577 0.02449582 -0.01274044 -0.00020078 -0.00083833 0.00020560
1698825020.108875 0.06463773 0.02470112 -0.01255306 -0.00020081 -0.00083965 0.00020303
1698825020.210877 0.06477526 0.02485484 -0.01246458 -0.00020074 -0.00084058 0.00020566
1698825020.309879 0.06494073 0.02506869 -0.01241943 -0.00019832 -0.00083478 0.00020568
1698825020.408881 0.06509853 0.02527053 -0.01250834 -0.00019728 -0.00083534 0.00020931
1698825020.510884 0.06526482 0.02545339 -0.01250273 -0.00019577 -0.00084228 0.00021012
1698825020.609886 0.06541433 0.02564524 -0.01250783 -0.00019574 -0.00084213 0.00021086
1698825020.708888 0.06561936 0.02585473 -0.01275331 -0.00019607 -0.00085158 0.00020307
1698825020.810890 0.06578871 0.02603552 -0.01278579 -0.00019915 -0.00085917 0.00020840
1698825020.909892 0.06595180 0.02623173 -0.01283526 -0.00020017 -0.00085912 0.00020662
1698825021.008894 0.06611920 0.02641703 -0.01291880 -0.00019885 -0.00086253 0.00020516
1698825021.110896 0.06630302 0.02660813 -0.01313149 -0.00020690 -0.00087270 0.00021736
1698825021.209898 0.06642834 0.02676208 -0.01320799 -0.00021838 -0.00086979 0.00022594
1698825021.308901 0.06658309 0.02694748 -0.01322278 -0.00022291 -0.00087030 0.00022500
1698825021.410903 0.06670258 0.02708494 -0.01328043 -0.00022409 -0.00086446 0.00022840
1698825021.509905 0.06684771 0.02724680 -0.01311130 -0.00021550 -0.00086599 0.00021953
1698825021.608907 0.06693507 0.02737581 -0.01311869 -0.00022083 -0.00086080 0.00021702
1698825021.710909 0.06704030 0.02751862 -0.01319170 -0.00022494 -0.00086336 0.00021527
1698825021.809911 0.06712079 0.02767640 -0.01318805 -0.00022807 -0.00085683 0.00022222
1698825021.908913 0.06717789 0.02780583 -0.01317710 -0.00022996 -0.00085828 0.00022761
1698825022.010916 0.06721633 0.02791224 -0.01324858 -0.00023383 -0.00086473 0.00023103
1698825022.109918 0.06725771 0.02802545 -0.01316751 -0.00023500 -0.00085853 0.00023157
1698825022.208920 0.06729732 0.02821684 -0.01301757 -0.00022646 -0.00085317 0.00022123
1698825022.310922 0.06732462 0.02832710 -0.01295226 -0.00022698 -0.00085597 0.00022299
1698825022.409924 0.06738727 0.02852526 -0.01279425 -0.00022141 -0.00085251 0.00022024
1698825022.508926 0.06746497 0.02872559 -0.01278050 -0.00021616 -0.00084421 0.00021462
1698825022.610928 0.06754795 0.02892483 -0.01268350 -0.00021327 -0.00084162 0.00021375
1698825022.709930 0.06761059 0.02916851 -0.01255116 -0.00021193 -0.00084176 0.00021498
1698825022.808933 0.06763984 0.02935709 -0.01255549 -0.00020986 -0.00084567 0.00021785
1698825022.910935 0.06767286 0.02956848 -0.01271991 -0.00020475 -0.00084982 0.00021842
1698825023.009937 0.06767518 0.02974850 -0.01295755 -0.00019986 -0.00084095 0.00021203
1698825023.108939 0.06765966 0.02992957 -0.01301388 -0.00019864 -0.00083913 0.00021635
1698825023.210941 0.06766524 0.03007763 -0.01284543 -0.00019959 -0.00083401 0.00022051
1698825023.309943 0.06767865 0.03022758 -0.01271691 -0.00020284 -0.00082760 0.00022423
1698825023.408945 0.06769074 0.03035972 -0.01271387 -0.00020212 -0.00082534 0.00022691
1698825023.510947 0.06769911 0.03046185 -0.01274630 -0.00019921 -0.00083162 0.00022300
1698825023.609950 0.06771340 0.03061246 -0.01266129 -0.00019903 -0.00082950 0.00022311
1698825023.708952 0.06774905 0.03074665 -0.01273211 -0.00019942 -0.00082616 0.00022476
1698825023.810954 0.06785938 0.03088062 -0.01253858 -0.00020022 -0.00082568 0.00021700
1698825023.909956 0.06795051 0.03100366 -0.01248431 -0.00019747 -0.00082002 0.00021747
1698825024.008958 0.06802346 0.03113399 -0.01255707 -0.00019325 -0.00082765 0.00022375
1698825024.110960 0.06809225 0.03124624 -0.01265589 -0.00019359 -0.00083181 0.00022805
1698825024.260964 0.06821218 0.03142272 -0.01263489 -0.00019114 -0.00082674 0.00022956
1698825024.359966 0.06828301 0.03154683 -0.01276178 -0.00019102 -0.00082017 0.00023108
1698825024.458968 0.06832737 0.03173137 -0.01277907 -0.00019294 -0.00081938 0.00022801
1698825024.557970 0.06836158 0.03186841 -0.01279308 -0.00019171 -0.00082403 0.00022846
1698825024.659972 0.06838820 0.03205530 -0.01295981 -0.00019219 -0.00082232 0.00023354
1698825024.758974 0.06841693 0.03223073 -0.01294498 -0.00019083 -0.00082019 0.00023422
1698825024.860976 0.06847494 0.03239748 -0.01307678 -0.00018174 -0.00082789 0.00023844
1698825024.959979 0.06854508 0.03257314 -0.01324836 -0.00017668 -0.00082370 0.00023470
1698825025.058981 0.06865294 0.03276272 -0.01263066 -0.00016855 -0.00081831 0.00022254
1698825025.157983 0.06872853 0.03294583 -0.01248321 -0.00017317 -0.00082729 0.00022215
1698825025.259985 0.06880709 0.03313148 -0.01243207 -0.00017267 -0.00082703 0.00022230
1698825025.358987 0.06891382 0.03340117 -0.01211008 -0.00016708 -0.00082057 0.00022411
1698825025.457989 0.06902005 0.03370016 -0.01188717 -0.00016426 -0.00081703 0.00022657
1698825025.559991 0.06908901 0.03397383 -0.01173055 -0.00016641 -0.00081486 0.00023179
1698825025.658993 0.06927401 0.03423517 -0.01188123 -0.00016277 -0.00081648 0.00022358
1698825025.757996 0.06950875 0.03445553 -0.01173293 -0.00016061 -0.00081498 0.00022236
1698825025.859998 0.06977015 0.03468400 -0.01169762 -0.00015880 -0.00081043 0.00022171
1698825025.959000 0.06998032 0.03488713 -0.01166180 -0.00015669 -0.00080900 0.00022154
1698825026.058002 0.07018364 0.03508487 -0.01160901 -0.00015842 -0.00080816 0.00022248
1698825026.160004 0.07039418 0.03528838 -0.01159938 -0.00015765 -0.00080064 0.00021875
1698825026.259006 0.07068332 0.03554650 -0.01164902 -0.00015805 -0.00080099 0.00021760
1698825026.358008 0.07110947 0.03583136 -0.01169911 -0.00015348 -0.00080064 0.00021854
1698825026.460011 0.07145853 0.03605117 -0.01167285 -0.00014878 -0.00080337 0.00022017
1698825026.559013 0.07183868 0.03629261 -0.01172194 -0.00014641 -0.00080064 0.00022374
1698825026.658015 0.07221086 0.03653909 -0.01177238 -0.00014789 -0.00080171 0.00022670
1698825026.760017 0.07261194 0.03677148 -0.01211195 -0.00015092 -0.00080103 0.00022381
1698825026.859019 0.07289126 0.03695793 -0.01179850 -0.00014976 -0.00079662 0.00022152
1698825026.958021 0.07317459 0.03716268 -0.01178781 -0.00014777 -0.00079454 0.00021947
1698825027.060023 0.07344276 0.03732025 -0.01201135 -0.00014048 -0.00079645 0.00021507
1698825027.159025 0.07363010 0.03743856 -0.01179532 -0.00014303 -0.00079336 0.00021418
1698825027.258028 0.07373015 0.03750505 -0.01175528 -0.00013840 -0.00079359 0.00021534
1698825027.360030 0.07392173 0.03762669 -0.01168729 -0.00013554 -0.00078826 0.00021331
1698825027.459032 0.07412260 0.03775056 -0.01166295 -0.00013468 -0.00078134 0.00021161
1698825027.558034 0.07421634 0.03780965 -0.01164140 -0.00013889 -0.00078032 0.00021410
1698825027.660036 0.07433351 0.03788620 -0.01154228 -0.00013808 -0.00078456 0.00021120
1698825027.759038 0.07440156 0.03794364 -0.01136992 -0.00014086 -0.00078071 0.00021034
1698825027.858040 0.07440594 0.03795662 -0.01117343 -0.00014349 -0.00078339 0.00020537
1698825027.960042 0.07438991 0.03795974 -0.01122180 -0.00014855 -0.00077887 0.00020470
1698825028.059045 0.07438299 0.03797051 -0.01130269 -0.00015280 -0.00077364 0.00020783
1698825028.161047 0.07433433 0.03800448 -0.01152922 -0.00015936 -0.00077462 0.00020902
1698825028.260049 0.07430668 0.03802979 -0.01170788 -0.00016201 -0.00077392 0.00020990
1698825028.359051 0.07428716 0.03806447 -0.01184507 -0.00016333 -0.00077467 0.00021029
1698825028.458053 0.07419426 0.03812558 -0.01222280 -0.00016560 -0.00077831 0.00020217
1698825028.560055 0.07412732 0.03817133 -0.01218142 -0.00016610 -0.00077699 0.00020328
1698825028.659057 0.07406846 0.03820963 -0.01208815 -0.00016491 -0.00077236 0.00020616
1698825028.758060 0.07404290 0.03824336 -0.01172386 -0.00017137 -0.00077039 0.00020917
1698825028.860062 0.07392684 0.03823556 -0.01194188 -0.00016807 -0.00077337 0.00020095
1698825028.959064 0.07384510 0.03825277 -0.01182867 -0.00017947 -0.00077436 0.00020395
1698825029.058066 0.07381437 0.03828412 -0.01156321 -0.00018235 -0.00077118 0.00020290
1698825029.160068 0.07376543 0.03831382 -0.01153569 -0.00018241 -0.00077051 0.00020435
1698825029.259070 0.07371330 0.03834665 -0.01155557 -0.00018707 -0.00076457 0.00020760
1698825029.358072 0.07361588 0.03838634 -0.01156503 -0.00017620 -0.00076067 0.00019872
1698825029.460074 0.07354826 0.03842759 -0.01163519 -0.00017825 -0.00076057 0.00019826
1698825029.559077 0.07346581 0.03848388 -0.01179384 -0.00017646 -0.00075591 0.00019950
1698825029.658079 0.07349530 0.03851401 -0.01144326 -0.00017641 -0.00074838 0.00018191
1698825029.760081 0.07345619 0.03855902 -0.01151282 -0.00017681 -0.00076171 0.00018739
1698825029.859083 0.07342171 0.03862108 -0.01159495 -0.00017311 -0.00076355 0.00019069
1698825029.958085 0.07343040 0.03869905 -0.01186571 -0.00017421 -0.00076975 0.00018861
1698825030.060087 0.07344548 0.03871257 -0.01196099 -0.00016858 -0.00076312 0.00019178
1698825030.159089 0.07345660 0.03876488 -0.01174806 -0.00016942 -0.00076839 0.00019320
1698825030.258091 0.07348336 0.03877634 -0.01147956 -0.00017915 -0.00077019 0.00019066
1698825030.360094 0.07357565 0.03875896 -0.01144930 -0.00017788 -0.00076843 0.00019206
1698825030.459096 0.07369069 0.03868609 -0.01131665 -0.00017590 -0.00076038 0.00018901
1698825030.561098 0.07382097 0.03855505 -0.01136894 -0.00018132 -0.00074614 0.00017742
1698825030.660100 0.07392186 0.03845465 -0.01134142 -0.00018251 -0.00075190 0.00017232
1698825030.759102 0.07400340 0.03839045 -0.01122818 -0.00018294 -0.00074453 0.00018074
1698825030.858104 0.07403056 0.03831704 -0.01104649 -0.00017939 -0.00073698 0.00017567
1698825030.960107 0.07410703 0.03826891 -0.01109166 -0.00017702 -0.00072274 0.00013685
1698825031.059108 0.07416248 0.03821369 -0.01099073 -0.00016175 -0.00072947 0.00015236
1698825031.158111 0.07418669 0.03816757 -0.01108829 -0.00015830 -0.00073250 0.00015378
1698825031.260113 0.07422574 0.03813559 -0.01121757 -0.00015111 -0.00073460 0.00014596
1698825031.359115 0.07429083 0.03815181 -0.01138770 -0.00014202 -0.00073024 0.00013253
1698825031.458117 0.07436129 0.03816902 -0.01148839 -0.00013771 -0.00073354 0.00012319
1698825031.560119 0.07446547 0.03820452 -0.01159042 -0.00013541 -0.00073620 0.00009888
1698825031.659122 0.07457320 0.03822550 -0.01155350 -0.00013275 -0.00073070 0.00011023
1698825031.758124 0.07469011 0.03822475 -0.01139873 -0.00013381 -0.00072835 0.00011423
1698825031.860126 0.07483760 0.03822217 -0.01132538 -0.00013666 -0.00072003 0.00010177
1698825031.959128 0.07496287 0.03820593 -0.01129180 -0.00013867 -0.00071550 0.00011559
1698825032.058130 0.07503567 0.03811398 -0.01129122 -0.00014015 -0.00071557 0.00012301
1698825032.160132 0.07507754 0.03803480 -0.01133593 -0.00014330 -0.00071615 0.00011360
1698825032.259134 0.07503987 0.03791892 -0.01136384 -0.00014440 -0.00071130 0.00011932
1698825032.358136 0.07495464 0.03774988 -0.01143561 -0.00014637 -0.00071033 0.00012185
1698825032.460139 0.07487194 0.03756044 -0.01152006 -0.00014275 -0.00070357 0.00011112
1698825032.559141 0.07472647 0.03734428 -0.01151588 -0.00014148 -0.00070460 0.00011326
1698825032.658143 0.07459288 0.03716445 -0.01152013 -0.00014056 -0.00070726 0.00011527
1698825032.760145 0.07440173 0.03695499 -0.01153913 -0.00013622 -0.00070644 0.00010958
1698825032.859147 0.07421225 0.03674403 -0.01151501 -0.00013437 -0.00070513 0.00011092
1698825032.961149 0.07400356 0.03647164 -0.01153874 -0.00012925 -0.00070073 0.00010724
1698825033.060151 0.07381268 0.03618927 -0.01154494 -0.00012991 -0.00070080 0.00010541
1698825033.159153 0.07359501 0.03587189 -0.01149308 -0.00013244 -0.00069930 0.00010515
1698825033.258156 0.07324186 0.03540286 -0.01137427 -0.00013327 -0.00069967 0.00010165
1698825033.360158 0.07294372 0.03511364 -0.01138069 -0.00012797 -0.00069346 0.00009808
1698825033.459160 0.07261540 0.03470433 -0.01134256 -0.00013216 -0.00069588 0.00009662
1698825033.558162 0.07231598 0.03437104 -0.01136484 -0.00013259 -0.00069839 0.00009799
1698825033.660164 0.07194098 0.03388871 -0.01144576 -0.00013681 -0.00070118 0.00009667
1698825033.759166 0.07146359 0.03334466 -0.01144550 -0.00013613 -0.00069749 0.00009504
1698825033.861168 0.07112345 0.03298046 -0.01149750 -0.00013221 -0.00068645 0.00009507
1698825033.960171 0.07058436 0.03247443 -0.01158607 -0.00013140 -0.00068173 0.00009620
1698825034.059173 0.07009081 0.03181662 -0.01145073 -0.00013162 -0.00068255 0.00009326
1698825034.158175 0.06973488 0.03131011 -0.01146395 -0.00013291 -0.00068152 0.00009394
1698825034.260177 0.06916254 0.03055903 -0.01153182 -0.00012835 -0.00068098 0.00009527
1698825034.359179 0.06874028 0.02999379 -0.01165203 -0.00012733 -0.00068017 0.00009702
1698825034.458181 0.06808768 0.02934396 -0.01167782 -0.00012690 -0.00068240 0.00009827
1698825034.560183 0.06751368 0.02890108 -0.01170549 -0.00012884 -0.00067849 0.00010474
1698825034.659185 0.06656490 0.02816621 -0.01166002 -0.00013249 -0.00067751 0.00010492
1698825034.758188 0.06588466 0.02757560 -0.01157609 -0.00013263 -0.00067789 0.00010595
1698825034.860190 0.06503360 0.02686990 -0.01147994 -0.00012980 -0.00067304 0.00011522
1698825034.959192 0.06411993 0.02603445 -0.01137962 -0.00012688 -0.00067252 0.00011079
1698825035.058194 0.06341740 0.02550468 -0.01136550 -0.00012506 -0.00067393 0.00011082
1698825035.160196 0.06234731 0.02503010 -0.01143166 -0.00012779 -0.00067629 0.00011384
1698825035.259198 0.06118218 0.02438318 -0.01141330 -0.00012752 -0.00067478 0.00010735
1698825035.358200 0.06038024 0.02388163 -0.01142043 -0.00012951 -0.00067535 0.00010584
1698825035.460202 0.05926827 0.02345503 -0.01152533 -0.00012961 -0.00067961 0.00010726
1698825035.559205 0.05826810 0.02294100 -0.01148362 -0.00012994 -0.00067774 0.00010520
1698825035.658207 0.05709174 0.02235480 -0.01141310 -0.00013060 -0.00067919 0.00010443
1698825035.760209 0.05617292 0.02196621 -0.01144561 -0.00013347 -0.00067504 0.00010526
1698825035.859211 0.05533815 0.02141417 -0.01134202 -0.00013459 -0.00067229 0.00010594
1698825035.958213 0.05464256 0.02076461 -0.01128563 -0.00013544 -0.00067298 0.00011195
1698825036.060215 0.05397809 0.02019356 -0.01138086 -0.00013531 -0.00066815 0.00011644
1698825036.159217 0.05333832 0.01957343 -0.01125841 -0.00013305 -0.00067315 0.00011778
1698825036.258219 0.05282041 0.01907202 -0.01128237 -0.00013145 -0.00067291 0.00012085
1698825036.360222 0.05252747 0.01849912 -0.01134717 -0.00012720 -0.00066794 0.00012644
1698825036.459224 0.05224282 0.01783487 -0.01128791 -0.00012979 -0.00066856 0.00012929
1698825036.558226 0.05195653 0.01710284 -0.01124010 -0.00012900 -0.00067180 0.00012945
1698825036.660228 0.05165481 0.01645760 -0.01127824 -0.00012545 -0.00066714 0.00012927
1698825036.759230 0.05135700 0.01576850 -0.01112598 -0.00012360 -0.00066997 0.00012959
1698825036.858232 0.05102909 0.01504886 -0.01113488 -0.00012605 -0.00067112 0.00012973
1698825036.960234 0.05069040 0.01450672 -0.01116098 -0.00012744 -0.00066515 0.00012682
1698825037.059237 0.05034083 0.01414649 -0.01102548 -0.00012732 -0.00066576 0.00012530
1698825037.158239 0.04980979 0.01380711 -0.01096506 -0.00011408 -0.00066866 0.00012223
1698825037.260241 0.04932325 0.01353064 -0.01085941 -0.00011301 -0.00065979 0.00012125
1698825037.359243 0.04866165 0.01321397 -0.01069792 -0.00011397 -0.00066182 0.00011591
1698825037.458245 0.04799157 0.01291629 -0.01063126 -0.00011396 -0.00066378 0.00011164
1698825037.560247 0.04736265 0.01273264 -0.01066727 -0.00011347 -0.00066377 0.00010778
1698825037.659249 0.04674450 0.01244979 -0.01060560 -0.00011080 -0.00065782 0.00010448
1698825037.758251 0.04630116 0.01227272 -0.01051336 -0.00010758 -0.00065505 0.00010219
1698825037.860254 0.04586557 0.01219179 -0.01056260 -0.00010648 -0.00064455 0.00010081
1698825037.959256 0.04563648 0.01212645 -0.01047141 -0.00010742 -0.00064649 0.00009929
1698825038.058258 0.04538123 0.01202457 -0.01058028 -0.00010067 -0.00065372 0.00009133
1698825038.160260 0.04520557 0.01202178 -0.01064126 -0.00009766 -0.00065381 0.00008814
1698825038.259262 0.04500697 0.01187924 -0.01067959 -0.00009284 -0.00065027 0.00008615
1698825038.358264 0.04479694 0.01161340 -0.01077850 -0.00009385 -0.00064790 0.00008625
1698825038.460267 0.04467920 0.01140639 -0.01088474 -0.00010000 -0.00065036 0.00008673
1698825038.559269 0.04460520 0.01110644 -0.01091273 -0.00010760 -0.00064778 0.00008638
1698825038.658271 0.04459786 0.01090878 -0.01092888 -0.00011047 -0.00064702 0.00008618
1698825038.760273 0.04459186 0.01080618 -0.01099241 -0.00010946 -0.00063992 0.00008771
1698825038.859275 0.04460917 0.01068394 -0.01087628 -0.00011876 -0.00064272 0.00008418
1698825038.958277 0.04455418 0.01046943 -0.01095510 -0.00012399 -0.00064740 0.00008681
1698825039.060279 0.04453222 0.01033349 -0.01107526 -0.00012565 -0.00064382 0.00008889
1698825039.159281 0.04450589 0.01008493 -0.01105174 -0.00012448 -0.00064614 0.00008715
1698825039.258284 0.04447153 0.00989226 -0.01101848 -0.00012456 -0.00064648 0.00008886
1698825039.360286 0.04445348 0.00980697 -0.01101178 -0.00012285 -0.00064350 0.00009082
1698825039.459288 0.04442908 0.00962409 -0.01096743 -0.00012222 -0.00063922 0.00009194
1698825039.558290 0.04431809 0.00942120 -0.01112124 -0.00012684 -0.00064444 0.00009507
1698825039.660292 0.04390696 0.00945972 -0.01101481 -0.00012476 -0.00064635 0.00008751
1698825039.759294 0.04356869 0.00930228 -0.01102861 -0.00012405 -0.00064756 0.00008421
1698825039.858296 0.04322070 0.00909269 -0.01105538 -0.00012773 -0.00064628 0.00008480
1698825039.957299 0.04297524 0.00887242 -0.01103334 -0.00012828 -0.00064324 0.00008408
1698825040.059301 0.04275657 0.00864849 -0.01098652 -0.00012839 -0.00063724 0.00008506
1698825040.158303 0.04257919 0.00848465 -0.01090748 -0.00012856 -0.00063544 0.00008518
1698825040.260305 0.04247123 0.00840999 -0.01081875 -0.00013026 -0.00063308 0.00008696
1698825040.359307 0.04229998 0.00836482 -0.01051377 -0.00011857 -0.00063130 0.00007660
1698825040.458309 0.04190776 0.00791904 -0.01084641 -0.00012787 -0.00063857 0.00007830
1698825040.560311 0.04159924 0.00768568 -0.01085857 -0.00012519 -0.00063519 0.00007890
1698825040.659313 0.04126687 0.00736896 -0.01072786 -0.00012202 -0.00063868 0.00007735
1698825040.758316 0.04096920 0.00705325 -0.01077182 -0.00011980 -0.00064003 0.00007675
1698825040.860318 0.04075785 0.00689175 -0.01082513 -0.00012307 -0.00063583 0.00007676
1698825040.959320 0.04063680 0.00669039 -0.01065044 -0.00012323 -0.00063692 0.00007937
1698825041.058322 0.04054653 0.00655222 -0.01060345 -0.00012020 -0.00063785 0.00007932
1698825041.160324 0.04035676 0.00661595 -0.01021932 -0.00010884 -0.00063895 0.00007992
1698825041.259326 0.04017867 0.00657628 -0.01032043 -0.00011029 -0.00063931 0.00008254
1698825041.358328 0.04001547 0.00650561 -0.01033447 -0.00010942 -0.00064573 0.00008184
1698825041.457330 0.03982734 0.00636040 -0.01042693 -0.00011062 -0.00064962 0.00008378
1698825041.559333 0.03967773 0.00616263 -0.01047001 -0.00011360 -0.00065066 0.00008650
1698825041.658335 0.03941929 0.00601884 -0.01049269 -0.00011426 -0.00065328 0.00008495
1698825041.760337 0.03909435 0.00595308 -0.01054124 -0.00011451 -0.00065747 0.00008088
1698825041.859339 0.03881236 0.00565584 -0.01057536 -0.00011468 -0.00065892 0.00007886
1698825041.958341 0.03856284 0.00544357 -0.01053475 -0.00011255 -0.00065773 0.00007727
1698825042.057343 0.03834547 0.00524508 -0.01050470 -0.00011149 -0.00065671 0.00007587
1698825042.159345 0.03810144 0.00504837 -0.01050070 -0.00011553 -0.00065463 0.00007408
1698825042.258348 0.03781507 0.00470257 -0.01041140 -0.00010204 -0.00066115 0.00006750
1698825042.357350 0.03735359 0.00416270 -0.01054559 -0.00011244 -0.00066302 0.00006893
1698825042.459352 0.03705830 0.00364646 -0.01047789 -0.00011141 -0.00066249 0.00006846
1698825042.558354 0.03669075 0.00316629 -0.01039337 -0.00011265 -0.00066207 0.00006780
1698825042.660356 0.03621428 0.00280112 -0.01032824 -0.00011418 -0.00066300 0.00006458
1698825042.759358 0.03582890 0.00238038 -0.01028917 -0.00011590 -0.00065802 0.00006282
1698825042.909361 0.03554042 0.00187629 -0.01013402 -0.00011360 -0.00065658 0.00006509
1698825043.008363 0.03531323 0.00148018 -0.01011224 -0.00011473 -0.00065412 0.00006486
1698825043.110366 0.03508251 0.00113918 -0.01013020 -0.00011382 -0.00064733 0.00006360
1698825043.209368 0.03448267 0.00050664 -0.01004580 -0.00011700 -0.00065188 0.00005377
1698825043.308370 0.03398060 -0.00000284 -0.01015410 -0.00011268 -0.00065556 0.00005128
1698825043.410372 0.03350218 -0.00042355 -0.01029121 -0.00011250 -0.00065238 0.00005009
1698825043.509374 0.03306099 -0.00082243 -0.01016960 -0.00011297 -0.00065359 0.00005001
1698825043.608376 0.03258216 -0.00111053 -0.01019346 -0.00011554 -0.00065210 0.00004545
1698825043.710378 0.03217153 -0.00130691 -0.01018456 -0.00011567 -0.00064579 0.00004440
1698825043.809381 0.03179613 -0.00160278 -0.01008252 -0.00011511 -0.00065019 0.00004226
1698825043.908383 0.03141623 -0.00187824 -0.01009389 -0.00011420 -0.00065456 0.00004063
1698825044.010385 0.03111681 -0.00209090 -0.01011564 -0.00011400 -0.00065633 0.00003999
1698825044.109387 0.03104305 -0.00242490 -0.01009013 -0.00011317 -0.00065323 0.00004376
1698825044.208389 0.03109525 -0.00281468 -0.01003517 -0.00010928 -0.00065207 0.00004655
1698825044.310391 0.03100454 -0.00299408 -0.00996326 -0.00011077 -0.00065578 0.00004482
1698825044.409393 0.03086562 -0.00327516 -0.00993380 -0.00010897 -0.00065536 0.00004288
1698825044.508395 0.03070044 -0.00362450 -0.00991844 -0.00010826 -0.00065303 0.00004005
1698825044.610398 0.03053748 -0.00387705 -0.00993883 -0.00011017 -0.00065313 0.00003947
1698825044.709400 0.03034233 -0.00420004 -0.00993264 -0.00011188 -0.00065139 0.00003759
1698825044.808402 0.03017556 -0.00452876 -0.00996428 -0.00011269 -0.00065254 0.00003777
1698825044.910404 0.03006500 -0.00477805 -0.00998516 -0.00011481 -0.00065538 0.00003801
1698825045.009406 0.02992091 -0.00508978 -0.00992318 -0.00011886 -0.00065393 0.00003787
1698825045.108408 0.02977164 -0.00532993 -0.00991942 -0.00011879 -0.00065020 0.00003583
1698825045.210411 0.02979060 -0.00564520 -0.01015118 -0.00011964 -0.00065409 0.00004270
1698825045.309413 0.02984676 -0.00586214 -0.01014782 -0.00011942 -0.00065772 0.00004105
1698825045.408415 0.02990911 -0.00609003 -0.01018355 -0.00011992 -0.00065964 0.00004080
1698825045.510417 0.03000362 -0.00632035 -0.01022938 -0.00011739 -0.00066031 0.00004084
1698825045.609419 0.03006652 -0.00655082 -0.01025365 -0.00011504 -0.00066213 0.00004046
1698825045.708421 0.03015598 -0.00692170 -0.01022246 -0.00011683 -0.00066248 0.00003987
1698825045.810423 0.03016584 -0.00709566 -0.01027534 -0.00011410 -0.00066121 0.00003742
1698825045.909425 0.03016340 -0.00746862 -0.01023923 -0.00011371 -0.00066211 0.00003750
1698825046.008428 0.03017657 -0.00772131 -0.01022023 -0.00011125 -0.00065986 0.00003848
1698825046.110430 0.03023057 -0.00797403 -0.01025056 -0.00011114 -0.00065497 0.00003954
1698825046.209432 0.03037149 -0.00826773 -0.01032238 -0.00010770 -0.00065618 0.00004342
1698825046.308434 0.03042010 -0.00860804 -0.01036624 -0.00010975 -0.00065455 0.00004248
1698825046.410436 0.03046616 -0.00891956 -0.01040948 -0.00011031 -0.00065856 0.00004021
1698825046.509438 0.03049964 -0.00926825 -0.01041521 -0.00011012 -0.00065813 0.00004176
1698825046.608440 0.03053342 -0.00961523 -0.01042744 -0.00010985 -0.00065650 0.00004274
1698825046.710443 0.03059201 -0.00993716 -0.01046791 -0.00010962 -0.00066069 0.00004126
1698825046.809445 0.03063551 -0.01027685 -0.01049986 -0.00010934 -0.00065928 0.00004024
1698825046.908447 0.03060867 -0.01065235 -0.01049174 -0.00010557 -0.00065897 0.00003925
1698825047.010449 0.03063181 -0.01103534 -0.01046241 -0.00010520 -0.00065569 0.00004144
1698825047.109451 0.03093825 -0.01120780 -0.01042342 -0.00009768 -0.00065467 0.00003879
1698825047.208453 0.03099273 -0.01134222 -0.01038545 -0.00009946 -0.00065266 0.00003548
1698825047.310455 0.03106759 -0.01145853 -0.01033410 -0.00009696 -0.00065374 0.00003691
1698825047.409457 0.03106769 -0.01167658 -0.01032045 -0.00009470 -0.00065228 0.00003759
1698825047.508460 0.03103252 -0.01191469 -0.01030329 -0.00009265 -0.00065283 0.00003674
1698825047.610462 0.03096337 -0.01215588 -0.01026260 -0.00008972 -0.00065556 0.00003620
1698825047.709464 0.03087061 -0.01238399 -0.01024311 -0.00008840 -0.00065522 0.00003327
1698825047.808466 0.03082156 -0.01252477 -0.01020425 -0.00008698 -0.00065307 0.00003574
1698825047.910468 0.03079814 -0.01260850 -0.01021474 -0.00008640 -0.00065501 0.00003638
1698825048.009470 0.03079809 -0.01274352 -0.01017035 -0.00008700 -0.00065394 0.00003644
1698825048.108472 0.03078648 -0.01268523 -0.01011167 -0.00007870 -0.00065428 0.00003965
1698825048.210474 0.03084127 -0.01264774 -0.01013915 -0.00007633 -0.00065601 0.00003911
1698825048.309477 0.03090636 -0.01262901 -0.01013896 -0.00007589 -0.00065410 0.00003754
1698825048.408479 0.03084507 -0.01263693 -0.01022021 -0.00007811 -0.00065260 0.00003751
1698825048.510481 0.03081314 -0.01253708 -0.01024999 -0.00008016 -0.00065237 0.00003570
1698825048.609483 0.03041199 -0.01247437 -0.01017887 -0.00008178 -0.00065201 0.00003506
1698825048.708485 0.03021127 -0.01252020 -0.01015924 -0.00008115 -0.00065270 0.00003485
1698825048.807487 0.03003486 -0.01266803 -0.01016646 -0.00008053 -0.00065376 0.00003654
1698825048.909489 0.02988854 -0.01287959 -0.01010906 -0.00008102 -0.00065433 0.00003566
1698825049.008492 0.02970675 -0.01319629 -0.01001821 -0.00008605 -0.00065370 0.00003411
1698825049.110494 0.02965587 -0.01354398 -0.00991850 -0.00008934 -0.00065628 0.00003575
1698825049.209496 0.02963342 -0.01393655 -0.00994508 -0.00009096 -0.00065523 0.00003545
1698825049.308498 0.02932010 -0.01395991 -0.01016811 -0.00009173 -0.00065923 0.00003580
1698825049.410500 0.02948599 -0.01430594 -0.01001582 -0.00009702 -0.00066050 0.00003993
1698825049.509502 0.02963656 -0.01472810 -0.00997010 -0.00010314 -0.00065593 0.00004163
1698825049.608504 0.02976993 -0.01498364 -0.00990279 -0.00010437 -0.00065687 0.00004173
1698825049.707506 0.02992628 -0.01518486 -0.00990251 -0.00010599 -0.00065840 0.00004303
1698825049.809509 0.03015533 -0.01541111 -0.00989863 -0.00010809 -0.00066051 0.00004396
1698825049.908511 0.03028043 -0.01574140 -0.00992714 -0.00011169 -0.00066173 0.00004655
1698825050.010513 0.03030812 -0.01586984 -0.00996357 -0.00011219 -0.00066075 0.00004554
1698825050.109515 0.03027907 -0.01593396 -0.00992280 -0.00011076 -0.00065786 0.00004342
1698825050.208517 0.03019691 -0.01585028 -0.00988397 -0.00011245 -0.00065786 0.00004094
1698825050.307519 0.03012077 -0.01580043 -0.00989135 -0.00011475 -0.00065702 0.00004029
1698825050.409521 0.03006808 -0.01591583 -0.00984889 -0.00011711 -0.00065972 0.00004192
1698825050.508523 0.03008733 -0.01611236 -0.00986747 -0.00011755 -0.00065819 0.00004471
1698825050.607526 0.02996134 -0.01659451 -0.00997757 -0.00011236 -0.00066251 0.00004520
1698825050.709528 0.02990952 -0.01681192 -0.01002442 -0.00011165 -0.00066489 0.00004509
1698825050.808530 0.02990109 -0.01698798 -0.01009963 -0.00011030 -0.00066481 0.00004567
1698825050.910532 0.02987552 -0.01708627 -0.01011034 -0.00011299 -0.00066561 0.00004952
1698825051.009534 0.02986039 -0.01716609 -0.01005566 -0.00011550 -0.00066345 0.00004881
1698825051.108536 0.02965618 -0.01720231 -0.00982655 -0.00011828 -0.00066234 0.00005203
1698825051.210538 0.02953274 -0.01715545 -0.00979825 -0.00011567 -0.00066281 0.00005640
1698825051.309541 0.02945059 -0.01729302 -0.00979823 -0.00012115 -0.00066067 0.00005507
1698825051.408543 0.02923388 -0.01739368 -0.00981920 -0.00012737 -0.00065587 0.00005834
1698825051.507545 0.02903262 -0.01734538 -0.00976226 -0.00013133 -0.00065455 0.00005992
1698825051.609547 0.02887454 -0.01735017 -0.00962793 -0.00013808 -0.00065216 0.00005946
1698825051.708549 0.02864279 -0.01737868 -0.00952572 -0.00014221 -0.00064901 0.00006280
1698825051.810551 0.02817106 -0.01726055 -0.00964806 -0.00013833 -0.00064829 0.00006501
