timestamp ba_x ba_y ba_z bg_x bg_y bg_z
1699172720.571541 -0.00000002 -0.00000002 -0.00004502 -0.00013613 0.00032825 -0.00001682
1699172720.670543 -0.00000003 -0.00000003 -0.00007869 -0.00013606 0.00032732 -0.00001650
1699172720.769545 -0.00000005 -0.00000004 -0.00013330 -0.00013684 0.00032709 -0.00001454
1699172720.871547 -0.00000008 -0.00000004 -0.00018745 -0.00013704 0.00032627 -0.00001261
1699172720.970549 -0.00000011 -0.00000004 -0.00025822 -0.00013783 0.00032624 -0.00000896
1699172721.072551 -0.00000012 -0.00000003 -0.00028261 -0.00013827 0.00032480 -0.00000886
1699172721.171554 -0.00000013 -0.00000003 -0.00030247 -0.00013614 0.00032188 -0.00000875
1699172721.270556 -0.00000014 -0.00000002 -0.00031930 -0.00013254 0.00031718 -0.00000545
1699172721.369558 -0.00000026 0.00000003 -0.00048810 -0.00012853 0.00030853 -0.00000207
1699172721.471560 -0.00000038 0.00000006 -0.00073881 -0.00012634 0.00029906 0.00000195
1699172721.570562 -0.00000054 0.00000010 -0.00097526 -0.00012229 0.00029016 0.00000663
1699172721.669564 -0.00000068 0.00000013 -0.00124646 -0.00011292 0.00027768 0.00001176
1699172721.771566 -0.00000085 0.00000014 -0.00155364 -0.00010087 0.00025956 0.00001318
1699172721.870569 -0.00000107 0.00000014 -0.00193146 -0.00008388 0.00023379 0.00001208
1699172721.969571 -0.00000132 0.00000012 -0.00229351 -0.00005740 0.00020889 0.00000580
1699172722.071573 -0.00000160 0.00000010 -0.00271000 -0.00002927 0.00018588 0.00000057
1699172722.170575 -0.00000178 0.00000008 -0.00302415 -0.00000608 0.00016404 -0.00000101
1699172722.269577 -0.00000194 -0.00000005 -0.00340873 0.00001898 0.00014119 -0.00000478
1699172722.371579 -0.00000209 -0.00000034 -0.00380299 0.00004790 0.00011900 -0.00000887
1699172722.470581 -0.00000229 -0.00000066 -0.00424798 0.00008228 0.00009454 -0.00001455
1699172722.569583 -0.00000243 -0.00000107 -0.00468090 0.00010860 0.00006826 -0.00002268
1699172722.671586 -0.00000270 -0.00000181 -0.00506495 0.00012876 0.00004448 -0.00003276
1699172722.770588 -0.00000302 -0.00000241 -0.00535250 0.00014184 0.00002330 -0.00004397
1699172722.869590 -0.00000214 -0.00000496 -0.00561368 0.00015872 -0.00000203 -0.00005995
1699172722.971592 -0.00000245 -0.00000597 -0.00599929 0.00017290 -0.00002247 -0.00007344
1699172723.070594 -0.00000264 -0.00000688 -0.00616636 0.00018706 -0.00004517 -0.00008508
1699172723.169596 -0.00000245 -0.00000830 -0.00633080 0.00019623 -0.00006428 -0.00009480
1699172723.271598 -0.00000210 -0.00000928 -0.00651918 0.00020822 -0.00008031 -0.00010340
1699172723.370600 0.00000007 -0.00001670 -0.00670430 0.00022716 -0.00009636 -0.00011055
1699172723.469603 0.00000571 -0.00002199 -0.00688965 0.00024626 -0.00011561 -0.00011539
1699172723.571605 0.00000524 -0.00002305 -0.00719282 0.00025980 -0.00012966 -0.00011444
1699172723.670607 -0.00000373 -0.00002839 -0.00724985 0.00026408 -0.00014551 -0.00011263
1699172723.769609 -0.00000966 -0.00003418 -0.00735530 0.00026454 -0.00015413 -0.00010532
1699172723.871611 -0.00001190 -0.00003734 -0.00759123 0.00026288 -0.00015450 -0.00009964
1699172723.970613 -0.00001565 -0.00003781 -0.00766656 0.00026819 -0.00016114 -0.00010037
1699172724.069615 -0.00001103 -0.00004533 -0.00771715 0.00027363 -0.00015981 -0.00010292
1699172724.171618 -0.00000743 -0.00004758 -0.00784222 0.00027530 -0.00016128 -0.00010361
1699172724.270620 -0.00001338 -0.00003826 -0.00767736 0.00027905 -0.00016833 -0.00009969
1699172724.369622 -0.00001949 -0.00002269 -0.00766953 0.00028370 -0.00016764 -0.00010056
1699172724.471624 -0.00002247 0.00000038 -0.00777137 0.00029093 -0.00017198 -0.00009989
1699172724.570626 -0.00002325 0.00001652 -0.00768874 0.00030434 -0.00017680 -0.00010071
1699172724.669628 -0.00006839 0.00002668 -0.00772874 0.00031385 -0.00018746 -0.00009855
1699172724.771630 -0.00007944 0.00005131 -0.00783474 0.00031752 -0.00019670 -0.00009272
1699172724.870632 -0.00008968 0.00007867 -0.00807272 0.00032177 -0.00020864 -0.00009206
1699172724.969635 -0.00010160 0.00010255 -0.00829108 0.00032516 -0.00021850 -0.00009042
1699172725.071637 -0.00010746 0.00010900 -0.00844260 0.00032337 -0.00022241 -0.00009440
1699172725.170639 -0.00011126 0.00011100 -0.00855998 0.00032190 -0.00022523 -0.00009454
1699172725.269641 -0.00011727 0.00011628 -0.00872810 0.00031926 -0.00022671 -0.00008928
1699172725.371643 -0.00012092 0.00011869 -0.00884909 0.00031708 -0.00023002 -0.00008506
1699172725.470645 -0.00012407 0.00012083 -0.00897967 0.00031376 -0.00023222 -0.00008076
1699172725.569647 -0.00012720 0.00012274 -0.00910490 0.00031110 -0.00023370 -0.00007472
1699172725.671649 -0.00013030 0.00012445 -0.00920892 0.00030734 -0.00023775 -0.00007063
1699172725.770652 -0.00013541 0.00012976 -0.00934761 0.00030207 -0.00024293 -0.00006746
1699172725.869654 -0.00014421 0.00014289 -0.00952147 0.00029282 -0.00024752 -0.00005282
1699172725.971656 -0.00016101 0.00016733 -0.00970342 0.00028891 -0.00025827 -0.00001797
1699172726.070658 -0.00017188 0.00017842 -0.00975893 0.00027915 -0.00025797 -0.00001560
1699172726.169660 -0.00017513 0.00017910 -0.00979686 0.00027587 -0.00025660 -0.00002324
1699172726.271662 -0.00017992 0.00018380 -0.00983884 0.00028150 -0.00028115 0.00001574
1699172726.370664 -0.00010454 0.00016664 -0.01000812 0.00027821 -0.00028050 -0.00001073
1699172726.469666 0.00007788 0.00011873 -0.01007258 0.00026499 -0.00027059 -0.00004310
1699172726.571669 0.00013353 0.00014363 -0.01009458 0.00025330 -0.00028743 -0.00001321
1699172726.670671 0.00015019 0.00014783 -0.01010007 0.00024449 -0.00029130 -0.00002166
1699172726.769673 0.00015663 0.00014752 -0.01005664 0.00024540 -0.00029442 -0.00002659
1699172726.871675 0.00019260 0.00014390 -0.01003035 0.00024758 -0.00029583 -0.00001226
1699172726.970677 0.00018651 0.00016156 -0.00997812 0.00024954 -0.00028739 -0.00002297
1699172727.069679 0.00018105 0.00019639 -0.00999618 0.00025573 -0.00027891 -0.00003325
1699172727.171682 0.00019019 0.00015983 -0.01018709 0.00025758 -0.00026141 -0.00002436
1699172727.270684 0.00019546 0.00018595 -0.01019107 0.00025938 -0.00025157 -0.00003953
1699172727.369686 0.00019517 0.00022098 -0.01018357 0.00025912 -0.00024244 -0.00006070
1699172727.471688 0.00019629 0.00011179 -0.01034552 0.00025267 -0.00021455 -0.00006926
1699172727.570690 0.00020197 0.00011378 -0.01021251 0.00024034 -0.00020483 -0.00008229
1699172727.669692 0.00020057 0.00014368 -0.01007409 0.00022138 -0.00019337 -0.00008781
1699172727.771694 0.00013453 0.00000393 -0.01021774 0.00019933 -0.00015747 -0.00007711
1699172727.870697 0.00007872 -0.00006519 -0.01014466 0.00017722 -0.00015047 -0.00007091
1699172727.969699 0.00008601 -0.00003131 -0.01001012 0.00015466 -0.00014420 -0.00005932
1699172728.071701 0.00011455 -0.00008223 -0.01008533 0.00013103 -0.00010776 -0.00003781
1699172728.170703 0.00009343 -0.00003149 -0.01012494 0.00010900 -0.00010523 -0.00001672
1699172728.269705 0.00005024 0.00007981 -0.01016643 0.00008945 -0.00010922 -0.00000182
1699172728.371707 0.00002054 0.00012606 -0.01026315 0.00006354 -0.00009150 0.00001600
1699172728.470709 -0.00002743 0.00016195 -0.01025491 0.00003408 -0.00009187 0.00002906
1699172728.569711 -0.00013083 0.00012955 -0.01018486 0.00000518 -0.00010008 0.00003986
1699172728.671714 -0.00013362 -0.00005715 -0.01030084 -0.00002174 -0.00006981 0.00004833
1699172728.770716 -0.00010451 -0.00015741 -0.01040134 -0.00003774 -0.00007909 0.00005616
1699172728.869718 0.00002132 -0.00010649 -0.01044493 -0.00005095 -0.00009407 0.00005993
1699172728.971720 0.00017599 -0.00022776 -0.01052483 -0.00006371 -0.00008331 0.00006683
1699172729.070722 0.00037245 -0.00037596 -0.01045362 -0.00007787 -0.00010257 0.00007795
1699172729.169724 0.00038780 -0.00051868 -0.01049504 -0.00008595 -0.00011392 0.00008922
1699172729.271726 0.00041775 -0.00093904 -0.01063707 -0.00009825 -0.00010411 0.00011959
1699172729.370728 0.00047396 -0.00121031 -0.01061118 -0.00009375 -0.00011269 0.00013946
1699172729.469731 0.00057947 -0.00149950 -0.01015218 -0.00010071 -0.00011193 0.00015439
1699172729.571733 0.00075565 -0.00182609 -0.00993259 -0.00010535 -0.00009842 0.00016161
1699172729.670735 0.00093241 -0.00196823 -0.00974891 -0.00010969 -0.00009826 0.00016862
1699172729.769737 0.00130870 -0.00219534 -0.00939300 -0.00011942 -0.00010079 0.00017691
1699172729.871739 0.00170305 -0.00255662 -0.00909671 -0.00011978 -0.00008857 0.00018571
1699172729.970741 0.00204195 -0.00264258 -0.00903273 -0.00012063 -0.00008297 0.00018810
1699172730.069743 0.00269557 -0.00264626 -0.00926382 -0.00011922 -0.00007962 0.00019583
1699172730.171746 0.00338204 -0.00270493 -0.00975057 -0.00012451 -0.00007707 0.00020151
1699172730.270748 0.00412686 -0.00260551 -0.01018821 -0.00014297 -0.00006447 0.00020734
1699172730.369750 0.00473037 -0.00255517 -0.01041899 -0.00015312 -0.00005995 0.00021224
1699172730.471752 0.00563384 -0.00263144 -0.01084398 -0.00015733 -0.00006285 0.00021969
1699172730.570754 0.00647189 -0.00254696 -0.01082415 -0.00016019 -0.00006354 0.00022734
1699172730.669756 0.00745720 -0.00233772 -0.01058024 -0.00015061 -0.00005873 0.00022480
1699172730.771758 0.00838500 -0.00229111 -0.01023832 -0.00013803 -0.00003638 0.00023008
1699172730.870760 0.00939664 -0.00207956 -0.00978645 -0.00013830 -0.00002881 0.00023141
1699172730.969763 0.00990965 -0.00194932 -0.00960288 -0.00013445 -0.00002635 0.00023490
1699172731.071765 0.01116132 -0.00186572 -0.00917304 -0.00012742 -0.00000641 0.00022564
1699172731.170767 0.01170714 -0.00174546 -0.00897955 -0.00012973 0.00000263 0.00022463
1699172731.269769 0.01256315 -0.00146200 -0.00881192 -0.00014017 0.00000695 0.00021944
1699172731.371771 0.01269720 -0.00142448 -0.00881778 -0.00014200 0.00000898 0.00021882
1699172731.470773 0.01377366 -0.00109235 -0.00891550 -0.00014311 0.00001511 0.00021371
1699172731.569775 0.01389657 -0.00105998 -0.00894713 -0.00014342 0.00001457 0.00021351
1699172731.671777 0.01502402 -0.00105356 -0.00936056 -0.00015466 0.00002772 0.00019266
1699172731.770780 0.01514136 -0.00103440 -0.00938079 -0.00015559 0.00002747 0.00019489
1699172731.869782 0.01607202 -0.00087415 -0.00925907 -0.00013821 0.00002276 0.00020126
1699172731.971784 0.01687455 -0.00090821 -0.00927914 -0.00013252 0.00003738 0.00018268
1699172732.070786 0.01759015 -0.00094890 -0.00908745 -0.00012102 0.00003784 0.00018330
1699172732.169788 0.01828356 -0.00095910 -0.00879785 -0.00011006 0.00003453 0.00018226
1699172732.271790 0.01902537 -0.00099985 -0.00867793 -0.00010214 0.00004899 0.00016604
1699172732.370792 0.01973235 -0.00098722 -0.00848529 -0.00008934 0.00004996 0.00017004
1699172732.469795 0.02025028 -0.00093874 -0.00848540 -0.00008265 0.00004836 0.00017680
1699172732.571797 0.02084676 -0.00088898 -0.00883298 -0.00007628 0.00008551 0.00017555
1699172732.670799 0.02142183 -0.00080874 -0.00915201 -0.00007620 0.00008052 0.00018448
1699172732.769801 0.02177653 -0.00073823 -0.00928182 -0.00007771 0.00007234 0.00018859
1699172732.871803 0.02200420 -0.00070420 -0.00945571 -0.00007754 0.00007827 0.00018935
1699172732.970805 0.02225735 -0.00067212 -0.00951731 -0.00007555 0.00007478 0.00019257
1699172733.069807 0.02298941 -0.00058134 -0.00975104 -0.00006680 0.00006039 0.00020097
1699172733.168809 0.02350412 -0.00051666 -0.00985918 -0.00006343 0.00005726 0.00020739
1699172733.270812 0.02421212 -0.00039392 -0.01026339 -0.00005795 0.00006549 0.00021443
1699172733.369814 0.02478179 -0.00030534 -0.01032041 -0.00005143 0.00006625 0.00021885
1699172733.468816 0.02547112 -0.00022969 -0.01032160 -0.00003955 0.00007707 0.00022808
1699172733.570818 0.02598753 -0.00019105 -0.01029632 -0.00003088 0.00009607 0.00024179
1699172733.669820 0.02664240 -0.00017623 -0.01020526 -0.00001927 0.00011567 0.00026477
1699172733.771822 0.02715350 -0.00019117 -0.01022437 -0.00001190 0.00015306 0.00028036
1699172733.870824 0.02799996 -0.00015952 -0.01013964 -0.00001624 0.00015868 0.00030815
1699172733.969826 0.02830624 -0.00013967 -0.01018755 -0.00001886 0.00015667 0.00031485
1699172734.068829 0.02923386 -0.00007567 -0.01041662 -0.00001972 0.00016256 0.00031918
1699172734.170831 0.03000664 -0.00004478 -0.01058862 -0.00001599 0.00016985 0.00031897
1699172734.269833 0.03096964 -0.00002293 -0.01068243 -0.00001875 0.00016907 0.00031477
1699172734.368835 0.03181455 -0.00002731 -0.01050865 -0.00001746 0.00016887 0.00031036
1699172734.470837 0.03283629 -0.00005514 -0.01014453 -0.00002082 0.00018122 0.00030876
1699172734.569839 0.03357876 -0.00010948 -0.00969263 -0.00002845 0.00018233 0.00030529
1699172734.668841 0.03441314 -0.00019482 -0.00893566 -0.00003775 0.00019125 0.00029497
1699172734.770844 0.03511519 -0.00024979 -0.00845925 -0.00005169 0.00019955 0.00029288
1699172734.869846 0.03569807 -0.00028258 -0.00806244 -0.00006998 0.00020340 0.00029159
1699172734.968848 0.03650675 -0.00029756 -0.00782385 -0.00009281 0.00021321 0.00029173
1699172735.070850 0.03722997 -0.00030712 -0.00769932 -0.00009273 0.00023573 0.00029810
1699172735.169852 0.03781470 -0.00030480 -0.00796958 -0.00008771 0.00024330 0.00029471
1699172735.268854 0.03834908 -0.00029079 -0.00823636 -0.00009545 0.00025433 0.00028338
1699172735.370857 0.03933038 0.00014909 -0.00385338 -0.00007035 0.00043495 0.00012882
1699172735.469859 0.04021480 0.00017177 -0.00557119 -0.00008320 0.00033814 0.00020428
1699172735.568861 0.04104041 0.00022663 -0.00659656 -0.00007984 0.00031823 0.00021083
1699172735.670863 0.04175133 0.00025280 -0.00765596 -0.00009495 0.00030444 0.00022528
1699172735.769865 0.04255232 0.00029422 -0.00846983 -0.00009923 0.00029582 0.00023189
1699172735.868867 0.04324022 0.00032344 -0.00891333 -0.00011727 0.00031424 0.00023754
1699172735.970869 0.04399317 0.00037260 -0.00960327 -0.00011683 0.00032864 0.00022942
1699172736.069871 0.04440454 0.00043721 -0.00991381 -0.00011605 0.00033431 0.00021824
1699172736.168874 0.04472516 0.00047888 -0.00980650 -0.00012135 0.00034307 0.00020987
1699172736.270876 0.04500870 0.00051013 -0.00967669 -0.00011808 0.00035330 0.00020080
1699172736.369878 0.04538177 0.00054270 -0.00969577 -0.00011394 0.00035580 0.00019179
1699172736.468880 0.04579964 0.00057608 -0.00971867 -0.00011030 0.00036241 0.00018985
1699172736.570882 0.04606936 0.00060642 -0.00975233 -0.00010755 0.00037600 0.00018772
1699172736.669884 0.04634660 0.00062104 -0.00981675 -0.00009983 0.00038364 0.00018167
1699172736.768886 0.04659869 0.00063210 -0.00986845 -0.00009634 0.00038799 0.00017752
1699172736.870888 0.04686465 0.00063928 -0.00991410 -0.00009712 0.00039224 0.00017386
1699172736.969891 0.04709868 0.00064552 -0.00985593 -0.00009730 0.00039306 0.00017322
1699172737.068893 0.04730723 0.00067183 -0.00976810 -0.00010177 0.00039813 0.00017197
1699172737.170895 0.04749662 0.00069972 -0.00973550 -0.00010352 0.00039941 0.00017271
1699172737.269897 0.04767358 0.00074975 -0.00972659 -0.00010701 0.00040021 0.00017625
1699172737.368899 0.04785840 0.00081970 -0.00976318 -0.00011097 0.00040356 0.00018444
1699172737.470901 0.04805838 0.00090420 -0.00984600 -0.00010613 0.00040933 0.00019259
1699172737.569903 0.04825147 0.00100520 -0.01001947 -0.00010098 0.00041201 0.00019318
1699172737.668905 0.04849438 0.00114916 -0.01022746 -0.00009174 0.00041517 0.00018710
1699172737.770908 0.04867157 0.00128573 -0.01028874 -0.00008372 0.00041950 0.00018260
1699172737.869910 0.04891263 0.00148633 -0.01038867 -0.00007471 0.00041915 0.00017524
1699172737.968912 0.04908271 0.00165822 -0.01041959 -0.00006639 0.00041647 0.00016949
1699172738.070914 0.04931410 0.00189264 -0.01069119 -0.00005389 0.00041806 0.00015897
1699172738.169916 0.04947268 0.00209279 -0.01086474 -0.00004725 0.00041546 0.00015081
1699172738.268918 0.04967825 0.00232915 -0.01114765 -0.00003292 0.00041539 0.00014400
1699172738.370920 0.04981681 0.00252948 -0.01126419 -0.00002353 0.00042004 0.00013843
1699172738.469923 0.04998308 0.00278734 -0.01149633 -0.00001085 0.00042111 0.00013476
1699172738.571925 0.05013634 0.00312883 -0.01177427 0.00000642 0.00043338 0.00012781
1699172738.670927 0.05022905 0.00333420 -0.01163339 0.00000959 0.00042603 0.00012275
1699172738.769929 0.05024674 0.00352150 -0.01149589 0.00001460 0.00041650 0.00011523
1699172738.868931 0.05027646 0.00372339 -0.01147322 0.00001609 0.00041629 0.00010892
1699172738.970933 0.05029662 0.00399307 -0.01168323 0.00002315 0.00042053 0.00009775
1699172739.069935 0.05032607 0.00429058 -0.01195928 0.00002554 0.00041234 0.00009158
1699172739.168937 0.05047343 0.00461825 -0.01228017 0.00003070 0.00040386 0.00008838
1699172739.270940 0.05056012 0.00487285 -0.01254671 0.00002578 0.00040425 0.00008641
1699172739.369942 0.05057536 0.00529049 -0.01279070 0.00002700 0.00040132 0.00008338
1699172739.471944 0.05063313 0.00576444 -0.01311150 0.00002571 0.00041876 0.00008287
1699172739.570946 0.05095178 0.00622718 -0.01311518 0.00003795 0.00040945 0.00008240
1699172739.669948 0.05126792 0.00668245 -0.01284884 0.00003297 0.00040551 0.00008986
1699172739.771950 0.05153322 0.00707828 -0.01273655 0.00003254 0.00042906 0.00008540
1699172739.870952 0.05195166 0.00759701 -0.01200614 0.00003522 0.00042514 0.00007853
1699172739.969954 0.05223672 0.00806062 -0.01161004 0.00003874 0.00042414 0.00007614
1699172740.071957 0.05235112 0.00839561 -0.01175794 0.00003724 0.00043831 0.00007534
1699172740.170959 0.05271065 0.00868584 -0.01173572 0.00003600 0.00042377 0.00007174
1699172740.269961 0.05284731 0.00883008 -0.01224077 0.00001219 0.00041270 0.00007601
1699172740.368963 0.05296148 0.00890211 -0.01268229 -0.00000270 0.00040773 0.00008013
1699172740.470965 0.05308370 0.00900746 -0.01315940 -0.00001029 0.00040718 0.00007234
1699172740.569967 0.05296260 0.00917183 -0.01354856 -0.00002604 0.00040501 0.00007035
1699172740.668969 0.05289559 0.00933332 -0.01372406 -0.00002853 0.00040747 0.00007123
1699172740.770972 0.05304486 0.00964252 -0.01359268 -0.00001987 0.00040532 0.00006063
1699172740.869974 0.05313403 0.01000718 -0.01343428 -0.00003612 0.00040333 0.00005385
1699172740.968976 0.05320867 0.01039268 -0.01331242 -0.00004150 0.00039991 0.00004960
1699172741.070978 0.05324752 0.01065499 -0.01329347 -0.00004698 0.00039892 0.00005005
1699172741.169980 0.05312374 0.01086674 -0.01326196 -0.00005366 0.00039780 0.00004387
1699172741.268982 0.05288012 0.01114189 -0.01308047 -0.00005336 0.00040324 0.00004206
1699172741.370985 0.05259754 0.01142270 -0.01297288 -0.00006752 0.00040955 0.00004006
1699172741.469987 0.05236756 0.01163574 -0.01278506 -0.00006820 0.00040984 0.00003769
1699172741.568989 0.05203089 0.01192958 -0.01284672 -0.00006575 0.00040853 0.00003051
1699172741.670991 0.05164929 0.01213792 -0.01262356 -0.00006356 0.00040241 0.00003077
1699172741.769993 0.05128765 0.01217531 -0.01232115 -0.00006700 0.00040548 0.00003786
1699172741.868995 0.05101550 0.01208236 -0.01205467 -0.00006693 0.00040879 0.00004210
1699172741.970997 0.05056935 0.01172359 -0.01190240 -0.00005000 0.00042543 0.00004315
1699172742.069999 0.05031877 0.01135153 -0.01187679 -0.00004118 0.00042910 0.00004497
1699172742.169002 0.05008998 0.01094318 -0.01198830 -0.00003328 0.00042495 0.00004861
1699172742.271004 0.04985875 0.01050033 -0.01206628 -0.00002941 0.00042951 0.00005321
1699172742.370006 0.04939671 0.01014281 -0.01210446 -0.00000994 0.00043712 0.00004889
1699172742.469008 0.04845134 0.00955855 -0.01184229 -0.00000390 0.00044198 0.00005125
1699172742.571010 0.04742312 0.00904324 -0.01174833 -0.00000559 0.00043245 0.00005216
1699172742.670012 0.04644317 0.00872018 -0.01181204 -0.00000564 0.00043656 0.00005033
1699172742.769014 0.04536295 0.00837795 -0.01203037 -0.00001326 0.00042883 0.00004820
1699172742.871017 0.04419340 0.00816039 -0.01229316 0.00000017 0.00041635 0.00005165
1699172742.970019 0.04339296 0.00809063 -0.01247855 0.00000954 0.00041854 0.00005054
1699172743.069021 0.04194340 0.00805239 -0.01289315 0.00001105 0.00041438 0.00005282
1699172743.171023 0.04086664 0.00805577 -0.01305815 0.00001607 0.00040281 0.00005328
1699172743.270025 0.03935343 0.00814518 -0.01338221 0.00003116 0.00039015 0.00004380
1699172743.369027 0.03771866 0.00813767 -0.01342064 0.00002294 0.00038502 0.00003861
1699172743.471029 0.03649112 0.00815374 -0.01356247 0.00001992 0.00037764 0.00003461
1699172743.570031 0.03465319 0.00813990 -0.01358593 0.00002006 0.00037953 0.00002653
1699172743.669034 0.03289055 0.00814402 -0.01338755 0.00002454 0.00038024 0.00002114
1699172743.771036 0.03146844 0.00809187 -0.01330981 0.00002720 0.00037655 0.00001609
1699172743.870038 0.03007741 0.00797437 -0.01354470 0.00004671 0.00036593 0.00000114
1699172743.969040 0.02877008 0.00776628 -0.01347012 0.00005284 0.00036352 -0.00000608
1699172744.071042 0.02749334 0.00765977 -0.01339018 0.00005520 0.00035630 -0.00000970
1699172744.170044 0.02634612 0.00750492 -0.01320765 0.00006681 0.00035849 -0.00002343
1699172744.269046 0.02545275 0.00741698 -0.01315055 0.00007679 0.00035980 -0.00002951
1699172744.371048 0.02458667 0.00746691 -0.01351590 0.00007902 0.00034636 -0.00002328
1699172744.470051 0.02367816 0.00744847 -0.01358342 0.00007241 0.00035642 -0.00002129
1699172744.569053 0.02289681 0.00742734 -0.01360175 0.00007003 0.00035446 -0.00001799
1699172744.671055 0.02192997 0.00761803 -0.01377080 0.00006079 0.00034960 -0.00001850
1699172744.770057 0.02123892 0.00788095 -0.01379868 0.00005838 0.00035660 -0.00001804
1699172744.869059 0.02055613 0.00811919 -0.01386670 0.00005769 0.00034799 -0.00001147
1699172744.971061 0.01995286 0.00812265 -0.01357753 0.00006515 0.00034319 -0.00001004
1699172745.070063 0.01955681 0.00821248 -0.01362457 0.00004894 0.00034085 0.00000021
1699172745.169065 0.01942045 0.00824714 -0.01363129 0.00003831 0.00035125 0.00000750
1699172745.271068 0.01926440 0.00840449 -0.01364431 0.00003366 0.00035911 0.00002641
1699172745.370070 0.01924082 0.00838517 -0.01367297 0.00002077 0.00035272 0.00001702
1699172745.469072 0.01927754 0.00836064 -0.01368072 0.00001008 0.00034653 0.00001278
1699172745.571074 0.01947602 0.00834240 -0.01364520 0.00001098 0.00035613 0.00002174
1699172745.670076 0.01956680 0.00831177 -0.01365546 0.00000791 0.00034656 0.00001482
1699172745.769078 0.01964290 0.00827043 -0.01358860 -0.00000456 0.00034335 0.00001340
1699172745.871080 0.01961726 0.00822158 -0.01349817 -0.00000231 0.00033281 0.00001025
1699172745.970083 0.01962041 0.00820403 -0.01330734 -0.00000411 0.00033206 0.00000727
1699172746.069085 0.01968588 0.00814039 -0.01265128 0.00000279 0.00033350 0.00000512
1699172746.171087 0.01971965 0.00809745 -0.01246411 -0.00000455 0.00035169 -0.00000425
1699172746.270089 0.01975133 0.00800534 -0.01205534 -0.00000105 0.00034410 -0.00000276
1699172746.369091 0.01975817 0.00793565 -0.01189901 0.00000165 0.00033344 -0.00000255
1699172746.471093 0.01979314 0.00778337 -0.01177724 0.00000305 0.00035128 -0.00001130
1699172746.570095 0.01984756 0.00767153 -0.01153839 0.00000182 0.00034266 -0.00001013
1699172746.669097 0.01990314 0.00748728 -0.01129795 0.00000726 0.00033299 -0.00001553
1699172746.771100 0.01992117 0.00736015 -0.01129582 0.00000360 0.00034999 -0.00001581
1699172746.870102 0.01984224 0.00715579 -0.01146580 0.00001253 0.00033138 -0.00001896
1699172746.969104 0.01979369 0.00693635 -0.01152739 0.00002076 0.00032005 -0.00001683
1699172747.071106 0.01974504 0.00681501 -0.01175110 0.00002502 0.00033501 -0.00001077
1699172747.170108 0.01953250 0.00656043 -0.01203979 0.00003486 0.00032321 -0.00001242
1699172747.269110 0.01934741 0.00635500 -0.01213312 0.00003362 0.00032028 -0.00000938
1699172747.371112 0.01898349 0.00614550 -0.01272006 0.00003714 0.00033869 0.00000102
1699172747.470114 0.01879687 0.00600193 -0.01297597 0.00003791 0.00032803 -0.00000386
1699172747.569117 0.01852880 0.00579220 -0.01339548 0.00004287 0.00031520 -0.00000654
1699172747.671119 0.01837009 0.00563807 -0.01375749 0.00004572 0.00032439 -0.00000138
1699172747.770121 0.01795362 0.00550485 -0.01414098 0.00004408 0.00030373 -0.00000243
1699172747.869123 0.01759826 0.00533498 -0.01439384 0.00004662 0.00029686 -0.00000208
1699172747.971125 0.01731585 0.00520177 -0.01461202 0.00004848 0.00030909 -0.00000392
1699172748.070127 0.01678001 0.00498911 -0.01497183 0.00005137 0.00029707 -0.00000903
1699172748.169129 0.01636009 0.00479188 -0.01495909 0.00005009 0.00029338 -0.00000665
1699172748.271132 0.01594038 0.00462127 -0.01508482 0.00004360 0.00030864 -0.00000642
1699172748.370134 0.01561045 0.00447604 -0.01510934 0.00003570 0.00028785 -0.00000951
1699172748.469136 0.01555847 0.00426006 -0.02091793 -0.00004706 0.00019373 0.00003482
1699172748.571138 0.01511002 0.00419947 -0.01703635 0.00000969 0.00026542 -0.00000419
1699172748.670140 0.01472667 0.00411868 -0.01590117 0.00001456 0.00027195 -0.00001012
1699172748.769142 0.01432585 0.00403597 -0.01531387 0.00001464 0.00026719 -0.00001520
1699172748.871145 0.01386469 0.00408331 -0.01535178 0.00000822 0.00028206 -0.00002112
1699172748.970147 0.01341275 0.00415824 -0.01522603 0.00000953 0.00027049 -0.00002561
1699172749.069149 0.01290102 0.00425058 -0.01490198 0.00001297 0.00026630 -0.00002755
1699172749.171151 0.01246247 0.00433262 -0.01483721 0.00001209 0.00028187 -0.00003016
1699172749.270153 0.01202766 0.00441495 -0.01465861 0.00001123 0.00027220 -0.00003484
1699172749.369155 0.01159074 0.00449928 -0.01444491 0.00000994 0.00026853 -0.00004349
1699172749.471157 0.01115775 0.00459351 -0.01449398 0.00000786 0.00030006 -0.00005412
1699172749.570159 0.01070709 0.00469762 -0.01423561 0.00000938 0.00028549 -0.00006698
1699172749.669162 0.01034968 0.00477746 -0.01504770 0.00002080 0.00025649 -0.00007357
1699172749.771164 0.01004079 0.00486268 -0.01458212 0.00001147 0.00025520 -0.00007438
1699172749.870166 0.00974057 0.00495116 -0.01400840 0.00001466 0.00025185 -0.00006542
1699172749.969168 0.00941661 0.00508864 -0.01357720 0.00002360 0.00025405 -0.00006352
1699172750.071170 0.00915815 0.00526855 -0.01327549 0.00002765 0.00027667 -0.00007728
1699172750.170172 0.00889584 0.00551794 -0.01299213 0.00003115 0.00026378 -0.00007143
1699172750.269174 0.00869391 0.00577050 -0.01277929 0.00003591 0.00025994 -0.00006784
1699172750.371176 0.00849250 0.00614315 -0.01245729 0.00003470 0.00027462 -0.00007488
1699172750.470179 0.00832543 0.00640420 -0.01222615 0.00003319 0.00026820 -0.00007492
1699172750.569181 0.00810358 0.00678109 -0.01194207 0.00002745 0.00026451 -0.00009225
1699172750.671183 0.00791213 0.00709682 -0.01177076 0.00003105 0.00026363 -0.00009504
1699172750.770185 0.00761029 0.00753226 -0.01142339 0.00003796 0.00027142 -0.00010905
1699172750.869187 0.00735955 0.00794456 -0.01137793 0.00003871 0.00027667 -0.00011246
1699172750.971189 0.00714752 0.00827631 -0.01131025 0.00004524 0.00026865 -0.00011566
1699172751.070191 0.00694528 0.00859444 -0.01132519 0.00004612 0.00028052 -0.00011907
1699172751.169194 0.00667445 0.00894562 -0.01132846 0.00004633 0.00028861 -0.00011749
1699172751.271196 0.00647960 0.00923244 -0.01149657 0.00005468 0.00026718 -0.00011560
1699172751.370198 0.00628631 0.00957785 -0.01191080 0.00005851 0.00027450 -0.00010711
1699172751.469200 0.00617787 0.00977940 -0.01212004 0.00005996 0.00027567 -0.00010738
1699172751.571202 0.00599334 0.01005402 -0.01231190 0.00006505 0.00025764 -0.00010362
1699172751.670204 0.00583012 0.01033869 -0.01253902 0.00006394 0.00026978 -0.00010158
1699172751.769206 0.00573780 0.01060481 -0.01283244 0.00006029 0.00027333 -0.00010217
1699172751.871208 0.00567348 0.01079941 -0.01294037 0.00006051 0.00025707 -0.00010390
1699172751.970211 0.00564178 0.01099746 -0.01310139 0.00006058 0.00026295 -0.00010433
1699172752.069213 0.00564520 0.01126211 -0.01325722 0.00006102 0.00026544 -0.00010564
1699172752.171215 0.00569404 0.01142202 -0.01337044 0.00005807 0.00025405 -0.00010378
1699172752.270217 0.00575102 0.01151688 -0.01345939 0.00005576 0.00025332 -0.00010100
1699172752.369219 0.00579343 0.01159075 -0.01345177 0.00005688 0.00025204 -0.00010209
1699172752.471221 0.00583160 0.01166194 -0.01337642 0.00005789 0.00025272 -0.00010357
1699172752.570223 0.00590298 0.01175618 -0.01315621 0.00006121 0.00025893 -0.00010309
1699172752.669225 0.00594606 0.01181455 -0.01301959 0.00006354 0.00026218 -0.00010225
1699172752.771228 0.00598292 0.01191056 -0.01281576 0.00006808 0.00028267 -0.00010883
1699172752.870230 0.00601543 0.01201576 -0.01262888 0.00007304 0.00028089 -0.00011301
1699172752.969232 0.00603102 0.01213078 -0.01256309 0.00007692 0.00027680 -0.00011728
1699172753.071234 0.00603659 0.01226303 -0.01261367 0.00007602 0.00029305 -0.00012233
1699172753.170236 0.00608324 0.01236362 -0.01249901 0.00007619 0.00028827 -0.00012410
1699172753.269238 0.00616089 0.01250450 -0.01233293 0.00007877 0.00028315 -0.00013138
1699172753.371240 0.00623019 0.01264142 -0.01225231 0.00007431 0.00030495 -0.00013474
1699172753.470243 0.00643076 0.01285388 -0.01190495 0.00007553 0.00030155 -0.00013851
1699172753.569245 0.00661546 0.01302396 -0.01172850 0.00007588 0.00029879 -0.00013798
1699172753.671247 0.00690393 0.01328323 -0.01151990 0.00007487 0.00033341 -0.00014035
1699172753.770249 0.00711662 0.01349521 -0.01140289 0.00007276 0.00032333 -0.00014258
1699172753.869251 0.00730597 0.01372639 -0.01124261 0.00006963 0.00032051 -0.00014092
1699172753.971253 0.00757266 0.01413146 -0.01123823 0.00006705 0.00034536 -0.00014264
1699172754.070255 0.00776210 0.01442985 -0.01125780 0.00007000 0.00033066 -0.00014619
1699172754.169257 0.00796198 0.01488565 -0.01138972 0.00007209 0.00031849 -0.00015035
1699172754.271260 0.00814176 0.01528733 -0.01166766 0.00007215 0.00033384 -0.00015135
1699172754.370262 0.00830981 0.01571567 -0.01176304 0.00007149 0.00031984 -0.00015262
1699172754.469264 0.00844258 0.01596579 -0.01168607 0.00007123 0.00031927 -0.00015166
1699172754.571266 0.00855609 0.01626446 -0.01173275 0.00006774 0.00033376 -0.00015069
1699172754.670268 0.00872109 0.01649091 -0.01182304 0.00006752 0.00032094 -0.00014921
1699172754.769270 0.00898588 0.01669910 -0.01197368 0.00006784 0.00031847 -0.00014987
1699172754.868272 0.00926160 0.01691318 -0.01215396 0.00006548 0.00031734 -0.00014890
1699172754.970274 0.00948966 0.01706816 -0.01225564 0.00006122 0.00032252 -0.00014779
1699172755.069277 0.00973492 0.01718621 -0.01243524 0.00006271 0.00031827 -0.00014781
1699172755.168279 0.00996930 0.01726852 -0.01271510 0.00006314 0.00031555 -0.00014509
1699172755.270281 0.01016506 0.01731775 -0.01294609 0.00006407 0.00031554 -0.00014590
1699172755.369283 0.01036167 0.01736241 -0.01309045 0.00006161 0.00031010 -0.00014821
1699172755.468285 0.01048496 0.01736683 -0.01312695 0.00005897 0.00031152 -0.00014779
1699172755.570287 0.01060539 0.01730506 -0.01316423 0.00006056 0.00030961 -0.00015555
1699172755.669290 0.01066747 0.01721797 -0.01320778 0.00005748 0.00030817 -0.00015886
1699172755.771292 0.01071245 0.01715355 -0.01322462 0.00005833 0.00031298 -0.00015795
1699172755.870294 0.01090919 0.01703738 -0.01331361 0.00005770 0.00030250 -0.00015675
1699172755.969296 0.01103485 0.01688577 -0.01329959 0.00005496 0.00030135 -0.00015606
1699172756.071298 0.01109878 0.01679899 -0.01316305 0.00005283 0.00030323 -0.00015709
1699172756.170300 0.01114585 0.01662407 -0.01295485 0.00004787 0.00030404 -0.00015218
1699172756.269302 0.01119432 0.01652395 -0.01295365 0.00004402 0.00029929 -0.00014990
1699172756.371305 0.01117200 0.01634940 -0.01278809 0.00003761 0.00030211 -0.00014337
1699172756.470307 0.01112238 0.01619364 -0.01271014 0.00003609 0.00030279 -0.00013971
1699172756.569309 0.01113663 0.01608703 -0.01265787 0.00003624 0.00030180 -0.00013877
1699172756.671311 0.01113920 0.01597032 -0.01250375 0.00002946 0.00030812 -0.00013739
1699172756.770313 0.01116818 0.01584593 -0.01263895 0.00002630 0.00030193 -0.00013584
1699172756.869315 0.01121533 0.01574606 -0.01264574 0.00002389 0.00029901 -0.00013319
1699172756.971317 0.01136147 0.01563127 -0.01270487 0.00002066 0.00029851 -0.00013055
1699172757.070319 0.01147943 0.01553166 -0.01274449 0.00001686 0.00029315 -0.00012579
1699172757.169322 0.01174999 0.01535363 -0.01265882 0.00001257 0.00028940 -0.00012674
1699172757.271324 0.01207870 0.01518663 -0.01257693 0.00001010 0.00029652 -0.00012534
1699172757.370326 0.01226837 0.01505200 -0.01246275 0.00001037 0.00029840 -0.00012494
1699172757.469328 0.01272312 0.01481431 -0.01234485 0.00001365 0.00029743 -0.00013089
1699172757.568330 0.01304322 0.01460695 -0.01240850 0.00001566 0.00029733 -0.00013004
1699172757.670332 0.01324655 0.01443495 -0.01245391 0.00001709 0.00030106 -0.00013182
1699172757.769334 0.01372460 0.01416134 -0.01229790 0.00001798 0.00030483 -0.00013824
1699172757.871336 0.01410596 0.01396072 -0.01230984 0.00001686 0.00032083 -0.00013837
1699172757.970339 0.01454184 0.01372546 -0.01226203 0.00001623 0.00031363 -0.00013962
1699172758.069341 0.01474955 0.01356869 -0.01226510 0.00001851 0.00031231 -0.00014140
1699172758.171343 0.01499944 0.01339872 -0.01220632 0.00002477 0.00032786 -0.00015231
1699172758.270345 0.01524912 0.01321777 -0.01202656 0.00002597 0.00032423 -0.00015622
1699172758.369347 0.01543733 0.01304934 -0.01198260 0.00002720 0.00032369 -0.00015951
1699172758.471349 0.01556195 0.01294578 -0.01203994 0.00002997 0.00033776 -0.00016364
1699172758.570351 0.01571485 0.01286353 -0.01184384 0.00003534 0.00034016 -0.00017396
1699172758.669353 0.01578601 0.01277637 -0.01192886 0.00003751 0.00033681 -0.00017514
1699172758.768356 0.01578998 0.01271330 -0.01202453 0.00003660 0.00034102 -0.00017813
1699172758.870358 0.01579973 0.01268689 -0.01215036 0.00003589 0.00034535 -0.00018048
1699172758.969360 0.01584522 0.01274408 -0.01200215 0.00003620 0.00036187 -0.00018111
1699172759.068362 0.01585066 0.01279088 -0.01189274 0.00003503 0.00036291 -0.00018053
1699172759.170364 0.01580704 0.01286028 -0.01180107 0.00003598 0.00036839 -0.00018705
1699172759.269366 0.01574942 0.01292468 -0.01169615 0.00003652 0.00037100 -0.00019076
1699172759.368368 0.01563671 0.01305738 -0.01148592 0.00002868 0.00038555 -0.00019251
1699172759.470371 0.01550668 0.01319483 -0.01149785 0.00002333 0.00039129 -0.00018920
1699172759.569373 0.01540923 0.01332000 -0.01148435 0.00002357 0.00038808 -0.00018519
1699172759.668375 0.01536236 0.01341070 -0.01158435 0.00002783 0.00038677 -0.00018491
1699172759.770377 0.01524761 0.01354023 -0.01172288 0.00002820 0.00038988 -0.00019715
1699172759.869379 0.01510449 0.01362373 -0.01168084 0.00002481 0.00038875 -0.00019948
1699172759.968381 0.01505870 0.01369374 -0.01178191 0.00001917 0.00039419 -0.00019696
1699172760.070383 0.01497962 0.01384049 -0.01171141 0.00001134 0.00040215 -0.00019642
1699172760.169385 0.01499130 0.01394456 -0.01173029 -0.00000065 0.00039925 -0.00019666
1699172760.268388 0.01502298 0.01400438 -0.01165266 -0.00000653 0.00040683 -0.00019789
1699172760.370390 0.01491589 0.01410388 -0.01148934 -0.00000987 0.00041565 -0.00019591
1699172760.469392 0.01476735 0.01424201 -0.01158519 -0.00001767 0.00041186 -0.00020455
1699172760.571394 0.01459727 0.01447130 -0.01182778 -0.00002251 0.00041546 -0.00020836
1699172760.670396 0.01424056 0.01465125 -0.01149623 -0.00002314 0.00041350 -0.00020379
1699172760.769398 0.01395887 0.01471365 -0.01141948 -0.00001842 0.00040827 -0.00021117
1699172760.868400 0.01368020 0.01479638 -0.01126045 -0.00001631 0.00041633 -0.00021743
1699172760.970402 0.01339470 0.01491141 -0.01130882 -0.00001192 0.00042032 -0.00022068
1699172761.069405 0.01317924 0.01498973 -0.01129081 -0.00000255 0.00041946 -0.00022296
1699172761.168407 0.01302287 0.01502905 -0.01112205 0.00000670 0.00042517 -0.00022551
1699172761.270409 0.01308653 0.01511100 -0.01090003 0.00002683 0.00044422 -0.00023186
1699172761.369411 0.01323496 0.01511834 -0.01124770 0.00002174 0.00043491 -0.00023195
1699172761.468413 0.01345542 0.01508085 -0.01125814 0.00002760 0.00043516 -0.00023880
1699172761.570415 0.01360206 0.01502591 -0.01141337 0.00002550 0.00043404 -0.00024053
1699172761.669417 0.01356669 0.01495917 -0.01138306 0.00003814 0.00042902 -0.00024399
1699172761.768420 0.01351769 0.01484991 -0.01133660 0.00003882 0.00042566 -0.00024842
1699172761.870422 0.01349879 0.01472770 -0.01113891 0.00003379 0.00042908 -0.00025319
1699172761.969424 0.01357087 0.01467874 -0.01100237 0.00003634 0.00042890 -0.00025775
1699172762.071426 0.01371406 0.01463254 -0.01086579 0.00004170 0.00042944 -0.00025447
1699172762.170428 0.01375624 0.01456518 -0.01100962 0.00004324 0.00042569 -0.00026429
1699172762.269430 0.01372958 0.01449816 -0.01134361 0.00004710 0.00041733 -0.00026998
1699172762.368432 0.01367258 0.01444178 -0.01166214 0.00004493 0.00041091 -0.00027658
1699172762.470435 0.01364736 0.01440755 -0.01186872 0.00004274 0.00040920 -0.00027896
1699172762.569437 0.01368977 0.01438593 -0.01198577 0.00004718 0.00040120 -0.00028063
1699172762.668439 0.01373685 0.01434048 -0.01221868 0.00005565 0.00039484 -0.00028312
1699172762.770441 0.01377465 0.01426699 -0.01255468 0.00005956 0.00038893 -0.00028401
1699172762.869443 0.01385339 0.01418451 -0.01284707 0.00006112 0.00037970 -0.00028485
1699172762.968445 0.01389602 0.01408064 -0.01304973 0.00006161 0.00037795 -0.00028345
1699172763.070447 0.01391407 0.01398170 -0.01322710 0.00006760 0.00036765 -0.00028613
1699172763.169450 0.01393117 0.01388136 -0.01319565 0.00007161 0.00035798 -0.00028890
1699172763.268452 0.01388454 0.01378822 -0.01294812 0.00007703 0.00034746 -0.00029039
1699172763.370454 0.01388669 0.01371723 -0.01256958 0.00007886 0.00035150 -0.00029347
1699172763.469456 0.01394023 0.01370905 -0.01219041 0.00009102 0.00034929 -0.00030249
1699172763.568458 0.01402116 0.01369869 -0.01187899 0.00009556 0.00035606 -0.00030549
1699172763.670460 0.01413014 0.01367965 -0.01164282 0.00009707 0.00036908 -0.00030733
1699172763.769462 0.01422861 0.01364766 -0.01148622 0.00009779 0.00036668 -0.00031098
1699172763.868464 0.01435641 0.01363057 -0.01130800 0.00010219 0.00037495 -0.00031054
1699172763.970467 0.01448631 0.01362673 -0.01117644 0.00010528 0.00038385 -0.00031673
1699172764.069469 0.01458443 0.01361194 -0.01121371 0.00010962 0.00038007 -0.00031910
1699172764.168471 0.01454851 0.01360801 -0.01136971 0.00010753 0.00037887 -0.00031577
1699172764.270473 0.01454660 0.01360418 -0.01126319 0.00011157 0.00038537 -0.00031575
1699172764.369475 0.01456702 0.01359823 -0.01111635 0.00011181 0.00038953 -0.00031653
1699172764.468477 0.01451683 0.01356815 -0.01092169 0.00010861 0.00039062 -0.00031557
1699172764.570479 0.01450800 0.01350458 -0.01060555 0.00011935 0.00040455 -0.00032080
1699172764.669482 0.01455551 0.01343172 -0.01032562 0.00012954 0.00040900 -0.00032461
1699172764.768484 0.01439755 0.01330094 -0.01021181 0.00012163 0.00040548 -0.00031647
1699172764.870486 0.01439895 0.01319403 -0.01012703 0.00012843 0.00041146 -0.00032267
1699172764.969488 0.01424704 0.01305844 -0.01014619 0.00012504 0.00040429 -0.00032965
1699172765.068490 0.01419889 0.01293104 -0.01013450 0.00012916 0.00039660 -0.00033555
1699172765.170492 0.01419986 0.01280953 -0.01029804 0.00013254 0.00039601 -0.00034520
1699172765.269494 0.01412440 0.01272108 -0.01103567 0.00012081 0.00037228 -0.00034753
1699172765.368496 0.01413189 0.01266732 -0.01143956 0.00011640 0.00035734 -0.00034858
1699172765.470499 0.01417923 0.01270653 -0.01252257 0.00009957 0.00032829 -0.00034828
1699172765.569501 0.01425457 0.01272652 -0.01216777 0.00009335 0.00032975 -0.00034577
1699172765.668503 0.01410525 0.01273697 -0.01182725 0.00008773 0.00031332 -0.00035034
1699172765.770505 0.01400441 0.01274082 -0.01168476 0.00008708 0.00030380 -0.00035526
1699172765.869507 0.01373915 0.01270831 -0.01094415 0.00009970 0.00030995 -0.00035262
1699172765.968509 0.01354139 0.01267088 -0.01067575 0.00010265 0.00031246 -0.00035315
1699172766.070511 0.01333433 0.01264112 -0.01060948 0.00010503 0.00030105 -0.00035972
1699172766.169513 0.01306469 0.01260083 -0.01035044 0.00010145 0.00030531 -0.00036235
1699172766.268516 0.01288118 0.01258057 -0.01012346 0.00010028 0.00030835 -0.00036180
1699172766.370518 0.01267817 0.01256773 -0.00998430 0.00009927 0.00031717 -0.00035970
1699172766.469520 0.01253930 0.01257089 -0.00979462 0.00010164 0.00032549 -0.00036359
1699172766.568522 0.01255088 0.01255375 -0.00969049 0.00010158 0.00033000 -0.00036308
1699172766.670524 0.01264428 0.01252070 -0.00965880 0.00010029 0.00033471 -0.00036007
1699172766.769526 0.01272172 0.01247521 -0.00943831 0.00009844 0.00033982 -0.00035668
1699172766.868528 0.01286399 0.01244311 -0.00923016 0.00010166 0.00034607 -0.00035600
1699172766.970531 0.01290118 0.01243080 -0.00895083 0.00009756 0.00035310 -0.00035727
1699172767.069533 0.01292234 0.01241759 -0.00863109 0.00009347 0.00035301 -0.00035289
1699172767.168535 0.01308397 0.01232376 -0.00858225 0.00010027 0.00035387 -0.00034767
1699172767.270537 0.01324991 0.01215181 -0.00876618 0.00010251 0.00035347 -0.00035028
1699172767.369539 0.01345226 0.01190560 -0.00900379 0.00009979 0.00034949 -0.00035283
1699172767.468541 0.01359640 0.01154495 -0.00924797 0.00009590 0.00034564 -0.00034998
1699172767.570543 0.01367754 0.01108547 -0.00940951 0.00009884 0.00034196 -0.00034537
1699172767.669545 0.01369014 0.01057872 -0.00949716 0.00010025 0.00034005 -0.00034308
1699172767.768548 0.01366288 0.01004091 -0.00951299 0.00010168 0.00033916 -0.00034120
1699172767.870550 0.01356609 0.00951241 -0.00948977 0.00010344 0.00033528 -0.00033895
1699172767.969552 0.01350090 0.00910565 -0.00947611 0.00010265 0.00033285 -0.00034004
1699172768.068554 0.01344852 0.00861062 -0.00947260 0.00010485 0.00033094 -0.00034122
1699172768.170556 0.01334194 0.00810269 -0.00947920 0.00010863 0.00032486 -0.00034032
1699172768.269558 0.01318604 0.00759807 -0.00942546 0.00010866 0.00032090 -0.00033691
1699172768.368560 0.01302371 0.00713087 -0.00931462 0.00011059 0.00031780 -0.00033328
1699172768.470562 0.01285422 0.00671966 -0.00916133 0.00011247 0.00031568 -0.00032976
1699172768.569565 0.01267412 0.00639149 -0.00896765 0.00011170 0.00032114 -0.00032440
1699172768.668567 0.01247145 0.00617813 -0.00871568 0.00011166 0.00032636 -0.00031640
1699172768.770569 0.01223223 0.00607942 -0.00850365 0.00011018 0.00032632 -0.00030718
1699172768.869571 0.01199639 0.00611327 -0.00842444 0.00011050 0.00032863 -0.00030534
1699172768.968573 0.01183434 0.00618870 -0.00844328 0.00011181 0.00032717 -0.00030435
1699172769.070575 0.01167236 0.00630032 -0.00865096 0.00011597 0.00033793 -0.00029221
1699172769.169577 0.01153024 0.00631892 -0.00874509 0.00011208 0.00032633 -0.00030032
1699172769.268579 0.01124643 0.00629983 -0.00881290 0.00010530 0.00031294 -0.00030529
1699172769.370582 0.01093675 0.00632337 -0.00875327 0.00010235 0.00030771 -0.00030692
1699172769.469584 0.01065376 0.00628070 -0.00867049 0.00010246 0.00031190 -0.00030473
1699172769.568586 0.01044693 0.00622778 -0.00852954 0.00010355 0.00032256 -0.00030268
1699172769.670588 0.01020351 0.00613576 -0.00861965 0.00011536 0.00034094 -0.00029061
1699172769.769590 0.00988654 0.00610003 -0.00876074 0.00010726 0.00033225 -0.00029880
1699172769.868593 0.00957121 0.00614815 -0.00888937 0.00010025 0.00032678 -0.00030222
1699172769.970595 0.00932536 0.00617338 -0.00907891 0.00010830 0.00033712 -0.00030030
1699172770.069597 0.00911980 0.00627931 -0.00916888 0.00010748 0.00032824 -0.00030999
1699172770.168599 0.00882450 0.00639228 -0.00919126 0.00010461 0.00032125 -0.00031407
1699172770.270601 0.00844968 0.00626151 -0.00922162 0.00011192 0.00032824 -0.00031501
1699172770.369603 0.00787053 0.00611371 -0.00918529 0.00010862 0.00031745 -0.00031657
1699172770.468605 0.00727846 0.00616964 -0.00903624 0.00010207 0.00031327 -0.00031599
1699172770.570607 0.00663069 0.00601974 -0.00901772 0.00009988 0.00031861 -0.00031869
1699172770.669610 0.00611832 0.00616961 -0.00891474 0.00010102 0.00031270 -0.00031689
1699172770.768612 0.00552890 0.00650711 -0.00879896 0.00010511 0.00030951 -0.00031719
1699172770.870614 0.00495186 0.00665782 -0.00866570 0.00009714 0.00031958 -0.00032182
1699172770.969616 0.00430545 0.00694156 -0.00859227 0.00009920 0.00031744 -0.00031532
1699172771.068618 0.00379343 0.00726895 -0.00848325 0.00010036 0.00031695 -0.00031572
1699172771.170620 0.00343057 0.00755088 -0.00860743 0.00009616 0.00032140 -0.00032360
1699172771.269622 0.00317249 0.00784904 -0.00876540 0.00010342 0.00031572 -0.00031936
1699172771.368624 0.00292492 0.00807608 -0.00887885 0.00010926 0.00031199 -0.00032175
1699172771.470627 0.00275293 0.00825184 -0.00896242 0.00010441 0.00031536 -0.00032857
1699172771.569629 0.00249437 0.00847457 -0.00892189 0.00011059 0.00031195 -0.00032159
1699172771.668631 0.00196450 0.00874815 -0.00881522 0.00011299 0.00031120 -0.00031607
1699172771.770633 0.00107858 0.00895571 -0.00883248 0.00010384 0.00032161 -0.00031732
1699172771.869635 0.00031134 0.00915783 -0.00868718 0.00010229 0.00032397 -0.00031042
1699172771.968637 -0.00051544 0.00942917 -0.00863018 0.00010317 0.00032288 -0.00030460
1699172772.070639 -0.00115842 0.00955525 -0.00872962 0.00009954 0.00032429 -0.00031087
1699172772.169641 -0.00192506 0.00981948 -0.00881414 0.00010554 0.00032249 -0.00030081
1699172772.268644 -0.00274941 0.01008388 -0.00883215 0.00010585 0.00032119 -0.00029446
1699172772.370646 -0.00364463 0.01031550 -0.00872060 0.00009904 0.00032244 -0.00029886
1699172772.469648 -0.00445198 0.01057068 -0.00855067 0.00010132 0.00031993 -0.00029191
1699172772.568650 -0.00509292 0.01079874 -0.00844244 0.00010403 0.00031643 -0.00029035
1699172772.670652 -0.00556548 0.01089929 -0.00841161 0.00010920 0.00031928 -0.00029369
1699172772.769654 -0.00602882 0.01104442 -0.00833454 0.00011376 0.00031854 -0.00028770
1699172772.868656 -0.00674060 0.01134997 -0.00822288 0.00011622 0.00031307 -0.00028309
1699172772.970659 -0.00736710 0.01165219 -0.00829343 0.00012025 0.00031740 -0.00028234
1699172773.069661 -0.00811497 0.01213002 -0.00814085 0.00011772 0.00031232 -0.00028447
1699172773.168663 -0.00880301 0.01277104 -0.00794125 0.00011709 0.00030654 -0.00028732
1699172773.270665 -0.00923516 0.01323473 -0.00794513 0.00012117 0.00031669 -0.00028276
1699172773.369667 -0.00964469 0.01345259 -0.00768653 0.00011318 0.00030921 -0.00028891
1699172773.468669 -0.00993041 0.01374713 -0.00736897 0.00011071 0.00030489 -0.00029337
1699172773.570671 -0.01029370 0.01409905 -0.00735810 0.00011717 0.00031471 -0.00029426
1699172773.669673 -0.01069319 0.01449314 -0.00731545 0.00012332 0.00029807 -0.00029662
1699172773.768676 -0.01101233 0.01495777 -0.00721685 0.00012792 0.00028313 -0.00029843
1699172773.870678 -0.01140079 0.01530569 -0.00725562 0.00013291 0.00028918 -0.00030573
1699172773.969680 -0.01190356 0.01573830 -0.00716546 0.00013427 0.00027390 -0.00029805
1699172774.068682 -0.01234081 0.01632487 -0.00702255 0.00013644 0.00026664 -0.00029556
1699172774.170684 -0.01270852 0.01685490 -0.00697902 0.00013294 0.00027331 -0.00030247
1699172774.269686 -0.01303282 0.01754571 -0.00689140 0.00013270 0.00026637 -0.00029654
1699172774.368688 -0.01342341 0.01820377 -0.00688026 0.00013416 0.00026335 -0.00029364
1699172774.470690 -0.01386462 0.01873158 -0.00708357 0.00013465 0.00026673 -0.00030008
1699172774.569693 -0.01441187 0.01925581 -0.00737238 0.00013682 0.00026390 -0.00029151
1699172774.668695 -0.01498121 0.01970971 -0.00769030 0.00013552 0.00026220 -0.00028765
1699172774.770697 -0.01569507 0.02030713 -0.00809621 0.00013437 0.00026554 -0.00028589
1699172774.869699 -0.01622515 0.02090091 -0.00835881 0.00013547 0.00026080 -0.00028375
1699172774.968701 -0.01713256 0.02174475 -0.00873156 0.00013821 0.00025774 -0.00027814
1699172775.070703 -0.01780305 0.02227154 -0.00884965 0.00013875 0.00026638 -0.00027453
1699172775.169705 -0.01857732 0.02307466 -0.00896447 0.00014125 0.00025942 -0.00027492
1699172775.268708 -0.01946992 0.02411624 -0.00897364 0.00013976 0.00025610 -0.00027562
1699172775.370710 -0.02033751 0.02503857 -0.00904084 0.00014002 0.00026574 -0.00027524
1699172775.469712 -0.02089458 0.02572384 -0.00896444 0.00014262 0.00025720 -0.00027372
1699172775.568714 -0.02168955 0.02659646 -0.00875051 0.00014151 0.00025743 -0.00027162
1699172775.670716 -0.02265701 0.02746827 -0.00859470 0.00013898 0.00026939 -0.00026969
1699172775.769718 -0.02355018 0.02837286 -0.00839964 0.00013878 0.00026519 -0.00026722
1699172775.868720 -0.02430750 0.02921899 -0.00834246 0.00013659 0.00026380 -0.00026417
1699172775.970723 -0.02523922 0.03026911 -0.00834877 0.00012972 0.00027731 -0.00025997
1699172776.069725 -0.02607229 0.03116896 -0.00822560 0.00012785 0.00026991 -0.00025655
1699172776.168727 -0.02671424 0.03186304 -0.00814761 0.00012145 0.00027055 -0.00025361
1699172776.270729 -0.02741023 0.03274528 -0.00842550 0.00011565 0.00028500 -0.00025587
1699172776.369731 -0.02989768 0.03450170 -0.00876452 0.00011459 0.00027836 -0.00022597
1699172776.468733 -0.03014873 0.03507703 -0.00825510 0.00012571 0.00028258 -0.00025547
1699172776.570735 -0.03039721 0.03528108 -0.00844953 0.00011798 0.00030980 -0.00026123
1699172776.669738 -0.03057848 0.03556057 -0.00809552 0.00012356 0.00029578 -0.00025360
1699172776.768740 -0.03076798 0.03572343 -0.00795451 0.00012306 0.00029433 -0.00025026
1699172776.870742 -0.03085427 0.03574679 -0.00817812 0.00011991 0.00032804 -0.00024732
1699172776.969744 -0.03095918 0.03577497 -0.00799168 0.00012361 0.00030122 -0.00024455
1699172777.068746 -0.03113839 0.03575294 -0.00785247 0.00012063 0.00029644 -0.00024351
1699172777.170748 -0.03118614 0.03565316 -0.00789114 0.00012198 0.00031160 -0.00022400
1699172777.269750 -0.03133308 0.03542998 -0.00790204 0.00012293 0.00029888 -0.00023612
1699172777.368752 -0.03147173 0.03519839 -0.00795263 0.00012639 0.00029528 -0.00023784
1699172777.470755 -0.03157641 0.03497036 -0.00804403 0.00012639 0.00029207 -0.00020879
1699172777.569757 -0.03168185 0.03451045 -0.00824376 0.00013256 0.00029032 -0.00022744
1699172777.668759 -0.03174146 0.03394568 -0.00833402 0.00012986 0.00029095 -0.00023303
1699172777.770761 -0.03171079 0.03337294 -0.00834219 0.00011878 0.00027118 -0.00020136
1699172777.869763 -0.03165333 0.03247551 -0.00850452 0.00012082 0.00027929 -0.00022448
1699172777.968765 -0.03145128 0.03138892 -0.00858860 0.00012302 0.00028444 -0.00023036
1699172778.070767 -0.03108943 0.03029616 -0.00844552 0.00010342 0.00025573 -0.00020174
1699172778.169770 -0.03081236 0.02903812 -0.00863422 0.00011078 0.00027530 -0.00022118
1699172778.268772 -0.03057800 0.02774506 -0.00887349 0.00011515 0.00027998 -0.00022414
1699172778.367774 -0.03039582 0.02646159 -0.00901030 0.00011349 0.00027701 -0.00021967
1699172778.469776 -0.03028306 0.02508070 -0.00896255 0.00010494 0.00027477 -0.00021372
1699172778.568778 -0.03028119 0.02382794 -0.00890603 0.00009922 0.00027866 -0.00021098
1699172778.670780 -0.02995864 0.02289209 -0.00882729 0.00007821 0.00027561 -0.00018347
1699172778.769782 -0.03029613 0.02177508 -0.00878089 0.00008251 0.00027953 -0.00018478
1699172778.868784 -0.03069245 0.02083891 -0.00870775 0.00009404 0.00027642 -0.00017987
1699172778.970787 -0.03018853 0.02040924 -0.00877158 0.00009106 0.00027925 -0.00015833
1699172779.069789 -0.03004729 0.01951917 -0.00875173 0.00009551 0.00027228 -0.00016691
1699172779.168791 -0.03019831 0.01900728 -0.00875480 0.00010625 0.00026012 -0.00016893
1699172779.270793 -0.02933786 0.01918030 -0.00886354 0.00011444 0.00026406 -0.00015220
1699172779.369795 -0.02958018 0.01919928 -0.00851195 0.00010762 0.00025393 -0.00017262
1699172779.468797 -0.03024762 0.01948392 -0.00841268 0.00009551 0.00024358 -0.00017595
1699172779.570799 -0.02951082 0.02121312 -0.00858713 0.00010251 0.00025341 -0.00017412
1699172779.669801 -0.02965610 0.02271230 -0.00828446 0.00009776 0.00024548 -0.00020018
1699172779.768804 -0.03014091 0.02411096 -0.00800843 0.00009063 0.00025136 -0.00020168
1699172779.870806 -0.02998188 0.02570639 -0.00780609 0.00008983 0.00027093 -0.00018437
1699172779.969808 -0.02966467 0.02625356 -0.00766171 0.00009021 0.00027752 -0.00018726
1699172780.068810 -0.02913379 0.02675296 -0.00750013 0.00008536 0.00030127 -0.00019320
1699172780.170812 -0.02784313 0.02704654 -0.00751398 0.00008534 0.00031505 -0.00018743
1699172780.269814 -0.02675710 0.02729927 -0.00758064 0.00007490 0.00032103 -0.00019483
1699172780.368816 -0.02486567 0.02775628 -0.00779783 0.00007213 0.00032560 -0.00019814
1699172780.470819 -0.02319897 0.02796597 -0.00787596 0.00006791 0.00032833 -0.00020100
1699172780.569821 -0.02169032 0.02800052 -0.00814206 0.00005942 0.00032416 -0.00020030
1699172780.668823 -0.02064300 0.02810987 -0.00825089 0.00005042 0.00031878 -0.00020067
1699172780.770825 -0.01878026 0.02718388 -0.00819578 0.00003236 0.00031559 -0.00018013
1699172780.869827 -0.01724004 0.02646823 -0.00834739 0.00002069 0.00030976 -0.00016146
1699172780.968829 -0.01569180 0.02640153 -0.00847953 0.00002108 0.00030044 -0.00016117
1699172781.070831 -0.01337120 0.02652170 -0.00857687 0.00001512 0.00029800 -0.00018064
1699172781.169833 -0.01170626 0.02740005 -0.00868694 0.00001558 0.00028897 -0.00019307
1699172781.268836 -0.01051236 0.02789512 -0.00873918 0.00002178 0.00028263 -0.00020040
1699172781.370838 -0.00897765 0.02776272 -0.00882683 0.00002677 0.00028653 -0.00020448
1699172781.469840 -0.00738770 0.02764196 -0.00878250 0.00003259 0.00028678 -0.00019321
1699172781.568842 -0.00608455 0.02762806 -0.00870792 0.00003353 0.00028290 -0.00018354
1699172781.670844 -0.00419861 0.02785180 -0.00868561 0.00002382 0.00028625 -0.00018863
1699172781.769846 -0.00297290 0.02845513 -0.00854621 0.00001995 0.00029325 -0.00018208
1699172781.868848 -0.00221664 0.02892639 -0.00856773 0.00002059 0.00029042 -0.00017230
1699172781.970850 -0.00094283 0.02918259 -0.00946030 0.00001422 0.00033417 -0.00016246
1699172782.069853 -0.00084946 0.02956238 -0.00843107 0.00002353 0.00029593 -0.00015724
1699172782.168855 -0.00108312 0.02977921 -0.00824078 0.00003573 0.00027949 -0.00015002
1699172782.267857 -0.00129588 0.02997380 -0.00835135 0.00004024 0.00027149 -0.00014115
1699172782.369859 -0.00151249 0.03004460 -0.00847593 0.00004121 0.00026472 -0.00013861
1699172782.468861 -0.00148962 0.03017889 -0.00848635 0.00004190 0.00025864 -0.00013598
1699172782.570863 -0.00118012 0.03041084 -0.00847593 0.00004088 0.00025474 -0.00012919
1699172782.669865 -0.00131675 0.03055746 -0.00846952 0.00003994 0.00026301 -0.00011989
1699172782.768867 -0.00140521 0.03093360 -0.00848955 0.00004625 0.00026538 -0.00012058
1699172782.870870 -0.00187356 0.03142078 -0.00835201 0.00005447 0.00026390 -0.00011041
1699172782.969872 -0.00229012 0.03178088 -0.00845501 0.00005222 0.00027053 -0.00011328
1699172783.068874 -0.00280887 0.03187486 -0.00843534 0.00004749 0.00027382 -0.00010765
1699172783.170876 -0.00349208 0.03197167 -0.00826730 0.00005644 0.00026460 -0.00010393
1699172783.269878 -0.00360923 0.03210299 -0.00841114 0.00005591 0.00027494 -0.00010238
1699172783.368880 -0.00379310 0.03216074 -0.00843987 0.00005875 0.00028021 -0.00009910
1699172783.467882 -0.00391886 0.03213770 -0.00839882 0.00006210 0.00028067 -0.00009962
1699172783.569885 -0.00404699 0.03212369 -0.00838896 0.00006485 0.00027973 -0.00010230
1699172783.668887 -0.00417475 0.03209796 -0.00840318 0.00006562 0.00028387 -0.00010513
1699172783.767889 -0.00446741 0.03211013 -0.00842155 0.00006038 0.00028656 -0.00010916
1699172783.869891 -0.00462172 0.03198847 -0.00841116 0.00005619 0.00028306 -0.00011163
1699172783.968893 -0.00482528 0.03179103 -0.00841639 0.00005192 0.00028160 -0.00011183
1699172784.067895 -0.00507766 0.03150046 -0.00845004 0.00005056 0.00027522 -0.00010738
1699172784.169898 -0.00526501 0.03120858 -0.00846972 0.00005187 0.00027205 -0.00010004
1699172784.268900 -0.00535048 0.03104876 -0.00848707 0.00005341 0.00027225 -0.00009559
1699172784.367902 -0.00533736 0.03101692 -0.00846531 0.00005593 0.00027471 -0.00009306
1699172784.469904 -0.00516997 0.03092386 -0.00851969 0.00005377 0.00027055 -0.00008964
1699172784.568906 -0.00485999 0.03099338 -0.00852672 0.00005299 0.00027074 -0.00008921
1699172784.667908 -0.00454622 0.03098206 -0.00853523 0.00005211 0.00027088 -0.00008724
1699172784.769910 -0.00437982 0.03111925 -0.00852177 0.00005385 0.00026923 -0.00008962
1699172784.868912 -0.00412320 0.03128338 -0.00852436 0.00005833 0.00026817 -0.00009400
1699172784.967915 -0.00373926 0.03136062 -0.00849480 0.00005476 0.00027008 -0.00009743
1699172785.069917 -0.00339288 0.03137595 -0.00849640 0.00005426 0.00026908 -0.00009497
1699172785.168919 -0.00323171 0.03137532 -0.00850995 0.00005492 0.00026514 -0.00009309
1699172785.267921 -0.00299680 0.03136522 -0.00851290 0.00005104 0.00026525 -0.00009339
1699172785.369923 -0.00283158 0.03138682 -0.00843629 0.00005116 0.00026325 -0.00009569
1699172785.468925 -0.00240569 0.03135249 -0.00836338 0.00005543 0.00026669 -0.00009658
1699172785.567927 -0.00221319 0.03138302 -0.00820651 0.00004800 0.00026477 -0.00009860
1699172785.669930 -0.00186973 0.03139533 -0.00809990 0.00004257 0.00027239 -0.00009780
1699172785.768932 -0.00152804 0.03158426 -0.00812985 0.00004383 0.00027669 -0.00010079
1699172785.867934 -0.00115749 0.03166003 -0.00830383 0.00004091 0.00027628 -0.00010728
1699172785.969936 -0.00084488 0.03161027 -0.00848501 0.00004223 0.00027894 -0.00010977
1699172786.068938 -0.00044785 0.03152045 -0.00853266 0.00004554 0.00027859 -0.00011113
1699172786.167940 0.00008614 0.03145312 -0.00855893 0.00004745 0.00027503 -0.00010894
1699172786.269942 0.00039367 0.03143116 -0.00857016 0.00005212 0.00027716 -0.00011369
1699172786.368944 0.00068004 0.03144520 -0.00852473 0.00005623 0.00027587 -0.00011440
1699172786.467947 0.00090738 0.03150548 -0.00847433 0.00006239 0.00028244 -0.00011502
1699172786.569949 0.00075672 0.03147574 -0.00845243 0.00006606 0.00028617 -0.00011260
1699172786.668951 0.00012667 0.03125961 -0.00833292 0.00007005 0.00029131 -0.00010748
1699172786.767953 -0.00067760 0.03133383 -0.00837755 0.00007750 0.00029602 -0.00010292
1699172786.869955 -0.00144650 0.03150575 -0.00857890 0.00008253 0.00029396 -0.00010187
1699172786.968957 -0.00186505 0.03179828 -0.00863707 0.00008073 0.00028873 -0.00010388
1699172787.070959 -0.00125643 0.03194450 -0.00860960 0.00007464 0.00029552 -0.00010869
1699172787.169961 -0.00136945 0.03174666 -0.00833207 0.00007781 0.00028395 -0.00010211
1699172787.268964 -0.00186833 0.03159693 -0.00808386 0.00008080 0.00027920 -0.00009008
1699172787.367966 -0.00213129 0.03164762 -0.00815176 0.00007956 0.00027805 -0.00008429
1699172787.469968 -0.00191943 0.03160954 -0.00834992 0.00008081 0.00027903 -0.00008342
1699172787.568970 -0.00136588 0.03166005 -0.00851400 0.00008320 0.00027275 -0.00007573
1699172787.667972 -0.00156210 0.03148083 -0.00864841 0.00007785 0.00027344 -0.00007672
1699172787.769974 -0.00189610 0.03093870 -0.00872215 0.00006482 0.00027694 -0.00007634
1699172787.868976 -0.00198056 0.03026854 -0.00862197 0.00006311 0.00027472 -0.00006798
1699172787.970978 -0.00143237 0.02976754 -0.00870571 0.00006267 0.00027658 -0.00006749
1699172788.069981 -0.00110039 0.02990802 -0.00868059 0.00006518 0.00027097 -0.00006380
1699172788.168983 -0.00067354 0.03009744 -0.00865909 0.00006329 0.00027056 -0.00005815
1699172788.267985 -0.00046377 0.03030296 -0.00870209 0.00006571 0.00026443 -0.00006514
1699172788.369987 -0.00188958 0.03182127 -0.00702672 0.00005351 0.00028955 -0.00008108
1699172788.468989 -0.00112460 0.03133804 -0.00810629 0.00006675 0.00027297 -0.00006511
1699172788.567991 -0.00052702 0.03104725 -0.00844541 0.00006860 0.00027168 -0.00006239
1699172788.669993 0.00015229 0.03088647 -0.00859493 0.00006982 0.00027111 -0.00006196
1699172788.768996 0.00049322 0.03075625 -0.00855950 0.00007019 0.00027341 -0.00006094
1699172788.867998 0.00090208 0.03068376 -0.00858603 0.00007208 0.00027318 -0.00006312
1699172788.970000 0.00114214 0.03061940 -0.00854093 0.00007011 0.00027105 -0.00006198
1699172789.069002 0.00147513 0.03037348 -0.00845928 0.00007262 0.00027270 -0.00006164
1699172789.168004 0.00175488 0.03025376 -0.00841283 0.00006779 0.00027251 -0.00006425
1699172789.270006 0.00170139 0.03019471 -0.00844812 0.00006498 0.00026857 -0.00006424
1699172789.369008 0.00152132 0.03018290 -0.00848342 0.00006722 0.00026520 -0.00006285
1699172789.468010 0.00134864 0.03010515 -0.00850505 0.00006597 0.00026519 -0.00006464
1699172789.570013 0.00132334 0.02998215 -0.00844442 0.00006515 0.00026358 -0.00006520
1699172789.669015 0.00116103 0.02991344 -0.00840539 0.00006843 0.00026112 -0.00006772
1699172789.768017 0.00108001 0.02965824 -0.00829985 0.00006692 0.00026063 -0.00006777
1699172789.870019 0.00104447 0.02946206 -0.00825397 0.00006439 0.00025683 -0.00006707
1699172789.969021 0.00106294 0.02928063 -0.00819537 0.00006596 0.00025724 -0.00006800
1699172790.068023 0.00109605 0.02907282 -0.00810174 0.00006315 0.00025741 -0.00006589
1699172790.170026 0.00106684 0.02894381 -0.00803666 0.00006146 0.00025476 -0.00006523
1699172790.269027 0.00086830 0.02880714 -0.00803913 0.00006097 0.00025774 -0.00006600
1699172790.368030 0.00096047 0.02862565 -0.00799499 0.00006250 0.00025693 -0.00006580
1699172790.470032 0.00110507 0.02862251 -0.00797634 0.00006047 0.00025358 -0.00006444
1699172790.569034 0.00117867 0.02838134 -0.00796916 0.00005741 0.00025690 -0.00006369
1699172790.668036 0.00113065 0.02832888 -0.00795512 0.00005676 0.00025570 -0.00006386
1699172790.770038 0.00113244 0.02829361 -0.00794315 0.00005394 0.00025408 -0.00006384
1699172790.869040 0.00120075 0.02860437 -0.00793229 0.00005673 0.00025564 -0.00006287
1699172790.968043 0.00100775 0.02872674 -0.00779428 0.00005431 0.00025490 -0.00006198
1699172791.070045 0.00094465 0.02877957 -0.00771307 0.00005203 0.00025464 -0.00006173
1699172791.169047 0.00095232 0.02887710 -0.00775655 0.00004905 0.00025596 -0.00006209
1699172791.271049 0.00072940 0.02910306 -0.00804917 0.00004452 0.00025708 -0.00006310
1699172791.370051 0.00046579 0.02914056 -0.00796099 0.00004711 0.00023056 -0.00005997
1699172791.469053 0.00004691 0.02928371 -0.00811193 0.00004714 0.00022787 -0.00005963
1699172791.568055 0.00011168 0.02923611 -0.00817211 0.00004536 0.00022798 -0.00005937
1699172791.670058 0.00001436 0.02926648 -0.00811380 0.00004434 0.00022773 -0.00005950
1699172791.769060 -0.00013642 0.02929515 -0.00813110 0.00004492 0.00022909 -0.00006064
1699172791.868062 -0.00074853 0.02930970 -0.00832072 0.00004628 0.00022566 -0.00006063
1699172791.970064 -0.00110937 0.02952066 -0.00841715 0.00004722 0.00022167 -0.00006010
1699172792.069066 -0.00124418 0.02977933 -0.00851097 0.00004978 0.00022318 -0.00006025
1699172792.168068 -0.00180321 0.02970284 -0.00863582 0.00004989 0.00022149 -0.00005933
1699172792.270070 -0.00183237 0.02946089 -0.00856234 0.00004905 0.00021833 -0.00005917
1699172792.369072 -0.00175566 0.02939261 -0.00855046 0.00004623 0.00021912 -0.00006077
1699172792.468075 -0.00202695 0.02978735 -0.00886316 0.00004520 0.00021497 -0.00006165
1699172792.570077 -0.00219600 0.02982508 -0.00878434 0.00004638 0.00021091 -0.00006199
1699172792.669079 -0.00178683 0.02926299 -0.00851895 0.00004535 0.00021528 -0.00005971
1699172792.768081 -0.00154568 0.02896042 -0.00850950 0.00004512 0.00021338 -0.00006069
1699172792.870083 -0.00157763 0.02903313 -0.00854802 0.00004575 0.00020866 -0.00006109
1699172792.969085 -0.00157912 0.02928487 -0.00859601 0.00004779 0.00020761 -0.00006261
1699172793.068087 -0.00173905 0.02952646 -0.00865989 0.00004845 0.00020697 -0.00006178
1699172793.170089 -0.00200735 0.02978302 -0.00866383 0.00004568 0.00020328 -0.00006095
1699172793.269092 -0.00201073 0.02995817 -0.00874381 0.00004642 0.00020748 -0.00006189
1699172793.368094 -0.00221435 0.02990331 -0.00866335 0.00004264 0.00020253 -0.00005967
1699172793.470096 -0.00227668 0.03005006 -0.00855675 0.00004210 0.00019247 -0.00005789
1699172793.569098 -0.00241531 0.02991147 -0.00856817 0.00004180 0.00019332 -0.00005474
1699172793.668100 -0.00252176 0.02987190 -0.00842598 0.00004277 0.00019401 -0.00005469
1699172793.770102 -0.00260130 0.02976416 -0.00853369 0.00004092 0.00018945 -0.00005246
1699172793.869104 -0.00265862 0.02990049 -0.00840742 0.00004207 0.00019221 -0.00005256
1699172793.968107 -0.00325293 0.03190739 -0.00953411 0.00004883 0.00018270 -0.00005942
1699172794.070109 -0.00305904 0.03080856 -0.00846172 0.00004236 0.00018630 -0.00005357
1699172794.169111 -0.00309725 0.03039151 -0.00836841 0.00004342 0.00018995 -0.00005241
1699172794.268113 -0.00318348 0.03016995 -0.00843704 0.00004250 0.00019597 -0.00005176
1699172794.370115 -0.00321660 0.03036657 -0.00848347 0.00003996 0.00018181 -0.00005156
1699172794.469117 -0.00324492 0.03076648 -0.00875284 0.00004144 0.00018251 -0.00005409
1699172794.571119 -0.00318452 0.03107987 -0.00883255 0.00004454 0.00019804 -0.00005537
1699172794.670121 -0.00296195 0.03125512 -0.00889600 0.00004092 0.00017185 -0.00005943
1699172794.769124 -0.00308945 0.03160167 -0.00891461 0.00003837 0.00016614 -0.00006036
1699172794.868126 -0.00319961 0.03192442 -0.00894041 0.00003755 0.00016534 -0.00005956
1699172794.970128 -0.00337955 0.03219169 -0.00885592 0.00003933 0.00017781 -0.00005872
1699172795.069130 -0.00354865 0.03231106 -0.00867135 0.00003789 0.00017097 -0.00005842
1699172795.168132 -0.00364060 0.03247569 -0.00844314 0.00003847 0.00015965 -0.00005813
1699172795.270134 -0.00362655 0.03253471 -0.00825009 0.00003829 0.00016731 -0.00005981
1699172795.369136 -0.00388898 0.03256351 -0.00806434 0.00003571 0.00016183 -0.00005878
1699172795.468138 -0.00417394 0.03238931 -0.00802010 0.00003473 0.00015968 -0.00005924
1699172795.570141 -0.00440702 0.03213918 -0.00813592 0.00003292 0.00016458 -0.00005970
1699172795.669143 -0.00489478 0.03200381 -0.00826406 0.00002915 0.00015842 -0.00005653
1699172795.768145 -0.00510052 0.03208469 -0.00828859 0.00002924 0.00016141 -0.00005672
1699172795.870147 -0.00491528 0.03209824 -0.00830859 0.00002882 0.00015951 -0.00005797
1699172795.969149 -0.00480561 0.03223875 -0.00833733 0.00002894 0.00015864 -0.00005753
1699172796.068151 -0.00503582 0.03225648 -0.00845006 0.00002827 0.00014850 -0.00005783
1699172796.170153 -0.00486518 0.03218949 -0.00846036 0.00002893 0.00014909 -0.00006110
1699172796.269156 -0.00473814 0.03222159 -0.00849091 0.00002896 0.00014389 -0.00005971
1699172796.368158 -0.00529569 0.03189588 -0.00840994 0.00002824 0.00014079 -0.00005688
1699172796.470160 -0.00531462 0.03192752 -0.00858980 0.00002754 0.00014451 -0.00005755
1699172796.569162 -0.00558000 0.03217101 -0.00860276 0.00002525 0.00014052 -0.00005900
1699172796.668164 -0.00627477 0.03196720 -0.00891524 0.00002562 0.00013664 -0.00005827
1699172796.770166 -0.00679624 0.03186621 -0.00907857 0.00002729 0.00014209 -0.00005623
1699172796.869168 -0.00690759 0.03181936 -0.00894974 0.00002492 0.00013763 -0.00005472
1699172796.968170 -0.00692555 0.03181468 -0.00893762 0.00002335 0.00013292 -0.00005424
1699172797.070173 -0.00697571 0.03174911 -0.00908938 0.00002095 0.00014489 -0.00005274
1699172797.169175 -0.00698838 0.03162428 -0.00896850 0.00002184 0.00013305 -0.00005248
1699172797.268177 -0.00688000 0.03177475 -0.00877211 0.00002631 0.00012723 -0.00005541
1699172797.370179 -0.00638630 0.03179310 -0.00844518 0.00002846 0.00014685 -0.00005148
1699172797.469181 -0.00599486 0.03176949 -0.00814320 0.00002619 0.00013213 -0.00005163
1699172797.568183 -0.00570810 0.03178257 -0.00797378 0.00001984 0.00012988 -0.00005175
1699172797.670186 -0.00531183 0.03189675 -0.00785026 0.00002319 0.00014075 -0.00002904
1699172797.769188 -0.00491294 0.03186798 -0.00774064 0.00002147 0.00013461 -0.00004848
1699172797.868190 -0.00488147 0.03189928 -0.00762303 0.00001211 0.00013274 -0.00004773
1699172797.970192 -0.00502851 0.03201086 -0.00752007 0.00000325 0.00013463 -0.00001898
1699172798.069194 -0.00535820 0.03186556 -0.00746375 0.00000609 0.00013216 -0.00003490
1699172798.168196 -0.00568019 0.03181715 -0.00741566 0.00000368 0.00013335 -0.00003914
1699172798.270198 -0.00588014 0.03194525 -0.00738637 -0.00000367 0.00013179 -0.00001768
1699172798.369200 -0.00581319 0.03188793 -0.00747357 0.00000072 0.00013299 -0.00003863
1699172798.468203 -0.00572422 0.03185472 -0.00757209 0.00000248 0.00013422 -0.00004555
1699172798.570205 -0.00552953 0.03204038 -0.00757855 -0.00001600 0.00012831 -0.00003037
1699172798.669207 -0.00528471 0.03211469 -0.00768074 -0.00001173 0.00013343 -0.00005105
1699172798.768209 -0.00532011 0.03218575 -0.00770770 -0.00000593 0.00013543 -0.00005776
1699172798.870211 -0.00555680 0.03232081 -0.00772175 -0.00002602 0.00014038 -0.00004471
1699172798.969213 -0.00581331 0.03228160 -0.00776022 -0.00002127 0.00014431 -0.00005555
1699172799.068215 -0.00602158 0.03224123 -0.00776030 -0.00001466 0.00014427 -0.00005749
1699172799.170218 -0.00599797 0.03233059 -0.00779091 -0.00003027 0.00014767 -0.00004932
1699172799.269220 -0.00589199 0.03234481 -0.00787624 -0.00001663 0.00014658 -0.00005565
1699172799.368222 -0.00577758 0.03226951 -0.00800009 -0.00001010 0.00014311 -0.00005732
1699172799.470224 -0.00542055 0.03206995 -0.00828294 -0.00001898 0.00014873 -0.00005014
1699172799.569226 -0.00524158 0.03190941 -0.00838746 -0.00001233 0.00014428 -0.00005015
1699172799.668228 -0.00505338 0.03167499 -0.00849417 -0.00000541 0.00013858 -0.00004932
1699172799.770230 -0.00472204 0.03153818 -0.00863522 -0.00001147 0.00015076 -0.00004817
1699172799.869232 -0.00441267 0.03161029 -0.00856893 -0.00000297 0.00013977 -0.00004379
1699172799.968235 -0.00445679 0.03173340 -0.00852953 0.00000142 0.00013402 -0.00004499
1699172800.070237 -0.00454896 0.03178794 -0.00866186 -0.00000062 0.00014395 -0.00004823
1699172800.169239 -0.00462983 0.03188540 -0.00877826 0.00000909 0.00012953 -0.00004395
1699172800.268241 -0.00495376 0.03180295 -0.00872398 0.00001440 0.00012153 -0.00003688
1699172800.370243 -0.00519248 0.03173119 -0.00869093 0.00001598 0.00013081 -0.00003130
1699172800.469245 -0.00516986 0.03158042 -0.00842834 0.00001829 0.00012149 -0.00002824
1699172800.568247 -0.00485943 0.03146918 -0.00803907 0.00002138 0.00012408 -0.00002344
1699172800.670249 -0.00411043 0.03130654 -0.00777403 0.00002329 0.00013050 -0.00002095
1699172800.769252 -0.00343908 0.03114263 -0.00756055 0.00002212 0.00011582 -0.00002102
1699172800.868254 -0.00319256 0.03116552 -0.00747169 0.00002427 0.00011272 -0.00002248
1699172800.970256 -0.00275112 0.03122483 -0.00721425 0.00003335 0.00012009 -0.00002294
1699172801.069258 -0.00225033 0.03141566 -0.00705699 0.00002890 0.00011485 -0.00002258
1699172801.168260 -0.00166790 0.03172770 -0.00671368 0.00002312 0.00011455 -0.00002388
1699172801.270262 -0.00122558 0.03189416 -0.00659381 0.00003723 0.00012172 -0.00002594
1699172801.369264 -0.00076051 0.03207555 -0.00667546 0.00002975 0.00011737 -0.00002851
1699172801.468266 -0.00072042 0.03217926 -0.00671164 0.00002157 0.00011549 -0.00002757
1699172801.570269 -0.00071212 0.03203830 -0.00654521 0.00003344 0.00012485 -0.00002817
1699172801.669271 -0.00081856 0.03226624 -0.00666627 0.00002709 0.00012520 -0.00002655
1699172801.768273 -0.00128096 0.03248940 -0.00679772 0.00002514 0.00012470 -0.00002598
1699172801.870275 -0.00151665 0.03249297 -0.00700587 0.00004011 0.00012763 -0.00002620
1699172801.969277 -0.00190732 0.03253883 -0.00692569 0.00003176 0.00012561 -0.00002474
1699172802.068279 -0.00226610 0.03266697 -0.00691670 0.00003083 0.00012463 -0.00002570
1699172802.170281 -0.00255031 0.03271534 -0.00693353 0.00003734 0.00013355 -0.00002921
1699172802.269284 -0.00267629 0.03268801 -0.00697235 0.00003441 0.00012845 -0.00002634
1699172802.368286 -0.00296657 0.03245503 -0.00697431 0.00003231 0.00012982 -0.00002363
1699172802.470288 -0.00309647 0.03227250 -0.00699721 0.00003033 0.00014381 -0.00002744
1699172802.569290 -0.00318212 0.03219747 -0.00710557 0.00003213 0.00013225 -0.00002366
1699172802.668292 -0.00304303 0.03214760 -0.00716917 0.00003277 0.00012755 -0.00002226
1699172802.770294 -0.00269983 0.03218437 -0.00726119 0.00003414 0.00013197 -0.00002259
1699172802.869296 -0.00222108 0.03222222 -0.00731958 0.00003089 0.00012557 -0.00002294
1699172802.968298 -0.00177840 0.03222862 -0.00732636 0.00003358 0.00012356 -0.00002219
1699172803.070301 -0.00096498 0.03213760 -0.00729376 0.00003050 0.00012785 -0.00001878
1699172803.169303 -0.00051963 0.03204653 -0.00713253 0.00003335 0.00012370 -0.00002040
1699172803.268305 -0.00026348 0.03199209 -0.00702430 0.00003476 0.00012275 -0.00002051
1699172803.370307 -0.00012693 0.03197941 -0.00692891 0.00002966 0.00012296 -0.00001741
1699172803.469309 -0.00005102 0.03195994 -0.00687626 0.00003349 0.00012134 -0.00001991
1699172803.568311 0.00006159 0.03190195 -0.00681447 0.00003584 0.00012149 -0.00002053
1699172803.670313 0.00019525 0.03188767 -0.00679266 0.00002924 0.00011536 -0.00001420
1699172803.769315 0.00034715 0.03177564 -0.00685559 0.00003717 0.00011979 -0.00002020
1699172803.868318 0.00033645 0.03173274 -0.00693240 0.00004215 0.00012078 -0.00002308
1699172803.970320 0.00024223 0.03170942 -0.00686850 0.00003460 0.00011072 -0.00002081
1699172804.069322 0.00009736 0.03159961 -0.00683149 0.00003706 0.00011928 -0.00002633
1699172804.168324 -0.00006207 0.03148194 -0.00675943 0.00003614 0.00012167 -0.00002742
1699172804.270326 -0.00020028 0.03145359 -0.00659059 0.00002713 0.00011467 -0.00002659
1699172804.369328 -0.00032160 0.03134863 -0.00648040 0.00002722 0.00012605 -0.00002922
1699172804.468330 -0.00030515 0.03126470 -0.00651631 0.00002661 0.00013070 -0.00002939
1699172804.570333 -0.00025218 0.03129838 -0.00653528 0.00002149 0.00012278 -0.00002803
1699172804.669335 -0.00016651 0.03135725 -0.00671287 0.00002419 0.00012956 -0.00002798
1699172804.768337 -0.00003669 0.03140781 -0.00682792 0.00002487 0.00012998 -0.00002794
