timestamp ba_x ba_y ba_z bg_x bg_y bg_z
1705548701.456522 -0.00000001 0.00000000 0.00000571 -0.00018176 0.00017269 -0.00016385
1705548701.555524 -0.00000001 0.00000000 0.00000273 -0.00017862 0.00017184 -0.00016254
1705548701.654526 -0.00000001 0.00000001 -0.00000753 -0.00017372 0.00016759 -0.00016328
1705548701.756528 -0.00000005 0.00000002 -0.00005421 -0.00016649 0.00016111 -0.00016218
1705548701.855531 -0.00000013 0.00000003 -0.00013687 -0.00015586 0.00015712 -0.00016063
1705548701.954533 -0.00000021 0.00000003 -0.00023506 -0.00014345 0.00015204 -0.00015764
1705548702.056535 -0.00000029 0.00000004 -0.00032888 -0.00013010 0.00014428 -0.00015545
1705548702.155537 -0.00000037 0.00000005 -0.00042923 -0.00011718 0.00013447 -0.00015056
1705548702.257539 -0.00000048 0.00000006 -0.00054711 -0.00010236 0.00012327 -0.00014708
1705548702.356541 -0.00000073 0.00000009 -0.00074248 -0.00009074 0.00011063 -0.00014717
1705548702.455543 -0.00000107 0.00000009 -0.00101809 -0.00007849 0.00009588 -0.00014599
1705548702.557545 -0.00000143 0.00000006 -0.00137225 -0.00006135 0.00007961 -0.00014582
1705548702.656548 -0.00000154 0.00000006 -0.00154272 -0.00004370 0.00006431 -0.00014777
1705548702.755550 -0.00000175 0.00000002 -0.00181378 -0.00002462 0.00004822 -0.00014901
1705548702.854552 -0.00000190 -0.00000003 -0.00202077 -0.00000338 0.00003129 -0.00015054
1705548702.956554 -0.00000208 -0.00000010 -0.00229393 0.00002506 0.00001457 -0.00015368
1705548703.055556 -0.00000215 -0.00000012 -0.00242986 0.00005423 -0.00000379 -0.00015633
1705548703.157558 -0.00000228 -0.00000020 -0.00264986 0.00007518 -0.00001547 -0.00015959
1705548703.256560 -0.00000226 -0.00000078 -0.00276299 0.00009632 -0.00003106 -0.00016105
1705548703.355562 -0.00000214 -0.00000103 -0.00284222 0.00011829 -0.00004716 -0.00016463
1705548703.454565 -0.00000203 -0.00000118 -0.00291052 0.00014204 -0.00006048 -0.00016827
1705548703.556567 -0.00000191 -0.00000138 -0.00296566 0.00016489 -0.00007479 -0.00016940
1705548703.655569 -0.00000179 -0.00000155 -0.00303397 0.00018548 -0.00009045 -0.00016863
1705548703.754571 -0.00000168 -0.00000174 -0.00300007 0.00020388 -0.00010275 -0.00016807
1705548703.856573 0.00000048 -0.00000439 -0.00294622 0.00022251 -0.00011563 -0.00016900
1705548703.955575 0.00000339 -0.00000739 -0.00287822 0.00023814 -0.00013269 -0.00016399
1705548704.054577 0.00000537 -0.00000932 -0.00284422 0.00025099 -0.00015020 -0.00016053
1705548704.156579 0.00000680 -0.00000961 -0.00281193 0.00025893 -0.00016770 -0.00015123
1705548704.255582 0.00000837 -0.00000956 -0.00277336 0.00026865 -0.00018012 -0.00014456
1705548704.354584 0.00000974 -0.00000937 -0.00275240 0.00027373 -0.00019148 -0.00013688
1705548704.456586 0.00000962 -0.00000888 -0.00271289 0.00028855 -0.00020481 -0.00013387
1705548704.555588 0.00000989 -0.00001116 -0.00267785 0.00030268 -0.00021782 -0.00013049
1705548704.654590 0.00000735 -0.00001972 -0.00264237 0.00031568 -0.00023152 -0.00012889
1705548704.756592 0.00000695 -0.00003637 -0.00263288 0.00032462 -0.00024316 -0.00012882
1705548704.855594 0.00001484 -0.00005208 -0.00262483 0.00033419 -0.00025329 -0.00012701
1705548704.957597 0.00003107 -0.00006855 -0.00275261 0.00034170 -0.00026244 -0.00012554
1705548705.056599 0.00004713 -0.00008058 -0.00266331 0.00034576 -0.00027135 -0.00012631
1705548705.155601 -0.00002358 -0.00005697 -0.00244366 0.00035648 -0.00028697 -0.00012954
1705548705.257603 -0.00000636 -0.00004556 -0.00231986 0.00035632 -0.00030019 -0.00012682
1705548705.356605 -0.00002788 -0.00000598 -0.00205493 0.00035030 -0.00030976 -0.00011406
1705548705.455607 -0.00006615 0.00004670 -0.00185110 0.00034696 -0.00031753 -0.00010618
1705548705.554609 -0.00010669 0.00009981 -0.00164435 0.00034518 -0.00032191 -0.00009649
1705548705.656612 -0.00014403 0.00014870 -0.00152198 0.00033787 -0.00032035 -0.00009089
1705548705.755614 -0.00019011 0.00019847 -0.00106021 0.00033517 -0.00038808 -0.00008063
1705548705.854616 -0.00021595 0.00023663 -0.00077378 0.00032604 -0.00042334 -0.00008098
1705548705.956618 -0.00023732 0.00026477 -0.00033105 0.00032764 -0.00044027 -0.00009039
1705548706.055620 -0.00033332 0.00027873 -0.00000944 0.00032056 -0.00044146 -0.00009231
1705548706.154622 -0.00054010 0.00023505 0.00013252 0.00031837 -0.00043390 -0.00011905
1705548706.256624 -0.00074426 0.00014366 0.00026790 0.00031432 -0.00043298 -0.00013183
1705548706.355627 -0.00105789 0.00002189 0.00036176 0.00031060 -0.00044236 -0.00014032
1705548706.454629 -0.00148339 -0.00008891 0.00053063 0.00030848 -0.00046086 -0.00014986
1705548706.556631 -0.00146721 -0.00011680 0.00082756 0.00032905 -0.00045388 -0.00016560
1705548706.655633 -0.00150964 -0.00013503 0.00115544 0.00034111 -0.00040989 -0.00015566
1705548706.754635 -0.00153558 -0.00014660 0.00117242 0.00033993 -0.00040720 -0.00015357
1705548706.856637 -0.00160130 -0.00016592 0.00111655 0.00034066 -0.00040569 -0.00015199
1705548706.955639 -0.00171479 -0.00019840 0.00100490 0.00034928 -0.00040196 -0.00014995
1705548707.054641 -0.00190598 -0.00025264 0.00084848 0.00036260 -0.00039756 -0.00014341
1705548707.156644 -0.00212903 -0.00032406 0.00069672 0.00037430 -0.00039573 -0.00013478
1705548707.255646 -0.00243764 -0.00044269 0.00064624 0.00038096 -0.00039821 -0.00011919
1705548707.357648 -0.00274729 -0.00065070 0.00053946 0.00038003 -0.00038651 -0.00010200
1705548707.456650 -0.00317964 -0.00083307 0.00054902 0.00038163 -0.00039207 -0.00010140
1705548707.555652 -0.00360497 -0.00099490 0.00034271 0.00037405 -0.00039918 -0.00009273
1705548707.654654 -0.00388299 -0.00115473 0.00031163 0.00037077 -0.00039670 -0.00008689
1705548707.756656 -0.00405613 -0.00138417 0.00044134 0.00037264 -0.00039020 -0.00008554
1705548707.855659 -0.00424885 -0.00165392 0.00049683 0.00036504 -0.00037574 -0.00008992
1705548707.954661 -0.00447988 -0.00191469 0.00058338 0.00035703 -0.00035826 -0.00009998
1705548708.056663 -0.00474890 -0.00232694 0.00043762 0.00035118 -0.00034019 -0.00010735
1705548708.155665 -0.00502594 -0.00272749 -0.00000450 0.00034121 -0.00033013 -0.00011348
1705548708.254667 -0.00524380 -0.00310641 -0.00041824 0.00032435 -0.00032762 -0.00011234
1705548708.356669 -0.00536887 -0.00354727 -0.00082629 0.00030816 -0.00032868 -0.00010449
1705548708.455671 -0.00551013 -0.00388166 -0.00110717 0.00029916 -0.00033947 -0.00009163
1705548708.557673 -0.00557188 -0.00425606 -0.00118874 0.00029050 -0.00035050 -0.00007433
1705548708.656676 -0.00568598 -0.00455976 -0.00146946 0.00027814 -0.00036291 -0.00005800
1705548708.755678 -0.00581187 -0.00476941 -0.00191351 0.00025718 -0.00037891 -0.00003951
1705548708.857680 -0.00588417 -0.00504867 -0.00222708 0.00023544 -0.00042365 -0.00001198
1705548708.956682 -0.00606660 -0.00526576 -0.00214706 0.00022394 -0.00046811 0.00001180
1705548709.055684 -0.00618832 -0.00549283 -0.00200702 0.00021062 -0.00050327 0.00002873
1705548709.154686 -0.00627651 -0.00571978 -0.00154899 0.00019942 -0.00058171 0.00004338
1705548709.256688 -0.00635876 -0.00596676 -0.00098538 0.00019116 -0.00066321 0.00006128
1705548709.355690 -0.00642910 -0.00621830 -0.00068903 0.00018339 -0.00072315 0.00008429
1705548709.454693 -0.00646772 -0.00645291 -0.00041805 0.00017433 -0.00079425 0.00010429
1705548709.556695 -0.00655280 -0.00679640 0.00003718 0.00016917 -0.00085679 0.00012374
1705548709.655697 -0.00664892 -0.00716183 0.00047902 0.00016896 -0.00089328 0.00013890
1705548709.754699 -0.00672781 -0.00757610 0.00077637 0.00017958 -0.00093584 0.00015593
1705548709.856701 -0.00680016 -0.00802000 0.00101139 0.00017540 -0.00097055 0.00016075
1705548709.955703 -0.00670760 -0.00842306 0.00077117 0.00016329 -0.00098133 0.00016598
1705548710.054705 -0.00650587 -0.00878135 0.00027352 0.00015928 -0.00098166 0.00017042
1705548710.156708 -0.00635203 -0.00914917 -0.00024387 0.00016292 -0.00097912 0.00017252
1705548710.255710 -0.00614623 -0.00952777 -0.00061394 0.00016932 -0.00097302 0.00016916
1705548710.354712 -0.00587036 -0.00988587 -0.00089796 0.00019926 -0.00097705 0.00014049
1705548710.456714 -0.00557152 -0.01024308 -0.00104086 0.00022854 -0.00098396 0.00011794
1705548710.555716 -0.00530932 -0.01053908 -0.00100713 0.00024790 -0.00097751 0.00010396
1705548710.654718 -0.00502396 -0.01075810 -0.00106108 0.00027468 -0.00098896 0.00008578
1705548710.756720 -0.00471093 -0.01092489 -0.00118794 0.00030559 -0.00101442 0.00006678
1705548710.855722 -0.00441835 -0.01104603 -0.00142554 0.00033823 -0.00104284 0.00006026
1705548710.954725 -0.00415729 -0.01116591 -0.00155712 0.00037669 -0.00105868 0.00006099
1705548711.056727 -0.00386454 -0.01130002 -0.00163588 0.00042660 -0.00108103 0.00005069
1705548711.155729 -0.00362100 -0.01141942 -0.00158115 0.00046521 -0.00109353 0.00004048
1705548711.254731 -0.00329860 -0.01157446 -0.00160830 0.00051664 -0.00110662 0.00002572
1705548711.356733 -0.00302177 -0.01172189 -0.00130734 0.00055761 -0.00109781 0.00001850
1705548711.455735 -0.00264163 -0.01194590 -0.00066204 0.00058592 -0.00106922 0.00002061
1705548711.554737 -0.00223899 -0.01223417 0.00002090 0.00059175 -0.00101955 0.00003196
1705548711.656739 -0.00186680 -0.01249925 0.00085376 0.00059180 -0.00096535 0.00004119
1705548711.755742 -0.00150050 -0.01277118 0.00176094 0.00058724 -0.00091551 0.00005074
1705548711.854744 -0.00114731 -0.01304548 0.00262742 0.00058575 -0.00087004 0.00005999
1705548711.956746 -0.00086771 -0.01330556 0.00312800 0.00058585 -0.00082452 0.00006517
1705548712.055748 -0.00069238 -0.01347934 0.00315554 0.00058136 -0.00080455 0.00007007
1705548712.154750 -0.00049322 -0.01368332 0.00284891 0.00057354 -0.00078120 0.00007763
1705548712.256752 -0.00032849 -0.01387789 0.00214836 0.00055740 -0.00076290 0.00008132
1705548712.355755 -0.00021422 -0.01404089 0.00129240 0.00054681 -0.00075497 0.00007754
1705548712.454756 -0.00011417 -0.01417843 0.00045680 0.00053689 -0.00074756 0.00007533
1705548712.556759 0.00001030 -0.01440712 -0.00123677 0.00052965 -0.00074418 0.00007543
1705548712.655761 0.00016856 -0.01457071 -0.00183834 0.00052385 -0.00073708 0.00008266
1705548712.754763 0.00049095 -0.01481677 -0.00235013 0.00050129 -0.00072670 0.00009754
1705548712.856765 0.00075332 -0.01505680 -0.00298790 0.00049243 -0.00072339 0.00010199
1705548712.955767 0.00112576 -0.01538086 -0.00365203 0.00048509 -0.00071328 0.00011636
1705548713.054770 0.00154839 -0.01573127 -0.00424699 0.00049152 -0.00069997 0.00011269
1705548713.156772 0.00184719 -0.01599963 -0.00483838 0.00048334 -0.00069570 0.00010642
1705548713.255774 0.00222256 -0.01641632 -0.00602848 0.00047652 -0.00069269 0.00009928
1705548713.354776 0.00266763 -0.01686838 -0.00680743 0.00048468 -0.00068857 0.00008901
1705548713.456778 0.00299967 -0.01723517 -0.00756438 0.00048004 -0.00069236 0.00009100
1705548713.555780 0.00337197 -0.01777567 -0.00836177 0.00047095 -0.00069386 0.00008866
1705548713.654782 0.00386365 -0.01842272 -0.00855441 0.00046881 -0.00069465 0.00007197
1705548713.756784 0.00425486 -0.01897376 -0.00854811 0.00046036 -0.00071965 0.00006664
1705548713.855787 0.00472620 -0.01989319 -0.00901684 0.00045913 -0.00077495 0.00006629
1705548713.954789 0.00514284 -0.02067038 -0.00881540 0.00045415 -0.00087802 0.00006269
1705548714.056791 0.00553247 -0.02157546 -0.00857873 0.00046321 -0.00098535 0.00006493
1705548714.155793 0.00593846 -0.02260433 -0.00847708 0.00046136 -0.00104812 0.00006779
1705548714.254795 0.00644708 -0.02362831 -0.00838472 0.00047577 -0.00111819 0.00006667
1705548714.356797 0.00710363 -0.02467618 -0.00841580 0.00049212 -0.00117400 0.00005759
1705548714.455799 0.00769904 -0.02566977 -0.00837509 0.00049794 -0.00120197 0.00004533
1705548714.554801 0.00834374 -0.02684861 -0.00820125 0.00049493 -0.00121708 0.00004439
1705548714.656804 0.00893742 -0.02796654 -0.00820036 0.00049978 -0.00123441 0.00004649
1705548714.755806 0.00962284 -0.02916921 -0.00845864 0.00050322 -0.00125964 0.00005092
1705548714.854808 0.01026295 -0.03026750 -0.00855400 0.00049518 -0.00127304 0.00005364
1705548714.956810 0.01081523 -0.03126943 -0.00835004 0.00047430 -0.00127314 0.00006273
1705548715.055812 0.01154261 -0.03225265 -0.00848243 0.00045634 -0.00126775 0.00007393
1705548715.154814 0.01243901 -0.03323874 -0.00897808 0.00043496 -0.00125697 0.00008587
1705548715.256816 0.01342016 -0.03425596 -0.00969631 0.00041611 -0.00124551 0.00009650
1705548715.355819 0.01440140 -0.03537422 -0.01063654 0.00040033 -0.00124081 0.00009995
1705548715.454821 0.01512745 -0.03642552 -0.01134926 0.00039214 -0.00123478 0.00009198
1705548715.556823 0.01563813 -0.03756326 -0.01195886 0.00038542 -0.00122804 0.00007650
1705548715.655825 0.01596314 -0.03858214 -0.01247210 0.00037965 -0.00122151 0.00006426
1705548715.754827 0.01609759 -0.03949295 -0.01280993 0.00037774 -0.00121876 0.00004046
1705548715.856829 0.01614099 -0.04038109 -0.01309369 0.00037732 -0.00122099 0.00001426
1705548715.955831 0.01622382 -0.04116856 -0.01317806 0.00037537 -0.00122364 -0.00001322
1705548716.054833 0.01628505 -0.04190406 -0.01310900 0.00037787 -0.00122736 -0.00003786
1705548716.156836 0.01647125 -0.04256213 -0.01285116 0.00038012 -0.00122804 -0.00006082
1705548716.255838 0.01654098 -0.04319378 -0.01275591 0.00038157 -0.00122410 -0.00007042
1705548716.354840 0.01654810 -0.04389384 -0.01284111 0.00037816 -0.00123237 -0.00007622
1705548716.456842 0.01641926 -0.04447807 -0.01312116 0.00037521 -0.00122834 -0.00007891
1705548716.555844 0.01642929 -0.04533924 -0.01324799 0.00036630 -0.00123473 -0.00008097
1705548716.654846 0.01638983 -0.04596577 -0.01334044 0.00035471 -0.00123207 -0.00008016
1705548716.756848 0.01657669 -0.04667956 -0.01312976 0.00033483 -0.00125114 -0.00007849
1705548716.855850 0.01666244 -0.04728086 -0.01302491 0.00032400 -0.00125770 -0.00007765
1705548716.954853 0.01722006 -0.04805413 -0.01239400 0.00031779 -0.00127931 -0.00008515
1705548717.056855 0.01761335 -0.04873111 -0.01195801 0.00032071 -0.00127919 -0.00008853
1705548717.155857 0.01842803 -0.04950153 -0.01086984 0.00032043 -0.00128059 -0.00010198
1705548717.254859 0.01913136 -0.05009881 -0.00985634 0.00032404 -0.00126331 -0.00010426
1705548717.356861 0.02003039 -0.05083556 -0.00814749 0.00032993 -0.00125099 -0.00012245
1705548717.455863 0.02079906 -0.05145438 -0.00708907 0.00032547 -0.00124812 -0.00012764
1705548717.554865 0.02209370 -0.05237546 -0.00535487 0.00032101 -0.00123495 -0.00013312
1705548717.656868 0.02340940 -0.05303803 -0.00432001 0.00031551 -0.00121871 -0.00012348
1705548717.755870 0.02484937 -0.05409853 -0.00296472 0.00031710 -0.00119569 -0.00010269
1705548717.854872 0.02635964 -0.05496334 -0.00217193 0.00031067 -0.00117751 -0.00009231
1705548717.956874 0.02731837 -0.05581396 -0.00136726 0.00030374 -0.00114822 -0.00008260
1705548718.055876 0.02757698 -0.05680941 -0.00131459 0.00029916 -0.00113846 -0.00007900
1705548718.154878 0.02767965 -0.05758531 -0.00165683 0.00029587 -0.00113997 -0.00007671
1705548718.256880 0.02756480 -0.05858112 -0.00213108 0.00029710 -0.00114223 -0.00008699
1705548718.355882 0.02747586 -0.05926467 -0.00249556 0.00029670 -0.00114325 -0.00009621
1705548718.454885 0.02746982 -0.06006025 -0.00321548 0.00029782 -0.00115148 -0.00011693
1705548718.556887 0.02748646 -0.06082934 -0.00412495 0.00029136 -0.00117181 -0.00013713
1705548718.655889 0.02751325 -0.06149617 -0.00493941 0.00028757 -0.00119470 -0.00015730
1705548718.754891 0.02756523 -0.06209260 -0.00524843 0.00029592 -0.00121511 -0.00018785
1705548718.856893 0.02759354 -0.06259464 -0.00511493 0.00030801 -0.00123094 -0.00020636
1705548718.955895 0.02764724 -0.06318442 -0.00481409 0.00032792 -0.00124521 -0.00023127
1705548719.054897 0.02767606 -0.06389637 -0.00434831 0.00034015 -0.00124799 -0.00025186
1705548719.156900 0.02775582 -0.06469300 -0.00322088 0.00035970 -0.00124008 -0.00027061
1705548719.255902 0.02782111 -0.06536430 -0.00266680 0.00035798 -0.00123667 -0.00028829
1705548719.354904 0.02787112 -0.06620444 -0.00197275 0.00036354 -0.00122331 -0.00030472
1705548719.456906 0.02787929 -0.06681054 -0.00200767 0.00035047 -0.00122695 -0.00031146
1705548719.555908 0.02782279 -0.06776369 -0.00180957 0.00033472 -0.00121615 -0.00032427
1705548719.654910 0.02777609 -0.06843044 -0.00182024 0.00032435 -0.00121207 -0.00033113
1705548719.756912 0.02763784 -0.06947410 -0.00124159 0.00032714 -0.00117877 -0.00033969
1705548719.855915 0.02751192 -0.07036510 -0.00076271 0.00032148 -0.00116252 -0.00034267
1705548719.954917 0.02727528 -0.07146115 -0.00027383 0.00030884 -0.00118892 -0.00033987
1705548720.056919 0.02713408 -0.07206792 -0.00007242 0.00029796 -0.00123187 -0.00035433
1705548720.155921 0.02689053 -0.07324147 0.00016301 0.00028265 -0.00128989 -0.00034257
1705548720.254923 0.02675303 -0.07386812 0.00040964 0.00028090 -0.00134514 -0.00034228
1705548720.356925 0.02648838 -0.07492495 0.00117567 0.00027851 -0.00141651 -0.00032053
1705548720.455927 0.02627447 -0.07597489 0.00145637 0.00027851 -0.00144328 -0.00031607
1705548720.554929 0.02610593 -0.07695160 0.00165010 0.00025958 -0.00148254 -0.00030428
1705548720.656932 0.02593081 -0.07788868 0.00167004 0.00022185 -0.00151476 -0.00029422
1705548720.755934 0.02568890 -0.07879248 0.00167210 0.00017611 -0.00154763 -0.00027556
1705548720.854936 0.02547371 -0.07963729 0.00192109 0.00015375 -0.00156770 -0.00025780
1705548720.956938 0.02514084 -0.08037852 0.00263149 0.00012817 -0.00154579 -0.00026424
1705548721.055940 0.02464929 -0.08101932 0.00383192 0.00012411 -0.00151568 -0.00028149
1705548721.154942 0.02375237 -0.08157836 0.00605314 0.00011168 -0.00147148 -0.00031140
1705548721.256944 0.02270706 -0.08197038 0.00805809 0.00013093 -0.00142755 -0.00032999
1705548721.355947 0.02157220 -0.08225761 0.00953025 0.00013434 -0.00139841 -0.00033050
1705548721.454949 0.02045786 -0.08247781 0.01067030 0.00012736 -0.00137669 -0.00033232
1705548721.556951 0.01936803 -0.08264437 0.01153039 0.00012381 -0.00135940 -0.00032640
1705548721.655953 0.01841640 -0.08261200 0.01246932 0.00011150 -0.00134785 -0.00032470
1705548721.754955 0.01780087 -0.08233308 0.01368178 0.00008409 -0.00134303 -0.00030853
1705548721.856957 0.01741897 -0.08167877 0.01498018 0.00006092 -0.00134070 -0.00028865
1705548721.955959 0.01714818 -0.08088050 0.01598937 0.00005345 -0.00134963 -0.00027106
1705548722.054961 0.01680783 -0.08009496 0.01678704 0.00004453 -0.00135989 -0.00025447
1705548722.156964 0.01627542 -0.07936812 0.01735506 0.00003192 -0.00136669 -0.00024013
1705548722.255966 0.01572491 -0.07850743 0.01766437 0.00002127 -0.00137312 -0.00022880
1705548722.354968 0.01507614 -0.07763492 0.01750878 -0.00000083 -0.00137127 -0.00022096
1705548722.456970 0.01448694 -0.07673264 0.01681763 -0.00001579 -0.00136814 -0.00021801
1705548722.555972 0.01391569 -0.07571733 0.01593508 -0.00003477 -0.00136332 -0.00021543
1705548722.654974 0.01325779 -0.07470691 0.01483769 -0.00006635 -0.00135247 -0.00020749
1705548722.756976 0.01256369 -0.07374967 0.01330577 -0.00008086 -0.00133605 -0.00020664
1705548722.855978 0.01172856 -0.07302050 0.01149855 -0.00008057 -0.00132089 -0.00020574
1705548722.954981 0.01101037 -0.07256057 0.00993472 -0.00007460 -0.00131588 -0.00020389
1705548723.056983 0.01034416 -0.07209791 0.00846476 -0.00007796 -0.00131203 -0.00019637
1705548723.155985 0.00986176 -0.07152816 0.00720296 -0.00008167 -0.00131186 -0.00019324
1705548723.254987 0.00946289 -0.07090287 0.00629567 -0.00008395 -0.00131619 -0.00019133
1705548723.356989 0.00917024 -0.07013577 0.00566334 -0.00007261 -0.00134549 -0.00019344
1705548723.455991 0.00893385 -0.06929940 0.00496824 -0.00005626 -0.00137151 -0.00019972
1705548723.554993 0.00870251 -0.06833574 0.00422594 -0.00004035 -0.00139381 -0.00021063
1705548723.656996 0.00839392 -0.06714777 0.00375460 -0.00001650 -0.00144258 -0.00021977
1705548723.755998 0.00804007 -0.06573397 0.00335242 0.00000172 -0.00147086 -0.00023002
1705548723.855000 0.00741370 -0.06395936 0.00287129 0.00001968 -0.00149636 -0.00024800
1705548723.957002 0.00679803 -0.06216668 0.00242530 0.00004829 -0.00152089 -0.00026911
1705548724.056004 0.00602118 -0.06008910 0.00205048 0.00007246 -0.00153837 -0.00028557
1705548724.155006 0.00514751 -0.05799847 0.00200642 0.00009475 -0.00155378 -0.00029458
1705548724.257008 0.00483374 -0.05718261 0.00114760 0.00010937 -0.00147214 -0.00033540
1705548724.356010 0.00473632 -0.05653782 0.00108322 0.00018584 -0.00167513 -0.00030472
1705548724.455013 0.00489766 -0.05582451 0.00041217 0.00025306 -0.00209998 -0.00024384
1705548724.557015 0.00577251 -0.05586828 0.00024967 0.00035702 -0.00240301 -0.00022556
1705548724.656017 0.00750574 -0.05746956 0.00032660 0.00030392 -0.00244290 -0.00026476
1705548724.755019 0.00965002 -0.06029059 -0.00058567 0.00037480 -0.00241942 -0.00035388
1705548724.857021 0.01335690 -0.06667764 -0.00236663 0.00030422 -0.00228715 -0.00042466
1705548724.956023 0.01868888 -0.07819103 -0.00577133 0.00037831 -0.00218828 -0.00055015
1705548725.055025 0.02823546 -0.09984933 -0.01058469 0.00044464 -0.00215031 -0.00055612
1705548725.157027 0.04379300 -0.11783298 -0.01432566 0.00051076 -0.00209198 -0.00071182
1705548725.256030 0.05961044 -0.13859253 -0.01703468 0.00053591 -0.00205016 -0.00076911
1705548725.355032 0.07266082 -0.16261890 -0.01788512 0.00053058 -0.00200567 -0.00069849
1705548725.457034 0.08290261 -0.18791460 -0.01713726 0.00055069 -0.00198867 -0.00060848
1705548725.556036 0.08974527 -0.21008253 -0.01533968 0.00058075 -0.00201139 -0.00051731
1705548725.655038 0.09513704 -0.23212850 -0.01295803 0.00060482 -0.00205908 -0.00043440
1705548725.757041 0.10007343 -0.25353049 -0.01034596 0.00062166 -0.00212032 -0.00038400
1705548725.856042 0.10437758 -0.27044720 -0.00787491 0.00061646 -0.00216748 -0.00035728
1705548725.955045 0.10888684 -0.28642069 -0.00514486 0.00060397 -0.00220504 -0.00034212
1705548726.057047 0.11361715 -0.30196306 -0.00235382 0.00058426 -0.00224751 -0.00032895
1705548726.156049 0.11741386 -0.31445525 -0.00019630 0.00056751 -0.00227851 -0.00031715
1705548726.255051 0.12104391 -0.32673456 0.00200119 0.00054907 -0.00230445 -0.00030391
1705548726.357053 0.12576892 -0.34394450 0.00474218 0.00052558 -0.00234429 -0.00028748
1705548726.456055 0.12896399 -0.35595019 0.00646270 0.00051542 -0.00236195 -0.00028142
1705548726.555058 0.13320633 -0.37214807 0.00864652 0.00051645 -0.00239530 -0.00029038
1705548726.657060 0.13687342 -0.38593843 0.01044919 0.00051718 -0.00242428 -0.00030035
1705548726.756062 0.14076901 -0.40080565 0.01222914 0.00052701 -0.00245686 -0.00033162
1705548726.855064 0.14399006 -0.41337194 0.01318801 0.00053142 -0.00247571 -0.00034235
1705548726.957066 0.14680988 -0.42485763 0.01388116 0.00054492 -0.00251179 -0.00037185
1705548727.056068 0.14892882 -0.43510146 0.01447412 0.00054493 -0.00252662 -0.00038610
1705548727.155070 0.15036702 -0.44372113 0.01495186 0.00053603 -0.00252500 -0.00039888
1705548727.257072 0.15133394 -0.45103597 0.01554649 0.00053222 -0.00252511 -0.00040174
1705548727.356075 0.15163563 -0.45795927 0.01626567 0.00051295 -0.00252092 -0.00040229
1705548727.455077 0.15120716 -0.46359794 0.01694812 0.00048156 -0.00251034 -0.00038918
1705548727.557079 0.15027378 -0.46758105 0.01761793 0.00044012 -0.00250024 -0.00037495
1705548727.656081 0.14870488 -0.47096771 0.01830799 0.00039977 -0.00248166 -0.00034250
1705548727.755083 0.14701382 -0.47394890 0.01888391 0.00037732 -0.00245578 -0.00031100
1705548727.857085 0.14520824 -0.47642390 0.01935224 0.00036791 -0.00244407 -0.00029195
1705548727.956087 0.14285140 -0.47825498 0.01984754 0.00035833 -0.00243738 -0.00028656
1705548728.055089 0.14012585 -0.47894820 0.02034642 0.00036710 -0.00243453 -0.00029716
1705548728.157092 0.13757643 -0.47888081 0.02070350 0.00036475 -0.00244392 -0.00030703
1705548728.256094 0.13498768 -0.47819613 0.02108425 0.00037145 -0.00245142 -0.00032192
1705548728.355096 0.13210186 -0.47657569 0.02135215 0.00037763 -0.00245169 -0.00034396
1705548728.457098 0.12882593 -0.47412217 0.02176537 0.00037583 -0.00243812 -0.00035811
1705548728.556100 0.12561591 -0.47136169 0.02199029 0.00037261 -0.00242777 -0.00036001
1705548728.655102 0.12267043 -0.46805531 0.02199592 0.00036320 -0.00242522 -0.00036001
1705548728.757104 0.11952332 -0.46364162 0.02176299 0.00034885 -0.00241156 -0.00035876
1705548728.856107 0.11687303 -0.45943783 0.02152949 0.00031851 -0.00240372 -0.00034966
1705548728.955109 0.11382102 -0.45432798 0.02150985 0.00027916 -0.00239509 -0.00033773
1705548729.057111 0.11067885 -0.44814681 0.02138842 0.00025245 -0.00238449 -0.00032944
1705548729.156113 0.10771371 -0.44124321 0.02130427 0.00024568 -0.00237539 -0.00032502
1705548729.255115 0.10450766 -0.43309155 0.02117807 0.00024201 -0.00236638 -0.00032226
1705548729.357117 0.10147896 -0.42485737 0.02077995 0.00022915 -0.00235944 -0.00031994
1705548729.456119 0.09808553 -0.41538763 0.02008422 0.00022286 -0.00235672 -0.00032092
1705548729.555121 0.09425427 -0.40520304 0.01906568 0.00021424 -0.00235865 -0.00032239
1705548729.657124 0.09087327 -0.39634566 0.01815558 0.00020032 -0.00236252 -0.00032125
1705548729.756126 0.08731375 -0.38701904 0.01728832 0.00018592 -0.00236473 -0.00032049
1705548729.855128 0.08510250 -0.38126554 0.01681094 0.00017810 -0.00236430 -0.00032115
1705548729.957130 0.08121048 -0.37070124 0.01612365 0.00016358 -0.00236160 -0.00032319
1705548730.056132 0.07739371 -0.35997986 0.01569125 0.00015135 -0.00235999 -0.00032400
1705548730.155134 0.07378569 -0.34908248 0.01535931 0.00014660 -0.00235983 -0.00032536
1705548730.257136 0.07035416 -0.33808039 0.01509216 0.00014219 -0.00235479 -0.00032619
1705548730.356138 0.06699071 -0.32678046 0.01484303 0.00013897 -0.00234719 -0.00032528
1705548730.455141 0.06380675 -0.31531373 0.01467533 0.00013760 -0.00234138 -0.00032507
1705548730.557143 0.06074001 -0.30374541 0.01429529 0.00013930 -0.00233802 -0.00032663
1705548730.656145 0.05769638 -0.29214742 0.01383653 0.00014008 -0.00233726 -0.00032717
1705548730.755147 0.05421517 -0.27835886 0.01333430 0.00014619 -0.00233634 -0.00032762
1705548730.857149 0.05160429 -0.26733870 0.01311191 0.00014597 -0.00233296 -0.00032195
1705548730.956151 0.04784265 -0.25220420 0.01293257 0.00014927 -0.00232854 -0.00031940
1705548731.055153 0.04529339 -0.24215123 0.01300469 0.00014613 -0.00232621 -0.00031456
1705548731.157156 0.04122641 -0.22861983 0.01278147 0.00013577 -0.00232740 -0.00030831
1705548731.256158 0.03891931 -0.21965811 0.01280836 0.00013656 -0.00232346 -0.00030608
1705548731.355160 0.03561507 -0.20806026 0.01276305 0.00013216 -0.00232435 -0.00029690
1705548731.457162 0.03330078 -0.20038160 0.01259709 0.00012727 -0.00232195 -0.00028789
1705548731.556164 0.02979200 -0.18963213 0.01227714 0.00011981 -0.00231981 -0.00028131
1705548731.655166 0.02805057 -0.18309984 0.01239758 0.00012038 -0.00231234 -0.00027690
1705548731.757168 0.02535090 -0.17411567 0.01266462 0.00011836 -0.00230233 -0.00027311
1705548731.856170 0.02363417 -0.16830648 0.01293651 0.00011303 -0.00230473 -0.00027208
1705548731.955173 0.02002564 -0.16012627 0.01309973 0.00011027 -0.00231637 -0.00026834
1705548732.057175 0.01770642 -0.15332328 0.01316331 0.00011724 -0.00236434 -0.00027044
1705548732.156177 0.01449565 -0.14602771 0.01311331 0.00012258 -0.00239222 -0.00027674
1705548732.255179 0.01166231 -0.14017868 0.01319914 0.00012663 -0.00240659 -0.00027972
1705548732.357181 0.00909531 -0.13452028 0.01349344 0.00012309 -0.00243457 -0.00028340
1705548732.456183 0.00717344 -0.13000321 0.01387687 0.00012202 -0.00244688 -0.00028822
1705548732.555185 0.00588500 -0.12605605 0.01430264 0.00011415 -0.00244672 -0.00029451
1705548732.657188 0.00497866 -0.12209959 0.01457728 0.00011593 -0.00245516 -0.00029762
1705548732.756190 0.00445337 -0.11883787 0.01444500 0.00012531 -0.00245858 -0.00029367
1705548732.855192 0.00436153 -0.11628964 0.01420246 0.00014072 -0.00245463 -0.00028057
1705548732.957194 0.00450872 -0.11378420 0.01384701 0.00015769 -0.00244357 -0.00026208
1705548733.056196 0.00486493 -0.11136623 0.01354080 0.00016407 -0.00243797 -0.00024720
1705548733.155198 0.00543926 -0.10883989 0.01303949 0.00016443 -0.00244890 -0.00023951
1705548733.257200 0.00637116 -0.10643672 0.01278788 0.00016428 -0.00245549 -0.00024320
1705548733.356203 0.00803702 -0.10423165 0.01276094 0.00016669 -0.00245555 -0.00025466
1705548733.455205 0.00966178 -0.10239160 0.01311270 0.00016759 -0.00244993 -0.00027008
1705548733.557207 0.01113489 -0.10066177 0.01337241 0.00016816 -0.00244426 -0.00028797
1705548733.656209 0.01205990 -0.09960580 0.01334398 0.00016953 -0.00243642 -0.00029743
1705548733.755211 0.01318294 -0.09880088 0.01317951 0.00017224 -0.00242856 -0.00030230
1705548733.857213 0.01424921 -0.09818723 0.01290783 0.00016870 -0.00242590 -0.00030222
1705548733.956215 0.01538377 -0.09779056 0.01253984 0.00016241 -0.00242542 -0.00029272
1705548734.055218 0.01639746 -0.09728462 0.01235275 0.00015859 -0.00242245 -0.00027889
1705548734.157220 0.01718198 -0.09652434 0.01229858 0.00015355 -0.00241548 -0.00026608
1705548734.256222 0.01808745 -0.09578376 0.01217467 0.00015418 -0.00240494 -0.00025657
1705548734.355224 0.01882850 -0.09492862 0.01181450 0.00015067 -0.00239516 -0.00024803
1705548734.457226 0.01991145 -0.09394948 0.01139174 0.00015130 -0.00238977 -0.00022715
1705548734.556228 0.02058768 -0.09287181 0.01102114 0.00015389 -0.00240424 -0.00022242
1705548734.655230 0.02094758 -0.09165362 0.01082949 0.00016282 -0.00241949 -0.00021453
1705548734.757232 0.02110017 -0.09008692 0.01078995 0.00018211 -0.00245756 -0.00019435
1705548734.856235 0.02089334 -0.08855087 0.01090710 0.00020295 -0.00248327 -0.00018573
1705548734.955237 0.02022427 -0.08668792 0.01091711 0.00022591 -0.00250140 -0.00017289
1705548735.057239 0.02001067 -0.08485220 0.01101364 0.00023575 -0.00249430 -0.00015166
1705548735.156241 0.01961543 -0.08300291 0.01141369 0.00024348 -0.00253026 -0.00015332
1705548735.255243 0.01980451 -0.08219501 0.01193775 0.00025779 -0.00255306 -0.00014284
1705548735.357245 0.01981099 -0.08021674 0.01237799 0.00026062 -0.00256154 -0.00015726
1705548735.456247 0.02034607 -0.07852003 0.01280117 0.00026567 -0.00256819 -0.00015264
1705548735.555249 0.02089626 -0.07605943 0.01334176 0.00026863 -0.00256285 -0.00016023
1705548735.657252 0.02122376 -0.07308399 0.01402074 0.00028394 -0.00266227 -0.00016627
1705548735.756254 0.02234003 -0.07025525 0.01350624 0.00027761 -0.00257703 -0.00016819
1705548735.855256 0.02309807 -0.06768752 0.01329682 0.00027453 -0.00253362 -0.00017094
1705548735.957258 0.02579879 -0.06414933 0.01233579 0.00028685 -0.00253365 -0.00017948
1705548736.056260 0.02771979 -0.06116564 0.01183937 0.00028913 -0.00252397 -0.00017953
1705548736.155262 0.02912375 -0.05832755 0.01165023 0.00028697 -0.00251797 -0.00018042
1705548736.257264 0.03002362 -0.05670770 0.01152781 0.00028739 -0.00249956 -0.00018081
1705548736.356266 0.03037516 -0.05508217 0.01171319 0.00028375 -0.00250420 -0.00017624
1705548736.455269 0.03048839 -0.05376714 0.01191985 0.00028012 -0.00250045 -0.00017860
1705548736.557271 0.03070686 -0.05268326 0.01205383 0.00027986 -0.00248362 -0.00018464
1705548736.656273 0.03086628 -0.05144477 0.01242801 0.00027155 -0.00248168 -0.00018252
1705548736.755275 0.03084638 -0.05039328 0.01289078 0.00026505 -0.00247141 -0.00017498
1705548736.857277 0.03087561 -0.04941473 0.01311109 0.00026261 -0.00245445 -0.00017531
1705548736.956279 0.03074966 -0.04841524 0.01318402 0.00025928 -0.00245116 -0.00017128
1705548737.055281 0.03079807 -0.04756587 0.01306293 0.00026035 -0.00244713 -0.00017187
1705548737.157284 0.03096327 -0.04666607 0.01279030 0.00026232 -0.00243747 -0.00017842
1705548737.256286 0.03071758 -0.04586912 0.01251148 0.00026063 -0.00243551 -0.00017954
1705548737.355288 0.03062967 -0.04497241 0.01228597 0.00026240 -0.00243642 -0.00018304
1705548737.457290 0.03068608 -0.04415214 0.01225254 0.00026428 -0.00243257 -0.00018831
1705548737.556292 0.03045206 -0.04328689 0.01225456 0.00026357 -0.00243294 -0.00018862
1705548737.655294 0.03037348 -0.04248937 0.01216938 0.00026489 -0.00243144 -0.00019379
1705548737.757296 0.03053007 -0.04206579 0.01201118 0.00026872 -0.00242580 -0.00019973
1705548737.856298 0.03038640 -0.04161049 0.01196596 0.00026797 -0.00242341 -0.00020224
1705548737.955301 0.02993396 -0.04113993 0.01197663 0.00027105 -0.00241864 -0.00020521
1705548738.057303 0.02949793 -0.04062925 0.01207655 0.00026056 -0.00241698 -0.00020160
1705548738.156305 0.02892406 -0.04007235 0.01206351 0.00025541 -0.00242978 -0.00019936
1705548738.255307 0.02806239 -0.03931939 0.01201670 0.00025607 -0.00244610 -0.00019765
1705548738.357309 0.02796460 -0.03859530 0.01200047 0.00025084 -0.00246896 -0.00019382
1705548738.456311 0.02772622 -0.03766995 0.01218834 0.00024816 -0.00250280 -0.00018994
1705548738.555313 0.02752645 -0.03687518 0.01213787 0.00024834 -0.00251792 -0.00018899
1705548738.657315 0.02767325 -0.03679768 0.01205170 0.00025153 -0.00249888 -0.00018635
1705548738.756318 0.02803180 -0.03610979 0.01222467 0.00026125 -0.00251855 -0.00016969
1705548738.855320 0.02863646 -0.03526349 0.01241744 0.00025546 -0.00253107 -0.00015294
1705548738.957322 0.02876586 -0.02911470 0.01098846 0.00025232 -0.00254154 -0.00020277
1705548739.056324 0.02968164 -0.03097756 0.01185696 0.00025075 -0.00252450 -0.00016358
1705548739.155326 0.03029313 -0.03211063 0.01222496 0.00024191 -0.00251873 -0.00016246
1705548739.257328 0.03073057 -0.03256769 0.01218442 0.00018658 -0.00257514 -0.00019391
1705548739.356330 0.03149436 -0.03282347 0.01141665 0.00018875 -0.00252591 -0.00017582
1705548739.455333 0.03222218 -0.03233300 0.01072573 0.00017955 -0.00250437 -0.00017369
1705548739.557335 0.03219382 -0.03196035 0.01060121 0.00016631 -0.00250529 -0.00019335
1705548739.656337 0.03207705 -0.03129638 0.01091430 0.00013820 -0.00248392 -0.00017337
1705548739.755339 0.03232872 -0.03051074 0.01124618 0.00012767 -0.00246946 -0.00016574
1705548739.857341 0.03247655 -0.02966739 0.01156205 0.00011994 -0.00244179 -0.00018502
1705548739.956343 0.03256645 -0.02890800 0.01199548 0.00010321 -0.00243470 -0.00017551
1705548740.055345 0.03257338 -0.02826639 0.01225383 0.00009600 -0.00243139 -0.00017014
1705548740.157348 0.03253467 -0.02797107 0.01234159 0.00009715 -0.00241463 -0.00018442
1705548740.256350 0.03240229 -0.02765748 0.01254841 0.00008545 -0.00241128 -0.00016939
1705548740.355352 0.03209703 -0.02733558 0.01285505 0.00007940 -0.00239923 -0.00016182
1705548740.457354 0.03204035 -0.02713785 0.01310664 0.00008422 -0.00238123 -0.00017475
1705548740.556356 0.03189009 -0.02662285 0.01303240 0.00007375 -0.00237262 -0.00016623
1705548740.655358 0.03166090 -0.02633540 0.01300101 0.00006519 -0.00236420 -0.00015925
1705548740.757360 0.03153815 -0.02617934 0.01288807 0.00007031 -0.00235821 -0.00016453
1705548740.856363 0.03146670 -0.02583045 0.01286312 0.00007592 -0.00236383 -0.00015452
1705548740.955365 0.03013195 -0.02787011 0.01395837 0.00005503 -0.00234323 -0.00011186
1705548741.057367 0.03056275 -0.02681215 0.01368221 0.00005497 -0.00238192 -0.00014428
1705548741.156369 0.03092741 -0.02577437 0.01326100 0.00005363 -0.00240701 -0.00014013
1705548741.255371 0.03096045 -0.02501812 0.01284329 0.00004655 -0.00242006 -0.00013248
1705548741.357373 0.03104916 -0.02431737 0.01223504 0.00003851 -0.00241448 -0.00013549
1705548741.456375 0.03100993 -0.02423197 0.01173123 0.00002556 -0.00245684 -0.00011671
1705548741.555377 0.03099859 -0.02378972 0.01178693 0.00001750 -0.00247743 -0.00010966
1705548741.657380 0.03078633 -0.02354563 0.01168758 0.00002446 -0.00247610 -0.00010992
1705548741.756382 0.03072224 -0.02332612 0.01162370 0.00002176 -0.00248518 -0.00010494
1705548741.855384 0.03077074 -0.02449628 0.01343676 -0.00000022 -0.00248341 -0.00008275
1705548741.957386 0.03062762 -0.02305803 0.01242131 -0.00000572 -0.00258923 -0.00010481
1705548742.056388 0.03065307 -0.02264367 0.01132574 -0.00004254 -0.00255516 -0.00010769
1705548742.155390 0.03059691 -0.02264756 0.01087372 -0.00003548 -0.00253803 -0.00009881
1705548742.257392 0.03036154 -0.02264696 0.01088881 -0.00003599 -0.00255759 -0.00012119
1705548742.356395 0.03066858 -0.02233626 0.01096569 -0.00005136 -0.00253980 -0.00010906
1705548742.455397 0.03094161 -0.02204577 0.01134296 -0.00007326 -0.00253057 -0.00009666
1705548742.557399 0.03099553 -0.02179433 0.01172537 -0.00007913 -0.00252316 -0.00011393
1705548742.656401 0.03131130 -0.02137166 0.01216128 -0.00008269 -0.00253403 -0.00010011
1705548742.755403 0.03146680 -0.02099681 0.01252602 -0.00009145 -0.00253356 -0.00009504
1705548742.857405 0.03155927 -0.02075688 0.01283806 -0.00009670 -0.00252092 -0.00011446
1705548742.956407 0.03162623 -0.02040699 0.01300047 -0.00010342 -0.00252768 -0.00011410
1705548743.055409 0.03159391 -0.02018963 0.01311786 -0.00011281 -0.00252846 -0.00011100
1705548743.157412 0.03165040 -0.02032472 0.01307259 -0.00011889 -0.00251715 -0.00012243
1705548743.256414 0.03177518 -0.02051743 0.01334451 -0.00012102 -0.00251245 -0.00010699
1705548743.355416 0.03182658 -0.02074983 0.01348494 -0.00012969 -0.00250458 -0.00009579
1705548743.457418 0.03203931 -0.02096082 0.01351096 -0.00013227 -0.00249361 -0.00010136
1705548743.556420 0.03217641 -0.02087354 0.01357689 -0.00013357 -0.00249161 -0.00009331
1705548743.655422 0.03208405 -0.02088996 0.01362787 -0.00013469 -0.00248527 -0.00008921
1705548743.757424 0.03212569 -0.02111024 0.01362226 -0.00013862 -0.00247622 -0.00009363
1705548743.856426 0.03213734 -0.02127842 0.01350923 -0.00014691 -0.00247816 -0.00008492
1705548743.955429 0.03188442 -0.02124866 0.01347196 -0.00014409 -0.00247432 -0.00007782
1705548744.057431 0.03160921 -0.02094434 0.01337705 -0.00013721 -0.00246968 -0.00008253
1705548744.156433 0.03148684 -0.02058645 0.01340371 -0.00013061 -0.00246594 -0.00008086
1705548744.255435 0.03113282 -0.02016331 0.01344297 -0.00013109 -0.00245880 -0.00007879
1705548744.357437 0.03090165 -0.01984146 0.01345646 -0.00012497 -0.00244666 -0.00008496
1705548744.456439 0.03061941 -0.01953634 0.01349036 -0.00011942 -0.00243775 -0.00008257
1705548744.555441 0.03004767 -0.01913317 0.01346001 -0.00011228 -0.00242786 -0.00007784
1705548744.657444 0.02946159 -0.01861568 0.01322230 -0.00010536 -0.00242650 -0.00008765
1705548744.756446 0.02894829 -0.01813808 0.01287389 -0.00009781 -0.00242027 -0.00009605
1705548744.855448 0.02830172 -0.01777601 0.01255833 -0.00009743 -0.00241746 -0.00010226
1705548744.957450 0.02800824 -0.01749386 0.01231893 -0.00009581 -0.00241654 -0.00011399
1705548745.056452 0.02773867 -0.01730570 0.01214109 -0.00009146 -0.00241137 -0.00011806
1705548745.155454 0.02730796 -0.01748864 0.01224089 -0.00008558 -0.00239880 -0.00012129
1705548745.257456 0.02703872 -0.01794501 0.01233746 -0.00008173 -0.00239141 -0.00012586
1705548745.356458 0.02664631 -0.01813835 0.01233698 -0.00007870 -0.00238216 -0.00012292
1705548745.455461 0.02616802 -0.01810193 0.01232485 -0.00007730 -0.00237456 -0.00012273
1705548745.557463 0.02604503 -0.01810816 0.01233190 -0.00007392 -0.00236742 -0.00013070
1705548745.656465 0.02609191 -0.01814258 0.01251902 -0.00007024 -0.00235562 -0.00012895
1705548745.755467 0.02610991 -0.01812709 0.01260033 -0.00006799 -0.00234533 -0.00013162
1705548745.857469 0.02642082 -0.01837326 0.01276899 -0.00006384 -0.00233512 -0.00013419
1705548745.956471 0.02676464 -0.01862830 0.01286481 -0.00007017 -0.00232792 -0.00013235
1705548746.055473 0.02698165 -0.01904120 0.01280967 -0.00007573 -0.00232202 -0.00013029
1705548746.157475 0.02726551 -0.01957836 0.01266944 -0.00008211 -0.00231632 -0.00013066
1705548746.256478 0.02728811 -0.01979285 0.01253028 -0.00008474 -0.00231101 -0.00012982
1705548746.355480 0.02736729 -0.02002681 0.01235822 -0.00008617 -0.00230403 -0.00013276
1705548746.457482 0.02765438 -0.01989937 0.01205841 -0.00008866 -0.00230344 -0.00013716
1705548746.556484 0.02756741 -0.01992103 0.01235790 -0.00008485 -0.00228955 -0.00013991
1705548746.655486 0.02726946 -0.01996722 0.01261575 -0.00008611 -0.00228008 -0.00013854
1705548746.757488 0.02700425 -0.01990203 0.01283481 -0.00007862 -0.00228327 -0.00014610
1705548746.856491 0.02671699 -0.01984397 0.01280528 -0.00007539 -0.00229115 -0.00014693
1705548746.955492 0.02644278 -0.01975741 0.01252124 -0.00007373 -0.00230031 -0.00014690
1705548747.057495 0.02645615 -0.01969867 0.01240242 -0.00007257 -0.00232056 -0.00014625
1705548747.156497 0.02614258 -0.01977044 0.01228092 -0.00007061 -0.00233898 -0.00014722
1705548747.255499 0.02574568 -0.01994736 0.01203061 -0.00007343 -0.00234528 -0.00014241
1705548747.357501 0.02542431 -0.02002102 0.01162677 -0.00007584 -0.00233231 -0.00014110
1705548747.456503 0.02510967 -0.02000608 0.01164687 -0.00006659 -0.00235079 -0.00013196
1705548747.555506 0.02491537 -0.01977294 0.01173136 -0.00006725 -0.00235279 -0.00012997
1705548747.657508 0.02476443 -0.01955388 0.01172524 -0.00005810 -0.00236109 -0.00010341
1705548747.756510 0.02463460 -0.01939034 0.01148395 -0.00006784 -0.00235056 -0.00011001
1705548747.855512 0.02462859 -0.01936709 0.01143338 -0.00007143 -0.00234389 -0.00010896
1705548747.957514 0.02453617 -0.01920792 0.01139198 -0.00007961 -0.00234245 -0.00008499
1705548748.056516 0.02443947 -0.01922670 0.01151178 -0.00007179 -0.00233686 -0.00009577
1705548748.155518 0.02405873 -0.01946525 0.01162496 -0.00006404 -0.00232891 -0.00010025
1705548748.257520 0.02364736 -0.01964719 0.01162496 -0.00006855 -0.00232197 -0.00008362
1705548748.356523 0.02320295 -0.01992272 0.01163949 -0.00005806 -0.00231755 -0.00009548
1705548748.455525 0.02292358 -0.02017442 0.01151277 -0.00004683 -0.00231319 -0.00010530
1705548748.557527 0.02298507 -0.02025990 0.01147315 -0.00004778 -0.00230766 -0.00009400
1705548748.656529 0.02296530 -0.02041706 0.01140208 -0.00004337 -0.00230628 -0.00011017
1705548748.755531 0.02283327 -0.02056672 0.01131678 -0.00003830 -0.00230473 -0.00011357
1705548748.857533 0.02280649 -0.02061310 0.01107483 -0.00003980 -0.00229654 -0.00010248
1705548748.956535 0.02271931 -0.02070053 0.01113877 -0.00004453 -0.00229786 -0.00011292
1705548749.055537 0.02265064 -0.02079116 0.01129434 -0.00003992 -0.00229285 -0.00011723
1705548749.157540 0.02279432 -0.02088264 0.01127058 -0.00003776 -0.00228808 -0.00010924
1705548749.256542 0.02300447 -0.02078964 0.01147063 -0.00003922 -0.00228813 -0.00011619
1705548749.355544 0.02315236 -0.02060390 0.01173351 -0.00004163 -0.00228759 -0.00012079
1705548749.457546 0.02351965 -0.02046550 0.01183617 -0.00004130 -0.00228685 -0.00011301
1705548749.556548 0.02385999 -0.02040546 0.01188677 -0.00003807 -0.00228773 -0.00011914
1705548749.655550 0.02415879 -0.02027238 0.01205744 -0.00003716 -0.00228562 -0.00012138
1705548749.757552 0.02472542 -0.02024957 0.01215160 -0.00003509 -0.00228107 -0.00011755
1705548749.856555 0.02522542 -0.02019599 0.01225474 -0.00003517 -0.00227738 -0.00012200
1705548749.955557 0.02548899 -0.02012548 0.01224167 -0.00003625 -0.00227756 -0.00012299
1705548750.057559 0.02582548 -0.02008239 0.01214323 -0.00002970 -0.00227693 -0.00012212
1705548750.156561 0.02620835 -0.01996952 0.01204670 -0.00002261 -0.00227674 -0.00013038
1705548750.255563 0.02648963 -0.01984130 0.01209657 -0.00001694 -0.00227592 -0.00013358
1705548750.357565 0.02687321 -0.01976053 0.01215265 -0.00001766 -0.00227583 -0.00013314
1705548750.456567 0.02709517 -0.01969862 0.01221715 -0.00001534 -0.00227758 -0.00013979
1705548750.555569 0.02696144 -0.01954792 0.01245152 -0.00001241 -0.00227948 -0.00014356
1705548750.657572 0.02694817 -0.01954594 0.01262605 -0.00000400 -0.00228674 -0.00014623
1705548750.756574 0.02648233 -0.01954467 0.01294521 0.00000086 -0.00230191 -0.00014896
1705548750.855576 0.02623278 -0.01951212 0.01297455 0.00000654 -0.00231022 -0.00015570
1705548750.957578 0.02590372 -0.01951084 0.01279476 0.00001001 -0.00229020 -0.00016045
1705548751.056580 0.02547122 -0.01946191 0.01289568 0.00001053 -0.00231087 -0.00016642
1705548751.155582 0.02486889 -0.01918512 0.01306367 0.00000696 -0.00232099 -0.00017011
1705548751.257584 0.02444321 -0.01895067 0.01304737 -0.00000052 -0.00229454 -0.00017544
1705548751.356586 0.02408979 -0.01875777 0.01318101 -0.00000943 -0.00230209 -0.00018304
1705548751.455589 0.02397657 -0.01854586 0.01298337 -0.00000983 -0.00231206 -0.00018400
1705548751.557591 0.02406679 -0.01835403 0.01315128 -0.00001071 -0.00240572 -0.00017917
1705548751.656593 0.02408582 -0.01832694 0.01234264 -0.00003056 -0.00233273 -0.00017411
1705548751.755595 0.02405590 -0.01821421 0.01102834 -0.00001027 -0.00231843 -0.00017710
1705548751.857597 0.02390642 -0.01848042 0.01052046 0.00000340 -0.00231462 -0.00018563
1705548751.956599 0.02397615 -0.01875329 0.01056407 -0.00000212 -0.00231303 -0.00018172
1705548752.055601 0.02407066 -0.01898556 0.01068736 -0.00000912 -0.00231186 -0.00017709
1705548752.157604 0.02410428 -0.01923106 0.01070676 -0.00001038 -0.00230317 -0.00018060
1705548752.256606 0.02405042 -0.01940914 0.01081074 -0.00001882 -0.00230485 -0.00017135
1705548752.355608 0.02398087 -0.01952433 0.01089486 -0.00002498 -0.00230420 -0.00016566
1705548752.457610 0.02391511 -0.01962046 0.01069619 -0.00003167 -0.00229901 -0.00016774
1705548752.556612 0.02378780 -0.01946071 0.01063328 -0.00003173 -0.00230469 -0.00016383
1705548752.655614 0.02354351 -0.01904629 0.01069929 -0.00002680 -0.00230479 -0.00016700
1705548752.757616 0.02352205 -0.01873747 0.01062088 -0.00001968 -0.00229887 -0.00018013
1705548752.856618 0.02359005 -0.01836114 0.01063703 -0.00002405 -0.00230024 -0.00018226
1705548752.955621 0.02376126 -0.01799070 0.01063794 -0.00003040 -0.00229962 -0.00018830
1705548753.057623 0.02389580 -0.01780245 0.01049619 -0.00003740 -0.00229838 -0.00019621
1705548753.156625 0.02380118 -0.01770841 0.01034779 -0.00003801 -0.00230351 -0.00019605
1705548753.255627 0.02366845 -0.01778520 0.01020423 -0.00003384 -0.00230330 -0.00019770
1705548753.357629 0.02374214 -0.01794895 0.01020704 -0.00003208 -0.00229437 -0.00020008
1705548753.456631 0.02355710 -0.01804075 0.01039104 -0.00003240 -0.00229325 -0.00019596
1705548753.555633 0.02324460 -0.01802429 0.01061585 -0.00003612 -0.00228724 -0.00019713
1705548753.657636 0.02282668 -0.01816776 0.01090655 -0.00004450 -0.00227819 -0.00019609
1705548753.756638 0.02249450 -0.01812624 0.01102125 -0.00004423 -0.00227734 -0.00019069
1705548753.855640 0.02214199 -0.01800557 0.01112215 -0.00003997 -0.00226810 -0.00018942
1705548753.957642 0.02181425 -0.01795874 0.01133019 -0.00004351 -0.00225401 -0.00019031
1705548754.056644 0.02149484 -0.01784625 0.01154230 -0.00004040 -0.00224861 -0.00018907
1705548754.155646 0.02124349 -0.01764539 0.01167643 -0.00004131 -0.00224139 -0.00018978
1705548754.257648 0.02104308 -0.01736261 0.01188514 -0.00004185 -0.00223146 -0.00019418
1705548754.356651 0.02079668 -0.01738966 0.01218431 -0.00004106 -0.00222711 -0.00019185
1705548754.455653 0.02063757 -0.01730412 0.01227722 -0.00003620 -0.00222243 -0.00019326
1705548754.557655 0.02061821 -0.01744652 0.01237775 -0.00003618 -0.00221355 -0.00019259
1705548754.656657 0.02030352 -0.01742580 0.01231787 -0.00003398 -0.00221390 -0.00018553
1705548754.755659 0.01995986 -0.01731058 0.01209365 -0.00003139 -0.00222331 -0.00018466
1705548754.857661 0.01955158 -0.01708240 0.01178061 -0.00003398 -0.00223588 -0.00018005
1705548754.956663 0.01922736 -0.01683536 0.01163566 -0.00003553 -0.00225793 -0.00017728
1705548755.055665 0.01889242 -0.01648347 0.01141570 -0.00003700 -0.00227136 -0.00017332
1705548755.157668 0.01854093 -0.01616570 0.01116745 -0.00003435 -0.00224706 -0.00017404
1705548755.256670 0.01826871 -0.01582978 0.01131409 -0.00004212 -0.00228392 -0.00017404
1705548755.355672 0.01805369 -0.01548328 0.01140390 -0.00004146 -0.00229321 -0.00017260
1705548755.457674 0.01784136 -0.01506035 0.01080975 -0.00013867 -0.00223010 -0.00017007
1705548755.556676 0.01778564 -0.01493959 0.01096559 -0.00011569 -0.00227006 -0.00019589
1705548755.655678 0.01761451 -0.01499682 0.01115476 -0.00009061 -0.00228660 -0.00019930
1705548755.757680 0.01746915 -0.01520727 0.01142278 -0.00006904 -0.00229418 -0.00022098
1705548755.856683 0.01751086 -0.01535436 0.01140082 -0.00007019 -0.00229291 -0.00020486
1705548755.955685 0.01754369 -0.01550469 0.01137761 -0.00006850 -0.00228876 -0.00019538
1705548756.057687 0.01750184 -0.01568657 0.01124907 -0.00006206 -0.00228852 -0.00022519
1705548756.156689 0.01770113 -0.01561017 0.01105595 -0.00006881 -0.00228357 -0.00019741
1705548756.255691 0.01791407 -0.01558809 0.01118982 -0.00006942 -0.00227217 -0.00019062
1705548756.357693 0.01794812 -0.01555549 0.01145321 -0.00005829 -0.00226093 -0.00022010
1705548756.456695 0.01827579 -0.01534653 0.01153649 -0.00005297 -0.00225276 -0.00019770
1705548756.555697 0.01846753 -0.01515207 0.01166567 -0.00005977 -0.00224088 -0.00019393
1705548756.657700 0.01851842 -0.01506323 0.01176862 -0.00005189 -0.00223052 -0.00022200
1705548756.756702 0.01850026 -0.01493924 0.01190174 -0.00005397 -0.00222461 -0.00020305
1705548756.855704 0.01835186 -0.01475744 0.01190404 -0.00005533 -0.00221779 -0.00019360
1705548756.957706 0.01811508 -0.01471274 0.01181871 -0.00005541 -0.00220526 -0.00021582
1705548757.056708 0.01781976 -0.01455530 0.01156618 -0.00005580 -0.00220556 -0.00020185
1705548757.155710 0.01746202 -0.01427931 0.01102313 -0.00005566 -0.00220405 -0.00020081
1705548757.257712 0.01723371 -0.01422292 0.01056096 -0.00004895 -0.00219971 -0.00022677
1705548757.356714 0.01701244 -0.01418811 0.01037463 -0.00004165 -0.00219989 -0.00022083
1705548757.455717 0.01676840 -0.01433976 0.01033467 -0.00003878 -0.00219611 -0.00021999
1705548757.557719 0.01665358 -0.01458896 0.01033531 -0.00003202 -0.00219106 -0.00024081
1705548757.656721 0.01643864 -0.01490376 0.01060813 -0.00001873 -0.00218426 -0.00022876
1705548757.755723 0.01627400 -0.01513429 0.01063806 -0.00000998 -0.00217666 -0.00021994
1705548757.857725 0.01622159 -0.01533539 0.01074439 -0.00000422 -0.00216577 -0.00023310
1705548757.956727 0.01605561 -0.01538676 0.01075763 -0.00000297 -0.00215865 -0.00022554
1705548758.055729 0.01582961 -0.01544182 0.01058194 -0.00000380 -0.00215360 -0.00022351
1705548758.157732 0.01567558 -0.01554151 0.01059338 0.00000374 -0.00214991 -0.00024184
1705548758.256734 0.01534719 -0.01561041 0.01083875 0.00000684 -0.00214395 -0.00023487
1705548758.355736 0.01517796 -0.01574933 0.01110131 0.00000020 -0.00214072 -0.00022809
1705548758.454738 0.01517023 -0.01609637 0.01123704 -0.00000417 -0.00213728 -0.00021966
1705548758.556740 0.01543473 -0.01651281 0.01157869 -0.00001526 -0.00214445 -0.00020677
1705548758.655742 0.01557407 -0.01689235 0.01184023 -0.00002611 -0.00213542 -0.00018807
1705548758.757744 0.01575053 -0.01723526 0.01185761 -0.00003002 -0.00210048 -0.00017912
1705548758.856746 0.01598659 -0.01737108 0.01220274 -0.00003627 -0.00210106 -0.00015832
1705548758.955749 0.01619410 -0.01777424 0.01197430 -0.00003831 -0.00209851 -0.00013720
1705548759.057751 0.01628858 -0.01809733 0.01151855 -0.00004974 -0.00208326 -0.00013062
1705548759.156753 0.01646299 -0.01815376 0.01130641 -0.00005618 -0.00208323 -0.00012567
1705548759.255755 0.01659470 -0.01817366 0.01112434 -0.00005511 -0.00207939 -0.00011135
1705548759.357757 0.01720556 -0.01797223 0.01086083 -0.00007297 -0.00213189 -0.00009214
1705548759.456759 0.01695544 -0.01709213 0.00763533 -0.00004393 -0.00213301 -0.00008202
1705548759.555761 0.01607160 -0.01589225 0.00431126 -0.00003671 -0.00213213 -0.00006672
1705548759.654763 0.01470284 -0.01409574 0.00129169 -0.00002307 -0.00215810 -0.00007402
1705548759.756766 0.01440097 -0.01190502 -0.00064160 -0.00002462 -0.00219183 -0.00010638
1705548759.855768 0.01387710 -0.01077387 -0.00062186 -0.00003628 -0.00219370 -0.00010417
1705548759.957770 0.01449415 -0.01044044 -0.00086596 -0.00005358 -0.00220786 -0.00011248
1705548760.056772 0.01628822 -0.01143743 -0.00101058 -0.00005996 -0.00223210 -0.00011163
1705548760.155774 0.01775354 -0.01237319 -0.00100075 -0.00005152 -0.00224076 -0.00011694
1705548760.257776 0.01966042 -0.01342147 -0.00123631 -0.00005776 -0.00224002 -0.00012505
1705548760.356778 0.02209363 -0.01501626 -0.00138330 -0.00007856 -0.00226038 -0.00013583
1705548760.455781 0.02328215 -0.01663260 -0.00160106 -0.00007504 -0.00224138 -0.00013899
1705548760.557783 0.02373149 -0.01690349 -0.00170215 -0.00007768 -0.00223489 -0.00014332
1705548760.656785 0.02405989 -0.01711922 -0.00202997 -0.00007984 -0.00223149 -0.00015215
1705548760.755787 0.02442167 -0.01729371 -0.00242020 -0.00007953 -0.00222552 -0.00015497
1705548760.857789 0.02481096 -0.01754490 -0.00300355 -0.00008151 -0.00221595 -0.00015694
1705548760.956791 0.02515805 -0.01782309 -0.00376124 -0.00008610 -0.00221371 -0.00015450
1705548761.055794 0.02547284 -0.01804777 -0.00453703 -0.00009140 -0.00221002 -0.00015560
1705548761.157796 0.02598916 -0.01822423 -0.00569495 -0.00009267 -0.00219964 -0.00015915
1705548761.256798 0.02616257 -0.01839381 -0.00651219 -0.00009326 -0.00219283 -0.00015878
1705548761.355800 0.02661333 -0.01877694 -0.00770661 -0.00008749 -0.00218935 -0.00015974
1705548761.505803 0.02699684 -0.01914865 -0.00913181 -0.00007860 -0.00218598 -0.00015869
1705548761.604805 0.02703682 -0.01934002 -0.00975713 -0.00007806 -0.00218223 -0.00016019
1705548761.706807 0.02721742 -0.01943990 -0.01041677 -0.00008249 -0.00218176 -0.00015804
1705548761.805809 0.02749064 -0.01960271 -0.01109402 -0.00007866 -0.00218384 -0.00015757
1705548761.904812 0.02749254 -0.01996810 -0.01145261 -0.00007685 -0.00219651 -0.00015774
1705548762.006814 0.02739221 -0.02028717 -0.01156200 -0.00007022 -0.00222784 -0.00015531
1705548762.105816 0.02730834 -0.02050832 -0.01151087 -0.00006577 -0.00223884 -0.00015610
1705548762.207818 0.02731377 -0.02047633 -0.01179767 -0.00006520 -0.00221585 -0.00016210
1705548762.306820 0.02739674 -0.02048163 -0.01165360 -0.00005587 -0.00223863 -0.00017304
1705548762.405822 0.02758613 -0.02064589 -0.01150306 -0.00004966 -0.00223996 -0.00018073
1705548762.507824 0.02793677 -0.02071714 -0.01171607 -0.00005312 -0.00222740 -0.00017799
1705548762.606827 0.02820508 -0.02072549 -0.01171557 -0.00005054 -0.00223918 -0.00017625
1705548762.705829 0.02840341 -0.02068744 -0.01166097 -0.00005324 -0.00224501 -0.00017399
1705548762.807831 0.03009839 -0.02400661 -0.01099243 -0.00006589 -0.00231062 -0.00011083
1705548762.906833 0.02980931 -0.02223559 -0.01126931 -0.00007348 -0.00226198 -0.00016860
1705548763.005835 0.02975608 -0.02114107 -0.01123919 -0.00007401 -0.00223726 -0.00017694
1705548763.104837 0.02995718 -0.02069062 -0.01101841 -0.00007209 -0.00222974 -0.00017679
1705548763.206839 0.03049237 -0.02015413 -0.01074736 -0.00007275 -0.00222786 -0.00017727
1705548763.305841 0.03110804 -0.01968396 -0.01048982 -0.00007771 -0.00222333 -0.00017594
1705548763.404844 0.03137498 -0.01961184 -0.01030973 -0.00008456 -0.00221803 -0.00017500
1705548763.506846 0.03171754 -0.01956551 -0.01010885 -0.00009612 -0.00221018 -0.00017198
1705548763.605848 0.03199257 -0.01968215 -0.01002914 -0.00010024 -0.00220695 -0.00016984
1705548763.707850 0.03222648 -0.01980811 -0.01012827 -0.00011104 -0.00219584 -0.00017185
1705548763.806852 0.03240057 -0.02007268 -0.01011572 -0.00012161 -0.00220087 -0.00016456
1705548763.905854 0.03259795 -0.02030511 -0.01013444 -0.00013107 -0.00219925 -0.00015879
1705548764.004856 0.03265929 -0.02037668 -0.01021381 -0.00013582 -0.00219778 -0.00015926
1705548764.106858 0.03275658 -0.02019159 -0.01009661 -0.00013977 -0.00219596 -0.00016165
1705548764.205861 0.03263040 -0.01975934 -0.01004747 -0.00013691 -0.00219406 -0.00016599
1705548764.307863 0.03265406 -0.01938440 -0.00996144 -0.00013756 -0.00218489 -0.00016852
1705548764.406865 0.03260558 -0.01918829 -0.00992522 -0.00013789 -0.00218768 -0.00016440
1705548764.505867 0.03253410 -0.01907006 -0.00990230 -0.00013966 -0.00218290 -0.00016405
1705548764.607869 0.03247085 -0.01906931 -0.01001966 -0.00014261 -0.00217492 -0.00016903
1705548764.706871 0.03234726 -0.01919445 -0.01012671 -0.00013472 -0.00217446 -0.00016771
1705548764.805873 0.03091106 -0.02003547 -0.01138120 -0.00012143 -0.00217521 -0.00016782
1705548764.904876 0.03114322 -0.02010464 -0.01062340 -0.00012110 -0.00215957 -0.00016748
1705548765.006878 0.03124817 -0.02007820 -0.01041437 -0.00012149 -0.00215226 -0.00016776
1705548765.105880 0.03125037 -0.02000511 -0.01032435 -0.00011640 -0.00214100 -0.00016928
1705548765.207882 0.03135251 -0.01985201 -0.01058215 -0.00011510 -0.00213337 -0.00017301
1705548765.306884 0.03130601 -0.01961018 -0.01070670 -0.00011253 -0.00213435 -0.00016981
1705548765.405886 0.03124927 -0.01949736 -0.01067881 -0.00011006 -0.00212999 -0.00016963
1705548765.507888 0.03132568 -0.01933365 -0.01095101 -0.00010367 -0.00212564 -0.00017115
1705548765.606890 0.03147392 -0.01931987 -0.01097755 -0.00010542 -0.00212591 -0.00016834
1705548765.705893 0.03172279 -0.01925261 -0.01123930 -0.00010747 -0.00212482 -0.00016746
1705548765.807895 0.03165918 -0.01916151 -0.01139176 -0.00010497 -0.00211920 -0.00017096
1705548765.906897 0.03147626 -0.01925775 -0.01155140 -0.00010342 -0.00211575 -0.00017016
1705548766.005899 0.03145241 -0.01942461 -0.01183825 -0.00010271 -0.00211324 -0.00016940
1705548766.107901 0.03142631 -0.01928280 -0.01196852 -0.00010370 -0.00210695 -0.00017201
1705548766.206903 0.03137257 -0.01924676 -0.01189774 -0.00010433 -0.00210232 -0.00017182
1705548766.305905 0.03119859 -0.01928992 -0.01186622 -0.00010301 -0.00209901 -0.00017125
1705548766.404907 0.03114573 -0.01932123 -0.01175754 -0.00009955 -0.00209210 -0.00017059
1705548766.506910 0.03109517 -0.01944844 -0.01147154 -0.00009938 -0.00208384 -0.00016978
1705548766.605912 0.03099815 -0.01955851 -0.01123669 -0.00009865 -0.00207661 -0.00017002
1705548766.704914 0.03074924 -0.01976474 -0.01136774 -0.00010156 -0.00207262 -0.00016789
1705548766.806916 0.03065912 -0.02012092 -0.01105303 -0.00010354 -0.00206524 -0.00016622
1705548766.905918 0.03062073 -0.02029307 -0.01083156 -0.00010150 -0.00205939 -0.00016575
1705548767.007920 0.03069234 -0.02032664 -0.01083853 -0.00010020 -0.00205342 -0.00016731
1705548767.106922 0.03059920 -0.02039809 -0.01062726 -0.00010671 -0.00205102 -0.00016821
1705548767.205925 0.03046219 -0.02053081 -0.01061333 -0.00010751 -0.00204559 -0.00016906
1705548767.307927 0.03047938 -0.02063936 -0.01065745 -0.00010825 -0.00203935 -0.00016908
1705548767.406929 0.03063098 -0.02064844 -0.01067596 -0.00010988 -0.00203384 -0.00016943
1705548767.505931 0.03076989 -0.02064030 -0.01068840 -0.00011134 -0.00202867 -0.00016965
1705548767.604933 0.03055516 -0.02063315 -0.01077364 -0.00011349 -0.00202279 -0.00017217
1705548767.706935 0.03076367 -0.02074175 -0.01109893 -0.00011487 -0.00202003 -0.00017238
1705548767.805937 0.03071064 -0.02079464 -0.01124943 -0.00011429 -0.00201814 -0.00017204
1705548767.907940 0.03072663 -0.02080870 -0.01150920 -0.00011444 -0.00201792 -0.00017348
1705548768.006942 0.03064400 -0.02086455 -0.01172529 -0.00011551 -0.00201788 -0.00017451
1705548768.105944 0.02969893 -0.02053410 -0.01073441 -0.00011599 -0.00200812 -0.00018207
1705548768.204946 0.03031430 -0.02107679 -0.01196890 -0.00012169 -0.00201610 -0.00017605
1705548768.306948 0.03035413 -0.02122466 -0.01198795 -0.00012058 -0.00203223 -0.00017584
1705548768.405950 0.03042083 -0.02128498 -0.01199600 -0.00012158 -0.00204332 -0.00017619
1705548768.504952 0.03021614 -0.02143489 -0.01193066 -0.00012151 -0.00204809 -0.00017754
1705548768.606955 0.03043961 -0.02155443 -0.01194474 -0.00012570 -0.00207472 -0.00017445
1705548768.705957 0.03058483 -0.02169605 -0.01187647 -0.00012667 -0.00207704 -0.00017489
1705548768.804959 0.03062056 -0.02171520 -0.01162296 -0.00012477 -0.00207751 -0.00017616
1705548768.906961 0.03072592 -0.02163811 -0.01129453 -0.00011836 -0.00207741 -0.00017708
1705548769.005963 0.03072551 -0.02146690 -0.01111298 -0.00011168 -0.00208392 -0.00017975
1705548769.104965 0.03066055 -0.02130533 -0.01100715 -0.00010405 -0.00209096 -0.00018271
1705548769.206967 0.03054220 -0.02120935 -0.01097857 -0.00009861 -0.00209283 -0.00018435
1705548769.305969 0.03040608 -0.02104976 -0.01072318 -0.00008990 -0.00209112 -0.00018218
1705548769.404972 0.03022722 -0.02120581 -0.01048291 -0.00008630 -0.00208685 -0.00017762
1705548769.506974 0.03003520 -0.02136875 -0.01024999 -0.00008014 -0.00208371 -0.00017591
1705548769.605976 0.02983693 -0.02141248 -0.01010014 -0.00007711 -0.00207900 -0.00017327
1705548769.704978 0.02958438 -0.02142846 -0.01013447 -0.00008090 -0.00207374 -0.00017144
1705548769.806980 0.02934289 -0.02142565 -0.01028829 -0.00008277 -0.00207051 -0.00016855
1705548769.905982 0.02944366 -0.02124695 -0.01045457 -0.00008687 -0.00206859 -0.00016433
1705548770.007984 0.02970464 -0.02102592 -0.01053028 -0.00008098 -0.00206543 -0.00019009
1705548770.106987 0.03014161 -0.02048870 -0.01080024 -0.00008495 -0.00206421 -0.00016975
1705548770.205989 0.03058623 -0.01982659 -0.01112835 -0.00008639 -0.00206296 -0.00016606
1705548770.304991 0.03098816 -0.01918739 -0.01142648 -0.00008963 -0.00206070 -0.00016616
1705548770.406993 0.03135527 -0.01859480 -0.01172666 -0.00009132 -0.00206009 -0.00016770
1705548770.505995 0.03181189 -0.01802713 -0.01203064 -0.00009324 -0.00206027 -0.00016782
1705548770.604997 0.03241315 -0.01717905 -0.01226760 -0.00009205 -0.00205889 -0.00017048
1705548770.706999 0.03252108 -0.01682562 -0.01237806 -0.00009349 -0.00205780 -0.00017032
1705548770.806001 0.03240960 -0.01652707 -0.01236727 -0.00009216 -0.00205489 -0.00017304
1705548770.908004 0.03268101 -0.01573581 -0.01195837 -0.00008629 -0.00204417 -0.00019746
1705548771.007006 0.03289511 -0.01479300 -0.01240215 -0.00008491 -0.00204479 -0.00018775
1705548771.106008 0.03346832 -0.01307907 -0.01220119 -0.00008441 -0.00203944 -0.00019022
1705548771.208010 0.03316415 -0.01361823 -0.01190974 -0.00008401 -0.00203341 -0.00019989
1705548771.307012 0.03307354 -0.01254235 -0.01272180 -0.00007872 -0.00203537 -0.00019457
1705548771.406014 0.03249618 -0.01365779 -0.01325102 -0.00007888 -0.00203597 -0.00018129
1705548771.505016 0.03252111 -0.01219386 -0.01367892 -0.00006992 -0.00203281 -0.00019281
1705548771.607018 0.03213674 -0.01103334 -0.01203988 -0.00006895 -0.00201662 -0.00019954
1705548771.706021 0.03222971 -0.01254952 -0.01382408 -0.00007915 -0.00202900 -0.00018611
1705548771.805023 0.03266149 -0.01254764 -0.01608440 -0.00008039 -0.00204090 -0.00018633
1705548771.907025 0.03267830 -0.01480138 -0.01511159 -0.00007737 -0.00203164 -0.00017323
1705548772.006027 0.03270222 -0.01691553 -0.01336544 -0.00007321 -0.00201703 -0.00016227
1705548772.105029 0.03293709 -0.01836768 -0.01275680 -0.00007801 -0.00201158 -0.00015708
1705548772.207031 0.03304236 -0.01822319 -0.01201141 -0.00007965 -0.00201547 -0.00015891
1705548772.306033 0.03322281 -0.01812370 -0.01163812 -0.00008355 -0.00202103 -0.00015713
1705548772.405035 0.03334688 -0.01781773 -0.01154129 -0.00008724 -0.00202594 -0.00015350
1705548772.507038 0.03348028 -0.01756117 -0.01151817 -0.00009306 -0.00204576 -0.00015187
1705548772.606040 0.03347317 -0.01737607 -0.01153187 -0.00009480 -0.00205436 -0.00015081
1705548772.708042 0.03341783 -0.01726704 -0.01168753 -0.00009498 -0.00203715 -0.00015257
1705548772.807044 0.03316440 -0.02134527 -0.01165358 -0.00008549 -0.00204494 -0.00012295
1705548772.906046 0.03288544 -0.01864935 -0.01169825 -0.00009305 -0.00205710 -0.00014204
1705548773.005048 0.03236560 -0.01725740 -0.01169082 -0.00009508 -0.00206089 -0.00014180
1705548773.107050 0.03215185 -0.01672427 -0.01159805 -0.00009826 -0.00206815 -0.00014074
1705548773.206053 0.03194453 -0.01638001 -0.01155963 -0.00008546 -0.00205819 -0.00014908
1705548773.308055 0.03182326 -0.01628137 -0.01153767 -0.00003543 -0.00203169 -0.00015939
1705548773.407057 0.03178209 -0.01626581 -0.01154332 -0.00003061 -0.00204333 -0.00013329
1705548773.506059 0.03178922 -0.01622143 -0.01147021 -0.00003578 -0.00204311 -0.00013077
1705548773.605061 0.03182519 -0.01633623 -0.01142189 -0.00002363 -0.00202803 -0.00013592
1705548773.707063 0.03184462 -0.01640519 -0.01132733 -0.00000699 -0.00201324 -0.00012529
1705548773.806065 0.03178406 -0.01653942 -0.01113087 -0.00000317 -0.00200388 -0.00011405
1705548773.908067 0.03170348 -0.01698879 -0.01085545 0.00001682 -0.00199325 -0.00009819
1705548774.007070 0.03225160 -0.01816544 -0.01064690 0.00001471 -0.00198117 -0.00009288
1705548774.106072 0.03236967 -0.01907449 -0.01010199 0.00001213 -0.00196942 -0.00008870
1705548774.205074 0.03231001 -0.01969301 -0.00964920 -0.00000155 -0.00198400 -0.00008295
1705548774.307076 0.03175744 -0.01999643 -0.00919772 -0.00000978 -0.00198966 -0.00008653
1705548774.406078 0.03056007 -0.01984386 -0.00902167 -0.00002141 -0.00199259 -0.00009054
1705548774.505080 0.02999833 -0.01922202 -0.00949394 -0.00002597 -0.00199064 -0.00008894
1705548774.607083 0.02992580 -0.01970726 -0.00973386 -0.00003569 -0.00198697 -0.00008188
1705548774.709085 0.03002217 -0.01925121 -0.01015174 -0.00003184 -0.00199198 -0.00006168
1705548774.808087 0.03063747 -0.01827175 -0.01060765 0.00000376 -0.00197667 -0.00006321
1705548774.907089 0.03105181 -0.01685238 -0.01122588 -0.00001802 -0.00199522 -0.00008428
1705548775.006091 0.03129458 -0.01603516 -0.01158644 -0.00003660 -0.00200553 -0.00008928
1705548775.108093 0.03159574 -0.01512791 -0.01213488 -0.00002397 -0.00200260 -0.00007366
1705548775.207095 0.03180598 -0.01453360 -0.01244538 -0.00002906 -0.00201133 -0.00008278
1705548775.306098 0.03208430 -0.01409358 -0.01257813 -0.00002982 -0.00201187 -0.00008489
1705548775.408100 0.03232240 -0.01365365 -0.01270284 -0.00003413 -0.00200829 -0.00006456
1705548775.507102 0.03272639 -0.01336851 -0.01278698 -0.00002893 -0.00201965 -0.00007578
1705548775.606104 0.03313667 -0.01317123 -0.01283312 -0.00001988 -0.00203644 -0.00007670
1705548775.705106 0.03340878 -0.01306248 -0.01288273 -0.00002389 -0.00203770 -0.00007261
1705548775.807108 0.03369209 -0.01301986 -0.01276546 -0.00002524 -0.00203591 -0.00006856
1705548775.906110 0.03353918 -0.01311768 -0.01280242 -0.00001966 -0.00202962 -0.00007418
1705548776.005112 0.03324381 -0.01337121 -0.01257355 -0.00001563 -0.00202121 -0.00007824
1705548776.107115 0.03292120 -0.01355429 -0.01247331 -0.00001065 -0.00201817 -0.00008152
1705548776.206117 0.03253534 -0.01376022 -0.01248906 -0.00001356 -0.00201489 -0.00008028
1705548776.305119 0.03230023 -0.01392304 -0.01239347 -0.00001109 -0.00202439 -0.00008040
1705548776.407121 0.03213177 -0.01413374 -0.01240676 -0.00001016 -0.00201962 -0.00007785
1705548776.506123 0.03206757 -0.01428588 -0.01236262 -0.00000160 -0.00202788 -0.00007841
1705548776.605125 0.03199008 -0.01442912 -0.01265431 -0.00000205 -0.00201873 -0.00007457
1705548776.707127 0.03172135 -0.01410051 -0.01223645 0.00001330 -0.00204314 -0.00006886
1705548776.806129 0.03136002 -0.01424943 -0.01249656 0.00001121 -0.00202015 -0.00007425
1705548776.905132 0.03118375 -0.01442174 -0.01255652 0.00000633 -0.00201856 -0.00006958
1705548777.007134 0.03095522 -0.01416454 -0.01231917 0.00000634 -0.00202538 -0.00005355
1705548777.106136 0.03067089 -0.01405387 -0.01227880 0.00000416 -0.00201864 -0.00006462
1705548777.205138 0.03042764 -0.01394026 -0.01219067 0.00000149 -0.00201517 -0.00006854
1705548777.307140 0.03026235 -0.01391076 -0.01206602 -0.00000137 -0.00200999 -0.00005894
1705548777.406142 0.02997342 -0.01404261 -0.01187067 -0.00000116 -0.00201133 -0.00006722
1705548777.505144 0.02992507 -0.01419288 -0.01176536 -0.00000413 -0.00200963 -0.00006891
1705548777.607147 0.02985825 -0.01431054 -0.01177184 -0.00000373 -0.00200716 -0.00005861
1705548777.706149 0.02981668 -0.01437437 -0.01183793 -0.00000229 -0.00200711 -0.00006367
1705548777.805151 0.02969307 -0.01453485 -0.01201898 0.00000468 -0.00201110 -0.00006474
1705548777.907153 0.03009705 -0.01445567 -0.01119705 0.00000327 -0.00207579 -0.00005530
1705548778.006155 0.03048848 -0.01411033 -0.00898792 0.00000258 -0.00231029 -0.00002485
1705548778.105157 0.03058651 -0.01415684 -0.00907344 -0.00000934 -0.00229013 -0.00002643
1705548778.207159 0.02960400 -0.01441369 -0.00711253 -0.00002558 -0.00221234 -0.00002760
1705548778.306161 0.02623015 -0.01039981 -0.00288526 0.00000997 -0.00207981 -0.00013803
1705548778.405164 0.02975615 -0.01302415 -0.00826610 -0.00006256 -0.00204749 -0.00004055
1705548778.507166 0.03078608 -0.01395338 -0.00911622 -0.00009478 -0.00199285 -0.00002973
1705548778.606168 0.03099104 -0.01417687 -0.00904434 -0.00013395 -0.00187387 -0.00005015
1705548778.705170 0.03094923 -0.01422541 -0.00891646 -0.00014117 -0.00184435 -0.00005539
1705548778.807172 0.03089446 -0.01423589 -0.00882706 -0.00014610 -0.00182351 -0.00005773
1705548778.906174 0.03083009 -0.01423195 -0.00875297 -0.00014916 -0.00180771 -0.00006038
1705548779.005176 0.03076839 -0.01424676 -0.00869224 -0.00014832 -0.00180335 -0.00006491
1705548779.107178 0.03072304 -0.01429398 -0.00865249 -0.00014339 -0.00180531 -0.00006903
1705548779.206181 0.03068855 -0.01431937 -0.00863042 -0.00014175 -0.00180550 -0.00006723
1705548779.305183 0.03067188 -0.01433005 -0.00862643 -0.00015761 -0.00178616 -0.00006643
1705548779.407185 0.03064888 -0.01432052 -0.00860943 -0.00015909 -0.00179346 -0.00005881
1705548779.506187 0.02556581 -0.01091497 -0.00058407 -0.00019796 -0.00133568 -0.00015254
1705548779.605189 0.03029278 -0.01347362 -0.00842724 -0.00004155 -0.00223963 -0.00002742
1705548779.707191 0.03180062 -0.01400344 -0.00991211 -0.00003696 -0.00228458 -0.00005132
1705548779.806193 0.02437944 -0.01355337 0.00226528 -0.00003848 -0.00191954 -0.00010154
1705548779.905195 0.02877292 -0.01395500 -0.00650628 0.00000359 -0.00224245 -0.00005057
1705548780.007198 0.03014763 -0.01413835 -0.00818933 0.00000550 -0.00224717 -0.00004960
1705548780.106200 0.03044251 -0.01418193 -0.00840922 0.00000596 -0.00224512 -0.00004959
1705548780.205202 0.03052078 -0.01419570 -0.00845732 -0.00001077 -0.00221954 -0.00005252
1705548780.307204 0.03057524 -0.01422776 -0.00849754 -0.00002882 -0.00218847 -0.00005118
1705548780.406206 0.03081586 -0.01424299 -0.00877667 -0.00009542 -0.00202099 -0.00004637
1705548780.505208 0.03246812 -0.01356494 -0.01065077 -0.00012379 -0.00192586 -0.00004689
1705548780.607210 0.03018347 -0.01652417 -0.00756992 -0.00017487 -0.00218362 -0.00008382
1705548780.706213 0.03040512 -0.01569564 -0.00808986 -0.00007405 -0.00222521 -0.00007559
1705548780.805215 0.03049846 -0.01459213 -0.00842594 0.00001209 -0.00224559 -0.00004452
1705548780.907217 0.03053507 -0.01430157 -0.00847461 -0.00000599 -0.00224091 -0.00004143
1705548781.006219 0.03052196 -0.01420203 -0.00843307 0.00001575 -0.00225711 -0.00005112
1705548781.105221 0.03075383 -0.01407519 -0.00857391 -0.00001974 -0.00222747 -0.00005798
1705548781.207223 0.03074329 -0.01409313 -0.00847522 -0.00006030 -0.00216924 -0.00006376
1705548781.306225 0.03055158 -0.01413242 -0.00830332 -0.00006843 -0.00212093 -0.00006417
1705548781.405227 0.03037721 -0.01422539 -0.00822764 -0.00007219 -0.00210268 -0.00006441
1705548781.507230 0.03023593 -0.01427631 -0.00817347 -0.00007462 -0.00208560 -0.00006518
1705548781.606232 0.03015137 -0.01431027 -0.00814548 -0.00007531 -0.00207264 -0.00006465
1705548781.705234 0.03005637 -0.01434341 -0.00811883 -0.00007724 -0.00205765 -0.00006477
1705548781.807236 0.02998147 -0.01436676 -0.00810116 -0.00007823 -0.00204382 -0.00006453
1705548781.906238 0.02991681 -0.01438675 -0.00809233 -0.00007914 -0.00203088 -0.00006463
1705548782.005240 0.02986367 -0.01439779 -0.00808802 -0.00007967 -0.00201861 -0.00006362
1705548782.107243 0.02982106 -0.01440159 -0.00809205 -0.00007973 -0.00200579 -0.00006362
1705548782.206245 0.02979971 -0.01439970 -0.00810607 -0.00007917 -0.00199353 -0.00006401
1705548782.305247 0.02979432 -0.01439174 -0.00812219 -0.00007924 -0.00198357 -0.00006327
1705548782.407249 0.02977720 -0.01428942 -0.00812728 -0.00005988 -0.00200191 -0.00006573
1705548782.506251 0.02882393 -0.01453235 -0.00796990 -0.00014564 -0.00189344 -0.00011118
1705548782.605253 0.02844951 -0.01459763 -0.00796637 -0.00027577 -0.00185118 -0.00010545
1705548782.707255 0.02769055 -0.01392317 -0.00765485 -0.00034308 -0.00179021 -0.00013533
1705548782.806257 0.02780734 -0.01448035 -0.00796242 -0.00041881 -0.00179990 -0.00011721
1705548782.905260 0.02743990 -0.01452786 -0.00836293 -0.00044878 -0.00173922 -0.00016151
1705548783.007262 0.02777088 -0.01482623 -0.00897135 -0.00039006 -0.00186135 -0.00020845
1705548783.106264 0.02597218 -0.01693262 -0.00905808 -0.00013453 -0.00179085 -0.00024789
1705548783.205266 0.02672498 -0.01786961 -0.00920893 -0.00010990 -0.00191312 -0.00023209
1705548783.307268 0.02803380 -0.01723226 -0.00939709 -0.00005034 -0.00201151 -0.00008907
1705548783.406270 0.02892050 -0.01666227 -0.00925838 -0.00003412 -0.00208627 -0.00008852
1705548783.505272 0.03041178 -0.01550146 -0.00877680 -0.00003691 -0.00223064 -0.00008324
1705548783.607275 0.03061968 -0.01537665 -0.00849786 -0.00003692 -0.00225998 -0.00007794
1705548783.706277 0.03053539 -0.01438874 -0.00849337 -0.00000475 -0.00221887 -0.00006249
1705548783.805279 0.03049993 -0.01427589 -0.00851995 -0.00001164 -0.00216728 -0.00007899
1705548783.907281 0.02923719 -0.01431241 -0.00922884 -0.00001097 -0.00181158 -0.00015288
1705548784.006283 0.02963689 -0.01567132 -0.00980530 -0.00007094 -0.00192115 -0.00022683
1705548784.105285 0.02963689 -0.01567132 -0.00980530 -0.00007094 -0.00192115 -0.00022683
1705548784.207287 0.03064214 -0.01638406 -0.00959552 -0.00009976 -0.00219024 -0.00007194
1705548784.306289 0.02063586 -0.03033797 -0.01293067 -0.00093452 -0.00117056 -0.00010346
1705548784.405292 0.02836159 -0.01790974 -0.00912424 -0.00002319 -0.00222050 -0.00004264
1705548784.507294 0.02969210 -0.01525153 -0.00934409 -0.00003828 -0.00199243 -0.00008086
1705548784.606296 0.02842765 -0.01608922 -0.01157479 -0.00009460 -0.00179553 -0.00010393
1705548784.705298 0.02510047 -0.01801485 -0.01464169 -0.00020862 -0.00128051 -0.00018160
1705548784.807300 0.02500203 -0.01814637 -0.01436977 -0.00020192 -0.00132257 -0.00021938
1705548784.906302 0.02341039 -0.02049434 -0.01681875 -0.00028216 -0.00107266 -0.00029951
1705548785.005304 0.02473996 -0.02271527 -0.01751757 -0.00032697 -0.00130102 -0.00034095
1705548785.107306 0.02386792 -0.02303996 -0.01834134 -0.00031910 -0.00107190 -0.00027468
1705548785.206309 0.02808992 -0.02334564 -0.01553472 -0.00032642 -0.00161507 -0.00035334
1705548785.305311 0.02968928 -0.02205597 -0.01386169 -0.00024347 -0.00183930 -0.00024672
1705548785.407313 0.03035829 -0.01610064 -0.00927546 -0.00001123 -0.00222145 -0.00004365
1705548785.506315 0.03023274 -0.01473714 -0.00909825 0.00000028 -0.00220767 -0.00004660
1705548785.605317 0.03043007 -0.01440553 -0.00864105 -0.00000560 -0.00222362 -0.00004532
1705548785.707319 0.03048782 -0.01432941 -0.00855589 -0.00000026 -0.00223743 -0.00004524
1705548785.806321 0.03057776 -0.01429092 -0.00843667 -0.00001242 -0.00218941 -0.00004177
1705548785.905324 0.03447542 -0.02589061 -0.00911956 -0.00133000 -0.00227894 -0.00018552
1705548786.004326 0.03447542 -0.02589061 -0.00911956 -0.00133000 -0.00227894 -0.00018552
1705548786.106328 0.03150417 -0.01763662 -0.00920425 -0.00000530 -0.00200688 -0.00008789
1705548786.205330 0.03150417 -0.01763662 -0.00920425 -0.00000530 -0.00200688 -0.00008789
1705548786.307332 0.03069834 -0.01480007 -0.00857940 -0.00000972 -0.00223107 -0.00004367
1705548786.406334 0.03069834 -0.01480007 -0.00857940 -0.00000972 -0.00223107 -0.00004367
1705548786.505336 0.03061867 -0.01450563 -0.00852359 -0.00000830 -0.00222710 -0.00004372
1705548786.604338 0.03061867 -0.01450563 -0.00852359 -0.00000830 -0.00222710 -0.00004372
1705548786.706341 0.03059544 -0.01441138 -0.00851173 -0.00000830 -0.00222390 -0.00004426
1705548786.805343 0.03059544 -0.01441138 -0.00851173 -0.00000830 -0.00222390 -0.00004426
1705548786.907345 0.03057383 -0.01432617 -0.00850275 -0.00000796 -0.00221901 -0.00004371
1705548787.006347 0.03057383 -0.01432617 -0.00850275 -0.00000796 -0.00221901 -0.00004371
1705548787.105349 0.03055127 -0.01415416 -0.00812747 0.00000108 -0.00222084 -0.00003928
1705548787.207351 0.03055127 -0.01415416 -0.00812747 0.00000108 -0.00222084 -0.00003928
1705548787.306353 0.03054749 -0.01419501 -0.00836170 -0.00000300 -0.00223232 -0.00005089
1705548787.405355 0.03073272 -0.01556622 -0.01439427 -0.00017361 -0.00190793 -0.00006478
1705548787.504358 0.03073272 -0.01556622 -0.01439427 -0.00017361 -0.00190793 -0.00006478
1705548787.606360 0.03060859 -0.01529566 -0.01147822 -0.00019708 -0.00193084 -0.00006515
1705548787.705362 0.03060859 -0.01529566 -0.01147822 -0.00019708 -0.00193084 -0.00006515
1705548787.807364 0.03060139 -0.01508191 -0.01107448 -0.00021122 -0.00188190 -0.00008523
1705548787.906366 0.03079169 -0.01505414 -0.00985046 -0.00015475 -0.00196302 -0.00009975
1705548788.005368 0.03059483 -0.01444109 -0.00864627 -0.00004188 -0.00201943 -0.00004814
1705548788.104370 0.03054903 -0.01428978 -0.00850472 0.00001656 -0.00213593 -0.00004554
1705548788.206372 0.03054903 -0.01428978 -0.00850472 0.00001656 -0.00213593 -0.00004554
1705548788.305375 0.03055330 -0.01429855 -0.00852151 0.00001336 -0.00213386 -0.00004571
1705548788.404377 0.03356354 -0.02318563 -0.01858496 -0.00107290 -0.00187585 -0.00026832
1705548788.506379 0.03356354 -0.02318563 -0.01858496 -0.00107290 -0.00187585 -0.00026832
1705548788.605381 0.03356354 -0.02318563 -0.01858496 -0.00107290 -0.00187585 -0.00026832
1705548788.707383 0.03356354 -0.02318563 -0.01858496 -0.00107290 -0.00187585 -0.00026832
1705548788.806386 0.03156395 -0.01737879 -0.01077842 -0.00013212 -0.00212680 -0.00005492
1705548788.905387 0.03156395 -0.01737879 -0.01077842 -0.00013212 -0.00212680 -0.00005492
1705548789.007390 0.03156395 -0.01737879 -0.01077842 -0.00013212 -0.00212680 -0.00005492
1705548789.106392 0.03156395 -0.01737879 -0.01077842 -0.00013212 -0.00212680 -0.00005492
1705548789.205394 0.03080167 -0.01511274 -0.00891308 -0.00000889 -0.00222932 -0.00004808
1705548789.307396 0.03466010 -0.02495010 -0.03250202 -0.00157464 -0.00123568 -0.00035816
1705548789.406398 0.03188480 -0.01800638 -0.01370392 -0.00011063 -0.00210984 -0.00002904
1705548789.505400 0.03086918 -0.01522618 -0.00933388 -0.00000807 -0.00222918 -0.00004756
1705548789.607403 0.03543611 -0.03009773 -0.02908273 -0.00232196 -0.00147293 -0.00076747
1705548789.706405 0.03212606 -0.01980991 -0.01314930 -0.00017030 -0.00210760 -0.00005218
1705548789.805407 0.03212606 -0.01980991 -0.01314930 -0.00017030 -0.00210760 -0.00005218
1705548789.904409 0.03090428 -0.01561995 -0.00923282 -0.00000848 -0.00224052 -0.00006291
1705548790.006411 0.03090428 -0.01561995 -0.00923282 -0.00000848 -0.00224052 -0.00006291
1705548790.105413 0.03057768 -0.01453956 -0.00858757 -0.00000302 -0.00224428 -0.00006275
1705548790.204415 0.03050597 -0.01430780 -0.00849720 -0.00000521 -0.00224142 -0.00006208
1705548790.306417 0.03570146 -0.02251150 -0.02728466 -0.00156291 -0.00154208 -0.00048800
1705548790.405420 0.03187907 -0.01686208 -0.01169683 -0.00006049 -0.00221402 -0.00007869
1705548790.507422 0.03187907 -0.01686208 -0.01169683 -0.00006049 -0.00221402 -0.00007869
1705548790.606424 0.03073778 -0.01473064 -0.00877674 -0.00000518 -0.00224136 -0.00006938
1705548790.705426 0.03256426 -0.01719307 -0.01131460 -0.00052509 -0.00224447 -0.00028412
1705548790.807428 0.03256426 -0.01719307 -0.01131460 -0.00052509 -0.00224447 -0.00028412
1705548790.906430 0.03256426 -0.01719307 -0.01131460 -0.00052509 -0.00224447 -0.00028412
1705548791.005432 0.03101035 -0.01509647 -0.00892645 -0.00002600 -0.00222471 -0.00005053
1705548791.107435 0.03101035 -0.01509647 -0.00892645 -0.00002600 -0.00222471 -0.00005053
1705548791.206437 0.03101035 -0.01509647 -0.00892645 -0.00002600 -0.00222471 -0.00005053
1705548791.305439 0.03057541 -0.01451657 -0.00837053 -0.00003722 -0.00220020 -0.00004798
1705548791.404441 0.03052215 -0.01439412 -0.00850021 -0.00001857 -0.00223399 -0.00005948
1705548791.506443 0.03053359 -0.01439902 -0.00852912 -0.00002163 -0.00223247 -0.00006033
1705548791.605445 0.03048915 -0.01436197 -0.00844007 -0.00003995 -0.00216356 -0.00005766
1705548791.704447 0.03048915 -0.01436197 -0.00844007 -0.00003995 -0.00216356 -0.00005766
1705548791.806449 0.03050225 -0.01436158 -0.00849537 -0.00001379 -0.00223198 -0.00006051
1705548791.905452 0.03484035 -0.02045437 -0.01477204 -0.00110176 -0.00207203 -0.00048055
1705548792.004454 0.03484035 -0.02045437 -0.01477204 -0.00110176 -0.00207203 -0.00048055
1705548792.106456 0.03484035 -0.02045437 -0.01477204 -0.00110176 -0.00207203 -0.00048055
1705548792.205458 0.03484035 -0.02045437 -0.01477204 -0.00110176 -0.00207203 -0.00048055
1705548792.304460 0.03624830 -0.02048080 -0.01897539 -0.00103179 -0.00188953 -0.00043654
1705548792.406462 0.03207258 -0.01634451 -0.01050108 -0.00005528 -0.00221953 -0.00006624
1705548792.505464 0.03207258 -0.01634451 -0.01050108 -0.00005528 -0.00221953 -0.00006624
1705548792.604466 0.03207258 -0.01634451 -0.01050108 -0.00005528 -0.00221953 -0.00006624
1705548792.706469 0.03207258 -0.01634451 -0.01050108 -0.00005528 -0.00221953 -0.00006624
1705548792.805471 0.03083271 -0.01494354 -0.00889583 -0.00001932 -0.00222529 -0.00006033
1705548792.907473 0.03109925 -0.01497108 -0.00981916 -0.00016240 -0.00215874 -0.00011150
1705548793.006475 0.03110317 -0.01497643 -0.00982618 -0.00016423 -0.00215845 -0.00011233
1705548793.105477 0.03058066 -0.01467164 -0.00871263 -0.00002086 -0.00221285 -0.00004031
1705548793.204479 0.03321981 -0.01701920 -0.01279588 -0.00064957 -0.00204653 -0.00032401
1705548793.306481 0.03114156 -0.01521812 -0.00929392 -0.00003620 -0.00222151 -0.00006420
1705548793.405483 0.03114156 -0.01521812 -0.00929392 -0.00003620 -0.00222151 -0.00006420
1705548793.504486 0.03114153 -0.01521771 -0.00929617 -0.00003711 -0.00222107 -0.00006470
1705548793.606488 0.03052721 -0.01462021 -0.00868690 -0.00001886 -0.00222082 -0.00006132
1705548793.705490 0.03331458 -0.01597386 -0.01408987 -0.00058327 -0.00192400 -0.00025656
1705548793.804492 0.03103961 -0.01491705 -0.00938870 -0.00003222 -0.00221467 -0.00006330
1705548793.906494 0.03047158 -0.01455254 -0.00869148 -0.00001614 -0.00221309 -0.00005602
1705548794.005496 0.03047674 -0.01455620 -0.00869977 -0.00001825 -0.00221261 -0.00005703
1705548794.107498 0.03033655 -0.01445444 -0.00860841 -0.00001790 -0.00221639 -0.00006250
1705548794.206501 0.03335720 -0.01581373 -0.01395693 -0.00060005 -0.00191338 -0.00026896
1705548794.305503 0.03095118 -0.01485782 -0.00930346 -0.00003138 -0.00221103 -0.00006380
1705548794.407505 0.03038163 -0.01450215 -0.00868322 -0.00001773 -0.00221183 -0.00006371
1705548794.506507 0.03038783 -0.01450608 -0.00869170 -0.00002000 -0.00221158 -0.00006504
1705548794.605509 0.03487593 -0.01743361 -0.01531613 -0.00089707 -0.00203082 -0.00069642
1705548794.704511 0.03487593 -0.01743361 -0.01531613 -0.00089707 -0.00203082 -0.00069642
1705548794.806513 0.03141968 -0.01561596 -0.00952488 -0.00006176 -0.00227076 -0.00013588
1705548794.905515 0.03141968 -0.01561596 -0.00952488 -0.00006176 -0.00227076 -0.00013588
1705548795.004518 0.03142261 -0.01561664 -0.00953013 -0.00006340 -0.00227016 -0.00013677
1705548795.106520 0.03044501 -0.01470518 -0.00875167 -0.00002008 -0.00220394 -0.00006650
1705548795.205522 0.03044501 -0.01470518 -0.00875167 -0.00002008 -0.00220394 -0.00006650
1705548795.304524 0.03019245 -0.01447475 -0.00863163 -0.00001888 -0.00220072 -0.00006607
1705548795.406526 0.03019245 -0.01447475 -0.00863163 -0.00001888 -0.00220072 -0.00006607
1705548795.505528 0.03339786 -0.01510238 -0.01400545 -0.00089950 -0.00175372 -0.00054774
1705548795.607531 0.03339786 -0.01510238 -0.01400545 -0.00089950 -0.00175372 -0.00054774
1705548795.706533 0.03817207 -0.01730261 -0.02168353 -0.00142384 -0.00140997 -0.00076690
1705548795.805535 0.03254230 -0.01573790 -0.01147830 -0.00007917 -0.00215341 -0.00007269
1705548795.904537 0.03254230 -0.01573790 -0.01147830 -0.00007917 -0.00215341 -0.00007269
1705548796.006539 0.03254230 -0.01573790 -0.01147830 -0.00007917 -0.00215341 -0.00007269
1705548796.105541 0.03061367 -0.01475971 -0.00922072 -0.00001874 -0.00219208 -0.00006874
1705548796.204543 0.03061984 -0.01475964 -0.00923138 -0.00002090 -0.00219060 -0.00006967
1705548796.306545 0.03014668 -0.01450390 -0.00887972 -0.00001693 -0.00219284 -0.00006905
1705548796.405548 0.03014668 -0.01450390 -0.00887972 -0.00001693 -0.00219284 -0.00006905
1705548796.504550 0.03003034 -0.01443874 -0.00883765 -0.00001669 -0.00219105 -0.00006960
1705548796.606552 0.03003034 -0.01443874 -0.00883765 -0.00001669 -0.00219105 -0.00006960
1705548796.705554 0.03356439 -0.01569746 -0.01345014 -0.00083413 -0.00184069 -0.00065356
1705548796.804556 0.03356439 -0.01569746 -0.01345014 -0.00083413 -0.00184069 -0.00065356
1705548796.906558 0.03103192 -0.01512091 -0.00971975 -0.00005691 -0.00218228 -0.00007799
1705548797.005560 0.03103192 -0.01512091 -0.00971975 -0.00005691 -0.00218228 -0.00007799
1705548797.107563 0.03103673 -0.01512103 -0.00972683 -0.00005867 -0.00218147 -0.00007916
1705548797.206565 0.03013141 -0.01457065 -0.00897059 -0.00001876 -0.00217897 -0.00007239
1705548797.305567 0.03013141 -0.01457065 -0.00897059 -0.00001876 -0.00217897 -0.00007239
1705548797.407569 0.02992372 -0.01442734 -0.00886138 -0.00001673 -0.00217837 -0.00007308
1705548797.506571 0.02992372 -0.01442734 -0.00886138 -0.00001673 -0.00217837 -0.00007308
1705548797.605573 0.02993055 -0.01442712 -0.00887134 -0.00001864 -0.00217730 -0.00007406
1705548797.704575 0.02983061 -0.01437992 -0.00886880 -0.00001634 -0.00217132 -0.00007512
1705548797.806577 0.02983061 -0.01437992 -0.00886880 -0.00001634 -0.00217132 -0.00007512
1705548797.905580 0.02979546 -0.01435833 -0.00887124 -0.00001586 -0.00216970 -0.00007574
1705548798.004582 0.02979546 -0.01435833 -0.00887124 -0.00001586 -0.00216970 -0.00007574
1705548798.106584 0.02980173 -0.01435799 -0.00888010 -0.00001761 -0.00216872 -0.00007682
1705548798.205586 0.02974248 -0.01431021 -0.00887934 -0.00001290 -0.00216418 -0.00007846
1705548798.304588 0.02974248 -0.01431021 -0.00887934 -0.00001290 -0.00216418 -0.00007846
1705548798.406590 0.02972259 -0.01428877 -0.00888070 -0.00000950 -0.00216383 -0.00008207
1705548798.505592 0.02972259 -0.01428877 -0.00888070 -0.00000950 -0.00216383 -0.00008207
1705548798.607594 0.02973000 -0.01428861 -0.00888984 -0.00001151 -0.00216287 -0.00008354
1705548798.706597 0.02966983 -0.01424481 -0.00889759 -0.00000747 -0.00215364 -0.00008421
1705548798.805599 0.02966983 -0.01424481 -0.00889759 -0.00000747 -0.00215364 -0.00008421
1705548798.904601 0.02963392 -0.01422196 -0.00889916 -0.00000695 -0.00215112 -0.00008024
1705548799.006603 0.02963392 -0.01422196 -0.00889916 -0.00000695 -0.00215112 -0.00008024
1705548799.105605 0.02964130 -0.01422154 -0.00890798 -0.00000893 -0.00215017 -0.00008180
1705548799.204607 0.02952595 -0.01421623 -0.00881150 -0.00001471 -0.00212015 -0.00005765
1705548799.306609 0.02952595 -0.01421623 -0.00881150 -0.00001471 -0.00212015 -0.00005765
1705548799.405612 0.02953589 -0.01415581 -0.00891006 -0.00000492 -0.00214467 -0.00008666
1705548799.504614 0.02953589 -0.01415581 -0.00891006 -0.00000492 -0.00214467 -0.00008666
1705548799.606616 0.02954304 -0.01415422 -0.00891952 -0.00000670 -0.00214351 -0.00008762
1705548799.705618 0.02948382 -0.01409279 -0.00894126 -0.00000077 -0.00213799 -0.00009061
1705548799.804620 0.02948382 -0.01409279 -0.00894126 -0.00000077 -0.00213799 -0.00009061
1705548799.906622 0.02946429 -0.01406878 -0.00894349 0.00000003 -0.00213699 -0.00009121
1705548800.005624 0.02946429 -0.01406878 -0.00894349 0.00000003 -0.00213699 -0.00009121
1705548800.104626 0.02947007 -0.01406737 -0.00895094 -0.00000145 -0.00213602 -0.00009216
1705548800.206629 0.02941354 -0.01401310 -0.00895996 0.00000407 -0.00213067 -0.00009464
1705548800.305631 0.02941354 -0.01401310 -0.00895996 0.00000407 -0.00213067 -0.00009464
1705548800.404633 0.02941354 -0.01401310 -0.00895996 0.00000407 -0.00213067 -0.00009464
1705548800.506635 0.02941860 -0.01401063 -0.00896757 0.00000295 -0.00212949 -0.00009477
1705548800.605637 0.02932370 -0.01393679 -0.00899780 0.00000929 -0.00211955 -0.00009985
1705548800.704639 0.02932370 -0.01393679 -0.00899780 0.00000929 -0.00211955 -0.00009985
1705548800.806641 0.02932370 -0.01393679 -0.00899780 0.00000929 -0.00211955 -0.00009985
1705548800.905643 0.02926555 -0.01387478 -0.00901352 0.00001359 -0.00211422 -0.00010314
1705548801.004646 0.02926756 -0.01387408 -0.00901599 0.00001313 -0.00211387 -0.00010336
1705548801.106648 0.02911734 -0.01397542 -0.00879692 0.00005385 -0.00209395 -0.00007763
1705548801.205650 0.02911734 -0.01397542 -0.00879692 0.00005385 -0.00209395 -0.00007763
1705548801.307652 0.02911734 -0.01397542 -0.00879692 0.00005385 -0.00209395 -0.00007763
1705548801.406654 0.02912238 -0.01397290 -0.00880380 0.00005275 -0.00209295 -0.00007776
1705548801.505656 0.03916204 -0.01336287 -0.01885260 -0.00132224 -0.00130054 -0.00189690
1705548801.604658 0.03916204 -0.01336287 -0.01885260 -0.00132224 -0.00130054 -0.00189690
1705548801.706661 0.03916204 -0.01336287 -0.01885260 -0.00132224 -0.00130054 -0.00189690
1705548801.805663 0.03916204 -0.01336287 -0.01885260 -0.00132224 -0.00130054 -0.00189690
1705548801.904665 0.03916204 -0.01336287 -0.01885260 -0.00132224 -0.00130054 -0.00189690
1705548802.006667 0.03916204 -0.01336287 -0.01885260 -0.00132224 -0.00130054 -0.00189690
1705548802.105669 0.03916204 -0.01336287 -0.01885260 -0.00132224 -0.00130054 -0.00189690
1705548802.204671 0.03916204 -0.01336287 -0.01885260 -0.00132224 -0.00130054 -0.00189690
1705548802.306674 0.03916204 -0.01336287 -0.01885260 -0.00132224 -0.00130054 -0.00189690
1705548802.405675 0.03916204 -0.01336287 -0.01885260 -0.00132224 -0.00130054 -0.00189690
1705548802.507678 0.03916204 -0.01336287 -0.01885260 -0.00132224 -0.00130054 -0.00189690
1705548802.606680 0.03916204 -0.01336287 -0.01885260 -0.00132224 -0.00130054 -0.00189690
1705548802.705682 0.03381023 -0.01623259 -0.01324890 -0.00032921 -0.00211192 -0.00011649
1705548802.804684 0.03381023 -0.01623259 -0.01324890 -0.00032921 -0.00211192 -0.00011649
1705548802.906686 0.03381023 -0.01623259 -0.01324890 -0.00032921 -0.00211192 -0.00011649
1705548803.005688 0.03094206 -0.01653301 -0.01106829 -0.00017241 -0.00213313 -0.00002820
1705548803.104690 0.03101218 -0.01650735 -0.01114206 -0.00018954 -0.00212140 -0.00004422
1705548803.206693 0.03008631 -0.01660895 -0.01063074 -0.00016644 -0.00213619 -0.00003302
1705548803.305695 0.03008631 -0.01660895 -0.01063074 -0.00016644 -0.00213619 -0.00003302
1705548803.404697 0.03008631 -0.01660895 -0.01063074 -0.00016644 -0.00213619 -0.00003302
1705548803.506699 0.02979147 -0.01656162 -0.01055896 -0.00016136 -0.00212792 -0.00002821
1705548803.605701 0.02987312 -0.01652770 -0.01064578 -0.00017905 -0.00211494 -0.00004390
1705548803.704703 0.02972447 -0.01652444 -0.01054261 -0.00015705 -0.00212616 -0.00003345
1705548803.806705 0.02972447 -0.01652444 -0.01054261 -0.00015705 -0.00212616 -0.00003345
1705548803.905708 0.02972447 -0.01652444 -0.01054261 -0.00015705 -0.00212616 -0.00003345
1705548804.004710 0.02961572 -0.01641999 -0.01054620 -0.00015311 -0.00211709 -0.00003413
1705548804.106712 0.02961572 -0.01641999 -0.01054620 -0.00015311 -0.00211709 -0.00003413
1705548804.205714 0.02957762 -0.01638513 -0.01055921 -0.00015329 -0.00211558 -0.00003583
1705548804.304716 0.02958386 -0.01638208 -0.01056661 -0.00015455 -0.00211446 -0.00003708
1705548804.406718 0.02958386 -0.01638208 -0.01056661 -0.00015455 -0.00211446 -0.00003708
1705548804.505720 0.02951320 -0.01631906 -0.01060973 -0.00014890 -0.00210793 -0.00003967
1705548804.604722 0.02951320 -0.01631906 -0.01060973 -0.00014890 -0.00210793 -0.00003967
1705548804.706725 0.02948818 -0.01628893 -0.01061518 -0.00014778 -0.00210643 -0.00004055
1705548804.805727 0.02948818 -0.01628893 -0.01061518 -0.00014778 -0.00210643 -0.00004055
1705548804.904729 0.02945847 -0.01622446 -0.01059405 -0.00014340 -0.00210315 -0.00004323
1705548805.006731 0.02945847 -0.01622446 -0.01059405 -0.00014340 -0.00210315 -0.00004323
1705548805.105733 0.02943548 -0.01618974 -0.01060810 -0.00014183 -0.00210092 -0.00004454
1705548805.204735 0.02943548 -0.01618974 -0.01060810 -0.00014183 -0.00210092 -0.00004454
1705548805.306737 0.02942005 -0.01615453 -0.01060805 -0.00013922 -0.00209943 -0.00004623
1705548805.405740 0.02942918 -0.01615001 -0.01061826 -0.00014100 -0.00209783 -0.00004819
