timestamp ba_x ba_y ba_z bg_x bg_y bg_z
1699701487.109313 0.00000000 -0.00000002 0.00002986 0.00011633 0.00017937 0.00029226
1699701487.208316 0.00000001 -0.00000002 0.00005458 0.00011677 0.00017700 0.00028896
1699701487.307318 0.00000001 -0.00000002 0.00006805 0.00011880 0.00016973 0.00028356
1699701487.409320 0.00000001 -0.00000002 0.00005859 0.00012123 0.00016278 0.00027853
1699701487.508322 0.00000001 -0.00000002 0.00002813 0.00012763 0.00015839 0.00027582
1699701487.607324 0.00000001 -0.00000003 0.00000336 0.00013600 0.00015145 0.00027624
1699701487.709326 0.00000000 -0.00000003 -0.00003374 0.00014443 0.00014564 0.00027264
1699701487.808328 0.00000000 -0.00000004 -0.00007558 0.00015283 0.00013753 0.00026668
1699701487.907331 -0.00000000 -0.00000005 -0.00011448 0.00016325 0.00013097 0.00026475
1699701488.009333 -0.00000001 -0.00000006 -0.00019114 0.00017001 0.00012837 0.00026247
1699701488.108335 -0.00000002 -0.00000007 -0.00028216 0.00017581 0.00012727 0.00025919
1699701488.207337 -0.00000003 -0.00000008 -0.00036179 0.00017989 0.00012628 0.00025248
1699701488.309339 -0.00000003 -0.00000008 -0.00041666 0.00018189 0.00012390 0.00024662
1699701488.408341 -0.00000004 -0.00000008 -0.00045865 0.00018232 0.00012383 0.00024277
1699701488.507343 -0.00000012 -0.00000008 -0.00061349 0.00017746 0.00012230 0.00023752
1699701488.609345 -0.00000019 -0.00000007 -0.00078583 0.00016892 0.00011587 0.00023379
1699701488.708348 -0.00000018 -0.00000006 -0.00071457 0.00016279 0.00010362 0.00023090
1699701488.807350 -0.00000018 -0.00000006 -0.00075058 0.00015911 0.00009039 0.00022812
1699701488.909352 -0.00000020 -0.00000007 -0.00089630 0.00015856 0.00007878 0.00022595
1699701489.008354 -0.00000017 -0.00000005 -0.00068506 0.00015987 0.00005881 0.00022360
1699701489.107356 -0.00000019 -0.00000007 -0.00075540 0.00017252 0.00003895 0.00022003
1699701489.209358 -0.00000020 -0.00000010 -0.00082416 0.00019200 0.00002101 0.00021235
1699701489.308360 -0.00000013 -0.00000006 -0.00056889 0.00020508 0.00000248 0.00020424
1699701489.407362 0.00000007 -0.00000030 -0.00025257 0.00022027 -0.00001579 0.00019245
1699701489.509365 0.00000038 -0.00000040 -0.00013646 0.00023959 -0.00003357 0.00017498
1699701489.608367 0.00000066 -0.00000062 0.00009006 0.00025721 -0.00004938 0.00016350
1699701489.707369 0.00000094 -0.00000076 0.00021295 0.00027232 -0.00006222 0.00015471
1699701489.809371 0.00000120 -0.00000095 0.00023199 0.00028482 -0.00008513 0.00014584
1699701489.908373 0.00000140 -0.00000134 0.00039037 0.00029155 -0.00010325 0.00013680
1699701490.007375 0.00000303 -0.00000260 0.00052509 0.00029799 -0.00012645 0.00012651
1699701490.109378 0.00000610 -0.00000490 0.00044086 0.00029930 -0.00014715 0.00012025
1699701490.208380 0.00000715 -0.00000708 0.00049085 0.00030190 -0.00016445 0.00011127
1699701490.307382 0.00000878 -0.00000963 0.00046933 0.00029882 -0.00018134 0.00010551
1699701490.409384 0.00001057 -0.00001200 0.00028981 0.00029801 -0.00019786 0.00009687
1699701490.508386 0.00001243 -0.00001513 0.00024885 0.00029740 -0.00021176 0.00009052
1699701490.607388 0.00001390 -0.00001733 0.00020411 0.00029936 -0.00021801 0.00008699
1699701490.709390 0.00001541 -0.00001672 -0.00008333 0.00030483 -0.00021469 0.00008221
1699701490.808393 0.00001453 -0.00001935 -0.00025934 0.00030383 -0.00021110 0.00007606
1699701490.907395 0.00001382 -0.00002108 -0.00051149 0.00029163 -0.00020273 0.00007461
1699701491.009397 0.00001326 -0.00002233 -0.00089797 0.00028249 -0.00019870 0.00007185
1699701491.108399 0.00001202 -0.00002299 -0.00109676 0.00027750 -0.00020282 0.00006553
1699701491.207401 0.00001177 -0.00002427 -0.00134909 0.00027418 -0.00021244 0.00006158
1699701491.309403 0.00001175 -0.00002510 -0.00164751 0.00026859 -0.00022090 0.00006098
1699701491.408405 0.00000967 -0.00002322 -0.00169187 0.00026994 -0.00022192 0.00005794
1699701491.507407 0.00000972 -0.00000808 -0.00186238 0.00027368 -0.00022499 0.00005510
1699701491.609410 0.00000910 0.00000893 -0.00216975 0.00027618 -0.00023382 0.00005665
1699701491.708412 0.00001097 0.00002801 -0.00228497 0.00027564 -0.00024439 0.00005843
1699701491.807414 0.00001828 0.00004721 -0.00253964 0.00027496 -0.00024680 0.00005354
1699701491.909416 0.00002758 0.00006686 -0.00277878 0.00027480 -0.00024879 0.00004790
1699701492.008418 0.00003600 0.00008833 -0.00307771 0.00026956 -0.00024839 0.00004059
1699701492.107420 0.00004122 0.00010850 -0.00329094 0.00026179 -0.00024879 0.00003335
1699701492.209422 0.00004353 0.00012813 -0.00349320 0.00025468 -0.00025666 0.00002803
1699701492.308424 0.00004470 0.00014783 -0.00375683 0.00023968 -0.00026146 0.00002482
1699701492.407427 0.00004507 0.00016718 -0.00398047 0.00023399 -0.00025700 0.00002497
1699701492.509429 0.00004551 0.00017863 -0.00384728 0.00027112 -0.00026489 0.00007138
1699701492.608431 0.00004342 0.00017634 -0.00376374 0.00027823 -0.00024108 0.00006117
1699701492.707433 0.00003856 0.00016093 -0.00366877 0.00028153 -0.00021740 0.00004382
1699701492.809435 0.00007513 0.00015292 -0.00360669 0.00031378 -0.00025213 0.00008176
1699701492.908437 0.00035179 0.00030034 -0.00384097 0.00034362 -0.00026560 0.00007672
1699701493.007439 0.00030126 0.00029446 -0.00399438 0.00035984 -0.00027914 0.00007196
1699701493.109442 0.00040532 0.00026585 -0.00421027 0.00039924 -0.00035353 0.00011470
1699701493.208444 0.00040717 0.00029910 -0.00424531 0.00042802 -0.00040127 0.00009316
1699701493.307446 0.00036729 0.00035525 -0.00432746 0.00044032 -0.00043057 0.00006909
1699701493.409448 0.00034575 0.00022277 -0.00460036 0.00045113 -0.00048948 0.00008192
1699701493.508450 0.00029095 0.00024847 -0.00453602 0.00045234 -0.00053802 0.00006955
1699701493.607452 0.00029603 0.00032232 -0.00436373 0.00045544 -0.00058880 0.00004468
1699701493.709454 0.00040733 0.00008023 -0.00464954 0.00046167 -0.00062842 0.00004789
1699701493.808456 0.00036889 -0.00003503 -0.00460770 0.00047399 -0.00070319 0.00002187
1699701493.907459 0.00034714 -0.00001409 -0.00445841 0.00048292 -0.00075583 -0.00000294
1699701494.009461 0.00040306 -0.00012557 -0.00455022 0.00049405 -0.00080473 -0.00000618
1699701494.108463 0.00042749 -0.00001490 -0.00438207 0.00052235 -0.00086818 -0.00003069
1699701494.207465 0.00045055 0.00019740 -0.00430261 0.00054886 -0.00091578 -0.00005430
1699701494.309467 0.00052943 -0.00007661 -0.00444201 0.00056637 -0.00093211 -0.00008133
1699701494.408469 0.00046533 -0.00025573 -0.00430332 0.00059059 -0.00098291 -0.00009053
1699701494.507471 0.00040655 -0.00030694 -0.00403391 0.00061046 -0.00102124 -0.00009785
1699701494.609473 0.00037777 -0.00040204 -0.00405316 0.00059899 -0.00102730 -0.00011698
1699701494.708476 0.00042926 -0.00040221 -0.00402045 0.00060902 -0.00109450 -0.00010662
1699701494.807478 0.00038956 -0.00039353 -0.00432545 0.00062730 -0.00114323 -0.00009745
1699701494.909480 0.00036261 -0.00043792 -0.00500064 0.00063662 -0.00116652 -0.00008794
1699701495.008482 0.00035825 -0.00038779 -0.00553270 0.00063205 -0.00120813 -0.00006311
1699701495.107484 0.00032382 -0.00024433 -0.00600595 0.00063166 -0.00123756 -0.00003744
1699701495.209486 0.00026439 -0.00028327 -0.00615292 0.00063387 -0.00126179 -0.00000893
1699701495.308488 0.00014744 -0.00035824 -0.00613941 0.00062426 -0.00128735 0.00001416
1699701495.407490 -0.00016192 -0.00046514 -0.00571991 0.00060772 -0.00130047 0.00004695
1699701495.509493 -0.00042500 -0.00070482 -0.00519608 0.00059720 -0.00131972 0.00005756
1699701495.608495 -0.00075294 -0.00094656 -0.00455609 0.00057945 -0.00133847 0.00008610
1699701495.707497 -0.00093104 -0.00116332 -0.00428906 0.00055303 -0.00134000 0.00010374
1699701495.809499 -0.00088594 -0.00138239 -0.00397890 0.00051366 -0.00135727 0.00009268
1699701495.908501 -0.00076821 -0.00152473 -0.00395560 0.00048300 -0.00135421 0.00009581
1699701496.007503 -0.00060751 -0.00167841 -0.00406062 0.00045974 -0.00134374 0.00009101
1699701496.109506 -0.00043334 -0.00188790 -0.00423339 0.00042400 -0.00136555 0.00006727
1699701496.208508 -0.00027181 -0.00208460 -0.00425288 0.00039690 -0.00138151 0.00007030
1699701496.307510 -0.00014766 -0.00226290 -0.00416659 0.00037781 -0.00138400 0.00007461
1699701496.409512 -0.00007284 -0.00246109 -0.00399891 0.00035559 -0.00140313 0.00006810
1699701496.508514 0.00001650 -0.00264933 -0.00392039 0.00032415 -0.00141035 0.00007475
1699701496.607516 0.00005134 -0.00282593 -0.00379438 0.00029652 -0.00140785 0.00008250
1699701496.709518 0.00003265 -0.00306063 -0.00343813 0.00026437 -0.00141826 0.00008946
1699701496.808521 0.00001202 -0.00325021 -0.00311708 0.00023125 -0.00142394 0.00009731
1699701496.907523 -0.00003691 -0.00346848 -0.00261427 0.00019662 -0.00142300 0.00010484
1699701497.009525 -0.00006945 -0.00366180 -0.00227507 0.00020113 -0.00142579 0.00011565
1699701497.108527 -0.00014581 -0.00389187 -0.00189304 0.00016792 -0.00145476 0.00011628
1699701497.207529 -0.00023325 -0.00407399 -0.00164210 0.00013555 -0.00148029 0.00011603
1699701497.309531 -0.00032618 -0.00422090 -0.00145882 0.00013533 -0.00152187 0.00013520
1699701497.408533 -0.00046227 -0.00435219 -0.00139094 0.00011246 -0.00154234 0.00012851
1699701497.507535 -0.00059474 -0.00443480 -0.00147383 0.00009503 -0.00156316 0.00012033
1699701497.609538 -0.00071814 -0.00453191 -0.00148018 0.00010582 -0.00156792 0.00012124
1699701497.708540 -0.00081050 -0.00459121 -0.00131101 0.00011055 -0.00159586 0.00011186
1699701497.807542 -0.00084320 -0.00466967 -0.00113819 0.00011326 -0.00161372 0.00010264
1699701497.909544 -0.00087877 -0.00484494 -0.00111278 0.00012223 -0.00162706 0.00008139
1699701498.008546 -0.00091638 -0.00496352 -0.00116498 0.00013203 -0.00164070 0.00008130
1699701498.107548 -0.00094879 -0.00505008 -0.00125150 0.00013664 -0.00164413 0.00007991
1699701498.209550 -0.00097593 -0.00524083 -0.00166842 0.00013170 -0.00162868 0.00006106
1699701498.308553 -0.00101213 -0.00541695 -0.00181491 0.00013820 -0.00164687 0.00005931
1699701498.407555 -0.00106326 -0.00561075 -0.00201781 0.00014503 -0.00165949 0.00005519
1699701498.509557 -0.00111772 -0.00582541 -0.00240019 0.00014284 -0.00167395 0.00004602
1699701498.608559 -0.00115928 -0.00602884 -0.00259672 0.00014781 -0.00169165 0.00004023
1699701498.707561 -0.00118249 -0.00623859 -0.00277034 0.00015563 -0.00169672 0.00003427
1699701498.809563 -0.00119630 -0.00645187 -0.00306571 0.00015301 -0.00167915 0.00003505
1699701498.908565 -0.00123018 -0.00675590 -0.00323467 0.00015357 -0.00171277 0.00003641
1699701499.007567 -0.00126326 -0.00696497 -0.00354134 0.00015915 -0.00172608 0.00004015
1699701499.109570 -0.00127625 -0.00725945 -0.00387633 0.00016284 -0.00175101 0.00005227
1699701499.208572 -0.00129853 -0.00748420 -0.00419213 0.00016694 -0.00177673 0.00006131
1699701499.307574 -0.00134579 -0.00780030 -0.00433854 0.00016930 -0.00178431 0.00007119
1699701499.409576 -0.00137201 -0.00807456 -0.00425371 0.00016410 -0.00178634 0.00008450
1699701499.508578 -0.00145656 -0.00843789 -0.00398001 0.00015003 -0.00178209 0.00009485
1699701499.607580 -0.00153885 -0.00868113 -0.00389443 0.00013953 -0.00177003 0.00010529
1699701499.706582 -0.00164058 -0.00899285 -0.00381666 0.00015297 -0.00176694 0.00011416
1699701499.808584 -0.00173941 -0.00927872 -0.00387831 0.00016511 -0.00176136 0.00011258
1699701499.907587 -0.00176338 -0.00934687 -0.00398316 0.00016530 -0.00176017 0.00010931
1699701500.009589 -0.00178692 -0.00941495 -0.00413205 0.00016610 -0.00176272 0.00010294
1699701500.108591 -0.00190710 -0.00980174 -0.00441900 0.00016292 -0.00176149 0.00006622
1699701500.207593 -0.00194839 -0.00994069 -0.00458584 0.00016360 -0.00175413 0.00006008
1699701500.309595 -0.00218232 -0.01036844 -0.00387151 0.00006251 -0.00169915 0.00011800
1699701500.408597 -0.00227309 -0.01077679 -0.00417056 0.00012491 -0.00172769 0.00005203
1699701500.507599 -0.00232779 -0.01115750 -0.00461022 0.00014666 -0.00173383 0.00002176
1699701500.609601 -0.00233366 -0.01150531 -0.00505955 0.00012959 -0.00173641 -0.00002762
1699701500.708604 -0.00231816 -0.01183862 -0.00542448 0.00012539 -0.00174874 -0.00001385
1699701500.807606 -0.00229028 -0.01213595 -0.00580198 0.00012134 -0.00174644 -0.00000540
1699701500.909608 -0.00222522 -0.01233330 -0.00637647 0.00011642 -0.00175438 -0.00003388
1699701501.008610 -0.00219178 -0.01248193 -0.00648895 0.00010944 -0.00177344 -0.00002349
1699701501.107612 -0.00216687 -0.01265793 -0.00648377 0.00010697 -0.00178474 -0.00001765
1699701501.209614 -0.00212907 -0.01282455 -0.00651489 0.00011061 -0.00179375 -0.00002963
1699701501.308616 -0.00208152 -0.01301900 -0.00633201 0.00011065 -0.00180618 -0.00001627
1699701501.407619 -0.00207743 -0.01326175 -0.00609932 0.00011319 -0.00180450 -0.00000311
1699701501.509621 -0.00208883 -0.01346090 -0.00606609 0.00012042 -0.00181239 -0.00000837
1699701501.608623 -0.00215445 -0.01374473 -0.00601208 0.00011696 -0.00181763 -0.00000007
1699701501.707625 -0.00222268 -0.01407783 -0.00592144 0.00012144 -0.00181947 0.00000235
1699701501.809627 -0.00235445 -0.01431033 -0.00586459 0.00014809 -0.00183961 -0.00000839
1699701501.908629 -0.00243316 -0.01447191 -0.00564899 0.00016789 -0.00185323 -0.00000672
1699701502.007631 -0.00251716 -0.01470727 -0.00535921 0.00018651 -0.00185436 -0.00000738
1699701502.109633 -0.00264847 -0.01495400 -0.00512005 0.00021859 -0.00186922 -0.00001949
1699701502.208636 -0.00271759 -0.01511270 -0.00501221 0.00023148 -0.00187547 -0.00002007
1699701502.307638 -0.00270375 -0.01537948 -0.00481763 0.00025698 -0.00187305 -0.00001746
1699701502.409640 -0.00266633 -0.01555788 -0.00484751 0.00027724 -0.00188878 -0.00002434
1699701502.508642 -0.00256841 -0.01588105 -0.00465719 0.00030953 -0.00189280 -0.00002145
1699701502.607644 -0.00244709 -0.01628223 -0.00430071 0.00034246 -0.00188626 -0.00002371
1699701502.709646 -0.00238098 -0.01640933 -0.00411240 0.00036347 -0.00189133 -0.00003387
1699701502.808648 -0.00218968 -0.01650553 -0.00371173 0.00040528 -0.00190091 -0.00004084
1699701502.907650 -0.00200302 -0.01661875 -0.00337817 0.00043870 -0.00191516 -0.00004571
1699701503.009653 -0.00186960 -0.01659050 -0.00325598 0.00046107 -0.00193945 -0.00005533
1699701503.108655 -0.00161618 -0.01664417 -0.00309416 0.00049216 -0.00195660 -0.00006525
1699701503.207657 -0.00149720 -0.01671534 -0.00300683 0.00050984 -0.00196694 -0.00007158
1699701503.309659 -0.00120227 -0.01672376 -0.00293681 0.00053537 -0.00196437 -0.00006846
1699701503.408661 -0.00093707 -0.01686210 -0.00287495 0.00054344 -0.00198722 -0.00006904
1699701503.507663 -0.00037691 -0.01716246 -0.00293421 0.00054553 -0.00199773 -0.00006675
1699701503.609666 0.00005462 -0.01745967 -0.00296876 0.00056509 -0.00200723 -0.00004142
1699701503.708668 0.00060633 -0.01774593 -0.00285598 0.00056240 -0.00202442 -0.00004863
1699701503.807670 0.00104802 -0.01793002 -0.00261828 0.00055736 -0.00204502 -0.00005063
1699701503.909672 0.00139603 -0.01799267 -0.00246408 0.00057240 -0.00204369 -0.00003359
1699701504.008674 0.00172908 -0.01803510 -0.00233875 0.00057717 -0.00206601 -0.00004950
1699701504.107676 0.00209759 -0.01805851 -0.00224028 0.00058278 -0.00208904 -0.00006014
1699701504.209678 0.00240696 -0.01801866 -0.00225546 0.00058993 -0.00209604 -0.00005612
1699701504.308681 0.00286221 -0.01795151 -0.00214361 0.00060360 -0.00212173 -0.00006558
1699701504.407683 0.00330446 -0.01786850 -0.00200955 0.00061865 -0.00214065 -0.00007311
1699701504.506685 0.00381895 -0.01773421 -0.00188075 0.00063283 -0.00215041 -0.00007803
1699701504.608687 0.00426365 -0.01765244 -0.00176454 0.00064795 -0.00215232 -0.00007953
1699701504.707689 0.00485903 -0.01753996 -0.00160527 0.00066170 -0.00215605 -0.00007789
1699701504.809691 0.00552550 -0.01739317 -0.00143694 0.00066004 -0.00217655 -0.00009369
1699701504.908693 0.00631767 -0.01722632 -0.00141609 0.00066420 -0.00217797 -0.00008130
1699701505.007695 0.00722374 -0.01706930 -0.00145252 0.00066536 -0.00217604 -0.00006699
1699701505.109698 0.00835679 -0.01684944 -0.00154326 0.00066352 -0.00217976 -0.00005679
1699701505.208700 0.00903548 -0.01678208 -0.00152252 0.00065660 -0.00218805 -0.00005302
1699701505.307702 0.01030393 -0.01678927 -0.00140452 0.00063909 -0.00219833 -0.00004281
1699701505.406704 0.01108027 -0.01678372 -0.00133056 0.00063087 -0.00219745 -0.00003848
1699701505.508706 0.01203760 -0.01684148 -0.00120092 0.00061910 -0.00219217 -0.00003166
1699701505.607708 0.01303389 -0.01696138 -0.00095695 0.00060914 -0.00218513 -0.00003373
1699701505.706710 0.01405046 -0.01707024 -0.00057592 0.00060881 -0.00217086 -0.00003478
1699701505.808712 0.01502393 -0.01719044 -0.00013359 0.00061487 -0.00215788 -0.00003449
1699701505.907715 0.01597768 -0.01726797 0.00032972 0.00061973 -0.00215122 -0.00003101
1699701506.006717 0.01690599 -0.01730293 0.00064481 0.00062894 -0.00213528 -0.00003412
1699701506.108719 0.01784654 -0.01739787 0.00076319 0.00063857 -0.00212680 -0.00003743
1699701506.207721 0.01888437 -0.01753132 0.00078601 0.00065512 -0.00211967 -0.00004107
1699701506.306723 0.01980847 -0.01766826 0.00063054 0.00066122 -0.00210932 -0.00004400
1699701506.408725 0.02067775 -0.01782111 0.00028243 0.00066385 -0.00210752 -0.00004367
1699701506.507727 0.02156590 -0.01798317 -0.00027643 0.00066717 -0.00211291 -0.00004453
1699701506.609730 0.02250474 -0.01811140 -0.00086072 0.00064503 -0.00213712 -0.00005810
1699701506.708732 0.02353536 -0.01829369 -0.00145649 0.00064084 -0.00215513 -0.00005430
1699701506.807734 0.02462737 -0.01853341 -0.00184189 0.00063555 -0.00217555 -0.00005063
1699701506.909736 0.02577911 -0.01879496 -0.00197791 0.00062104 -0.00219576 -0.00004378
1699701507.008738 0.02723045 -0.01918454 -0.00181786 0.00061534 -0.00220991 -0.00004098
1699701507.107740 0.02816414 -0.01947628 -0.00161595 0.00061355 -0.00221964 -0.00003516
1699701507.209742 0.02940429 -0.01997796 -0.00134653 0.00062611 -0.00223187 -0.00001222
1699701507.308744 0.03055301 -0.02053621 -0.00114314 0.00062744 -0.00224647 -0.00002147
1699701507.407747 0.03166572 -0.02109690 -0.00105865 0.00063175 -0.00226785 -0.00002586
1699701507.506749 0.03274059 -0.02161577 -0.00115685 0.00063528 -0.00227571 -0.00002798
1699701507.608751 0.03383123 -0.02217621 -0.00124287 0.00063202 -0.00228790 -0.00002906
1699701507.707753 0.03511375 -0.02281671 -0.00150744 0.00063080 -0.00230056 -0.00003020
1699701507.809755 0.03626059 -0.02338057 -0.00174736 0.00062111 -0.00230768 -0.00003661
1699701507.908757 0.03753856 -0.02408996 -0.00204136 0.00061545 -0.00233894 -0.00003622
1699701508.007759 0.03865556 -0.02471901 -0.00232418 0.00061123 -0.00235847 -0.00003237
1699701508.106761 0.03990383 -0.02549629 -0.00279171 0.00060508 -0.00236558 -0.00003261
1699701508.208764 0.04097840 -0.02616479 -0.00324166 0.00060117 -0.00237033 -0.00003196
1699701508.307766 0.04214381 -0.02695084 -0.00372389 0.00058576 -0.00240431 -0.00002992
1699701508.409768 0.04338960 -0.02774723 -0.00418726 0.00057826 -0.00242619 -0.00002201
1699701508.508770 0.04485681 -0.02867855 -0.00470820 0.00056605 -0.00243946 -0.00002171
1699701508.607772 0.04591397 -0.02935527 -0.00494712 0.00055150 -0.00244018 -0.00002017
1699701508.709774 0.04700155 -0.03015535 -0.00503356 0.00055364 -0.00243274 -0.00003137
1699701508.808776 0.04794802 -0.03086767 -0.00522726 0.00054075 -0.00244896 -0.00003797
1699701508.907779 0.04929884 -0.03187790 -0.00573120 0.00053144 -0.00247516 -0.00003763
1699701509.009781 0.05036891 -0.03262803 -0.00610025 0.00053635 -0.00247370 -0.00003428
1699701509.108783 0.05170600 -0.03361228 -0.00594718 0.00053403 -0.00250785 -0.00002138
1699701509.207785 0.05325254 -0.03474288 -0.00621922 0.00053816 -0.00252853 -0.00002446
1699701509.309787 0.05429241 -0.03553057 -0.00624777 0.00053835 -0.00252403 -0.00003244
1699701509.408789 0.05572374 -0.03669414 -0.00597344 0.00052499 -0.00252237 -0.00003030
1699701509.507791 0.05712605 -0.03784812 -0.00567379 0.00053127 -0.00252674 -0.00004251
1699701509.606793 0.05878565 -0.03905243 -0.00557992 0.00052822 -0.00252468 -0.00004959
1699701509.708796 0.06024738 -0.04011246 -0.00514893 0.00052422 -0.00251274 -0.00005167
1699701509.807798 0.06100471 -0.04089944 -0.00871343 0.00054187 -0.00259311 -0.00009098
1699701509.909800 0.06277725 -0.04211331 -0.00652964 0.00053002 -0.00252855 -0.00005857
1699701510.008802 0.06450580 -0.04327647 -0.00578321 0.00053021 -0.00251510 -0.00005331
1699701510.107804 0.06618947 -0.04438973 -0.00566369 0.00053399 -0.00252206 -0.00005442
1699701510.209806 0.06760967 -0.04531559 -0.00566670 0.00053200 -0.00253153 -0.00005772
1699701510.308809 0.06976684 -0.04625811 -0.00524164 0.00045358 -0.00255011 0.00011986
1699701510.407810 0.07173490 -0.04718199 -0.00492950 0.00052079 -0.00256311 -0.00000245
1699701510.509813 0.07358805 -0.04802848 -0.00479445 0.00050226 -0.00254781 -0.00000872
1699701510.608815 0.07520819 -0.04876731 -0.00477134 0.00051325 -0.00255226 -0.00001145
1699701510.707817 0.07642429 -0.04937116 -0.00473006 0.00052117 -0.00255706 -0.00000251
1699701510.809819 0.07746523 -0.04984996 -0.00478395 0.00053673 -0.00253943 0.00002232
1699701510.908821 0.07835532 -0.05033738 -0.00487412 0.00053811 -0.00255929 -0.00000048
1699701511.007823 0.07915201 -0.05078767 -0.00506029 0.00054735 -0.00257367 -0.00001445
1699701511.106826 0.07985555 -0.05120872 -0.00539937 0.00056087 -0.00257524 -0.00002925
1699701511.208828 0.08038044 -0.05150370 -0.00575516 0.00056710 -0.00257555 -0.00003472
1699701511.307830 0.08087769 -0.05171607 -0.00605721 0.00057014 -0.00257795 -0.00004611
1699701511.409832 0.08122648 -0.05185272 -0.00609397 0.00057938 -0.00258923 -0.00005190
1699701511.508834 0.08166015 -0.05198249 -0.00606518 0.00060231 -0.00259198 -0.00006872
1699701511.607836 0.08196841 -0.05207517 -0.00610009 0.00062141 -0.00259677 -0.00007678
1699701511.706838 0.08226768 -0.05211989 -0.00607801 0.00063460 -0.00259161 -0.00008369
1699701511.808841 0.08263435 -0.05211320 -0.00587336 0.00065548 -0.00258702 -0.00009315
1699701511.907843 0.08292754 -0.05209323 -0.00561250 0.00066720 -0.00259412 -0.00010119
1699701512.006845 0.08334208 -0.05201355 -0.00546296 0.00068166 -0.00258700 -0.00010947
1699701512.108847 0.08361456 -0.05198051 -0.00547406 0.00068926 -0.00258814 -0.00011526
1699701512.207849 0.08396070 -0.05194153 -0.00563866 0.00069290 -0.00260761 -0.00012065
1699701512.306851 0.08424872 -0.05192249 -0.00589291 0.00069164 -0.00260722 -0.00012477
1699701512.408853 0.08462565 -0.05190631 -0.00621703 0.00068881 -0.00260577 -0.00013051
1699701512.507855 0.08502595 -0.05190568 -0.00643263 0.00069427 -0.00262257 -0.00012966
1699701512.606858 0.08535651 -0.05191109 -0.00662493 0.00069729 -0.00262056 -0.00013531
1699701512.708860 0.08578197 -0.05193403 -0.00675017 0.00069104 -0.00262108 -0.00014367
1699701512.807862 0.08616584 -0.05196350 -0.00680888 0.00069096 -0.00261615 -0.00014886
1699701512.906864 0.08662601 -0.05198682 -0.00695197 0.00068840 -0.00260967 -0.00015155
1699701513.008866 0.08703308 -0.05201835 -0.00707333 0.00069117 -0.00261998 -0.00015613
1699701513.107868 0.08745967 -0.05206187 -0.00675139 0.00068466 -0.00265019 -0.00015558
1699701513.209870 0.08800029 -0.05212593 -0.00609324 0.00067768 -0.00266680 -0.00014154
1699701513.308872 0.08844291 -0.05217383 -0.00591710 0.00067675 -0.00266266 -0.00014434
1699701513.407875 0.08897236 -0.05225207 -0.00553694 0.00067518 -0.00267499 -0.00013964
1699701513.506877 0.08941247 -0.05230147 -0.00555964 0.00067243 -0.00267296 -0.00013954
1699701513.608879 0.08991394 -0.05233847 -0.00545804 0.00067185 -0.00267317 -0.00013648
1699701513.707881 0.09034520 -0.05237170 -0.00533216 0.00066510 -0.00266922 -0.00013634
1699701513.806883 0.09092001 -0.05241786 -0.00540088 0.00066052 -0.00266238 -0.00013540
1699701513.908885 0.09133639 -0.05245011 -0.00550302 0.00065878 -0.00266082 -0.00013548
1699701514.007887 0.09178532 -0.05245325 -0.00568722 0.00065325 -0.00265757 -0.00013279
1699701514.106889 0.09212725 -0.05245609 -0.00575563 0.00065269 -0.00264678 -0.00013862
1699701514.208892 0.09241458 -0.05246833 -0.00581391 0.00065016 -0.00264301 -0.00014151
1699701514.307894 0.09262284 -0.05250793 -0.00597167 0.00064693 -0.00264134 -0.00014278
1699701514.406896 0.09280392 -0.05250853 -0.00608857 0.00064418 -0.00263458 -0.00014168
1699701514.508898 0.09293959 -0.05251502 -0.00614551 0.00064306 -0.00263269 -0.00014387
1699701514.607900 0.09307064 -0.05246408 -0.00629682 0.00063846 -0.00264422 -0.00014495
1699701514.706902 0.09315982 -0.05242471 -0.00657045 0.00063668 -0.00263979 -0.00014931
1699701514.808904 0.09319844 -0.05239926 -0.00684495 0.00062981 -0.00263786 -0.00015100
1699701514.907907 0.09312361 -0.05240042 -0.00715972 0.00061745 -0.00263850 -0.00015094
1699701515.006909 0.09301025 -0.05240842 -0.00738944 0.00061072 -0.00263367 -0.00015468
1699701515.108911 0.09282747 -0.05240433 -0.00752501 0.00060423 -0.00262936 -0.00015409
1699701515.207913 0.09254461 -0.05229050 -0.00753935 0.00059826 -0.00264146 -0.00014824
1699701515.306915 0.09216154 -0.05211726 -0.00749101 0.00059748 -0.00263979 -0.00014586
1699701515.408917 0.09178613 -0.05196170 -0.00744042 0.00059496 -0.00264142 -0.00014799
1699701515.507919 0.09128584 -0.05177515 -0.00732827 0.00058913 -0.00264145 -0.00015051
1699701515.609921 0.09080957 -0.05169635 -0.00732342 0.00058673 -0.00263981 -0.00015441
1699701515.708924 0.09024389 -0.05154741 -0.00723456 0.00058075 -0.00263421 -0.00015209
1699701515.807926 0.08961675 -0.05132812 -0.00717683 0.00057100 -0.00264309 -0.00015291
1699701515.906928 0.08902297 -0.05112358 -0.00731337 0.00056885 -0.00263646 -0.00015580
1699701516.008930 0.08829951 -0.05083008 -0.00732454 0.00056445 -0.00263480 -0.00015924
1699701516.107932 0.08748365 -0.05053699 -0.00727211 0.00055658 -0.00263482 -0.00015892
1699701516.206934 0.08664577 -0.05023801 -0.00724919 0.00055210 -0.00262515 -0.00016124
1699701516.308936 0.08593437 -0.04999530 -0.00725253 0.00054705 -0.00262615 -0.00016209
1699701516.407938 0.08506086 -0.04971790 -0.00725756 0.00054397 -0.00262871 -0.00016886
1699701516.506941 0.08427063 -0.04947097 -0.00739161 0.00053853 -0.00262639 -0.00016741
1699701516.608943 0.08352529 -0.04919953 -0.00724017 0.00053903 -0.00262657 -0.00017028
1699701516.707945 0.08279513 -0.04893696 -0.00703118 0.00053774 -0.00264365 -0.00017235
1699701516.806947 0.08215847 -0.04868137 -0.00699656 0.00053182 -0.00264445 -0.00017261
1699701516.908949 0.08147506 -0.04842115 -0.00724387 0.00052687 -0.00264566 -0.00017599
1699701517.007951 0.08082458 -0.04817178 -0.00747148 0.00052132 -0.00266916 -0.00018071
1699701517.106953 0.08009151 -0.04790190 -0.00777326 0.00051864 -0.00267141 -0.00018521
1699701517.208956 0.07945508 -0.04766626 -0.00785435 0.00051552 -0.00266999 -0.00018636
1699701517.307958 0.07878315 -0.04740991 -0.00778805 0.00051356 -0.00267709 -0.00019041
1699701517.406960 0.07819009 -0.04719515 -0.00764876 0.00050849 -0.00266903 -0.00019199
1699701517.508962 0.07751953 -0.04697479 -0.00747581 0.00050506 -0.00266832 -0.00019742
1699701517.607964 0.07693747 -0.04678364 -0.00738577 0.00050715 -0.00266923 -0.00019910
1699701517.706966 0.07641033 -0.04660698 -0.00738361 0.00050929 -0.00266513 -0.00020648
1699701517.808969 0.07579418 -0.04639525 -0.00751962 0.00051225 -0.00265909 -0.00021720
1699701517.907971 0.07517270 -0.04618960 -0.00757020 0.00051024 -0.00266703 -0.00022037
1699701518.006973 0.07464262 -0.04602637 -0.00759193 0.00050703 -0.00266073 -0.00022180
1699701518.108975 0.07399882 -0.04585013 -0.00760329 0.00050778 -0.00266185 -0.00022946
1699701518.207977 0.07333703 -0.04567971 -0.00757779 0.00050763 -0.00267155 -0.00023342
1699701518.306979 0.07279307 -0.04554752 -0.00762475 0.00050755 -0.00266747 -0.00023896
1699701518.408981 0.07214693 -0.04544279 -0.00761468 0.00049705 -0.00268224 -0.00024282
1699701518.507983 0.07156617 -0.04530892 -0.00778502 0.00049494 -0.00267714 -0.00024521
1699701518.606986 0.07100575 -0.04515073 -0.00786585 0.00049589 -0.00267207 -0.00025372
1699701518.708988 0.07035038 -0.04492502 -0.00791256 0.00049583 -0.00266995 -0.00026100
1699701518.807990 0.06976581 -0.04472471 -0.00780878 0.00048734 -0.00267787 -0.00026252
1699701518.906992 0.06920993 -0.04451880 -0.00781679 0.00047830 -0.00267460 -0.00026544
1699701519.008994 0.06857220 -0.04428803 -0.00793419 0.00047491 -0.00267800 -0.00026016
1699701519.107996 0.06771850 -0.04396552 -0.00817206 0.00047393 -0.00269990 -0.00026427
1699701519.206998 0.06693351 -0.04366858 -0.00860906 0.00046699 -0.00270249 -0.00026640
1699701519.309000 0.06603658 -0.04333483 -0.00930530 0.00046115 -0.00273592 -0.00027254
1699701519.408003 0.06522431 -0.04305242 -0.00963694 0.00044680 -0.00274494 -0.00027114
1699701519.510005 0.06437662 -0.04283774 -0.00984051 0.00043913 -0.00276260 -0.00026373
1699701519.609007 0.06351459 -0.04262774 -0.00978747 0.00043555 -0.00277091 -0.00026219
1699701519.708009 0.06269694 -0.04241454 -0.00988882 0.00043066 -0.00277916 -0.00026883
1699701519.807011 0.06200016 -0.04223359 -0.00981067 0.00042437 -0.00278424 -0.00027177
1699701519.909013 0.06118421 -0.04208864 -0.00949598 0.00042131 -0.00279913 -0.00027898
1699701520.008015 0.06046653 -0.04192452 -0.00913659 0.00041245 -0.00280114 -0.00028420
1699701520.107018 0.05970963 -0.04174633 -0.00913399 0.00040748 -0.00280062 -0.00028834
1699701520.209020 0.05906323 -0.04159965 -0.00877081 0.00041518 -0.00281532 -0.00029324
1699701520.308022 0.05825422 -0.04134611 -0.00842254 0.00040498 -0.00280141 -0.00029909
1699701520.407024 0.05753216 -0.04105362 -0.00845708 0.00039975 -0.00279947 -0.00030658
1699701520.509026 0.05659837 -0.04071798 -0.00844842 0.00040663 -0.00280945 -0.00031697
1699701520.608028 0.05585567 -0.04046207 -0.00809055 0.00040294 -0.00281584 -0.00031630
1699701520.707030 0.05493089 -0.04008189 -0.00775310 0.00039295 -0.00280384 -0.00032235
1699701520.809032 0.05416687 -0.03979087 -0.00759161 0.00039728 -0.00279645 -0.00032106
1699701520.908035 0.05307762 -0.03943342 -0.00727523 0.00040326 -0.00278040 -0.00031084
1699701521.007037 0.05203257 -0.03912253 -0.00759317 0.00040775 -0.00277963 -0.00031368
1699701521.109039 0.05085769 -0.03884230 -0.00767519 0.00040744 -0.00276684 -0.00030733
1699701521.208041 0.04978759 -0.03861772 -0.00795117 0.00040562 -0.00278083 -0.00030538
1699701521.307043 0.04865072 -0.03835953 -0.00838685 0.00040173 -0.00279135 -0.00030359
1699701521.409045 0.04762340 -0.03817665 -0.00867457 0.00039428 -0.00278492 -0.00030463
1699701521.508047 0.04661742 -0.03792650 -0.00897483 0.00041075 -0.00281351 -0.00030739
1699701521.607049 0.04582418 -0.03768407 -0.00928596 0.00041507 -0.00281936 -0.00030910
1699701521.709052 0.04502323 -0.03737061 -0.00934878 0.00040833 -0.00284825 -0.00031910
1699701521.808054 0.04430291 -0.03708743 -0.00915205 0.00042144 -0.00284076 -0.00032400
1699701521.907056 0.04335390 -0.03665792 -0.00938215 0.00043289 -0.00285434 -0.00033611
1699701522.009058 0.04259427 -0.03634909 -0.00925344 0.00043084 -0.00286487 -0.00033476
1699701522.108060 0.04172068 -0.03590902 -0.00906015 0.00043819 -0.00286911 -0.00034846
1699701522.207062 0.04100260 -0.03553690 -0.00872259 0.00044160 -0.00285685 -0.00035324
1699701522.309064 0.04023283 -0.03510771 -0.00827249 0.00043769 -0.00287211 -0.00035383
1699701522.408067 0.03957391 -0.03477445 -0.00814935 0.00043569 -0.00286541 -0.00035564
1699701522.507069 0.03885739 -0.03432310 -0.00794116 0.00042430 -0.00285930 -0.00035056
1699701522.609071 0.03810201 -0.03394385 -0.00774539 0.00042649 -0.00286445 -0.00035109
1699701522.708073 0.03752485 -0.03366661 -0.00766886 0.00043210 -0.00285990 -0.00034766
1699701522.807075 0.03710391 -0.03322295 -0.00776266 0.00042898 -0.00284987 -0.00033449
1699701522.909077 0.03675045 -0.03291662 -0.00762087 0.00042417 -0.00286152 -0.00033680
1699701523.008079 0.03631808 -0.03261257 -0.00748690 0.00042722 -0.00284576 -0.00033604
1699701523.107081 0.03586614 -0.03235495 -0.00740254 0.00042592 -0.00283508 -0.00033615
1699701523.209084 0.03546085 -0.03213071 -0.00717716 0.00042029 -0.00283562 -0.00033691
1699701523.308086 0.03505071 -0.03190652 -0.00712577 0.00040751 -0.00284851 -0.00033948
1699701523.407088 0.03451558 -0.03160685 -0.00719822 0.00040195 -0.00284090 -0.00033700
1699701523.509090 0.03413910 -0.03141163 -0.00699955 0.00040123 -0.00284755 -0.00033512
1699701523.608092 0.03366345 -0.03114830 -0.00713580 0.00039239 -0.00284403 -0.00033299
1699701523.707094 0.03328528 -0.03093254 -0.00725397 0.00038891 -0.00283990 -0.00033361
1699701523.809096 0.03281982 -0.03066159 -0.00712741 0.00038173 -0.00284232 -0.00032568
1699701523.908098 0.03259247 -0.03053402 -0.00716177 0.00038030 -0.00283981 -0.00032600
1699701524.007101 0.03210841 -0.03027535 -0.00726053 0.00037572 -0.00283588 -0.00031635
1699701524.109103 0.03171774 -0.03007196 -0.00717594 0.00037731 -0.00285276 -0.00031599
1699701524.208105 0.03098304 -0.03052485 0.00237855 0.00049928 -0.00264350 -0.00029365
1699701524.307107 0.03049157 -0.03033699 -0.00482016 0.00038661 -0.00282301 -0.00032084
1699701524.409109 0.03013118 -0.03020989 -0.00663473 0.00037983 -0.00283601 -0.00032277
1699701524.508111 0.02979414 -0.03009091 -0.00736591 0.00037767 -0.00283695 -0.00032499
1699701524.607113 0.02946776 -0.02998043 -0.00769767 0.00037802 -0.00283585 -0.00032215
1699701524.709116 0.02878621 -0.02985204 0.00177656 0.00051863 -0.00252965 -0.00030145
1699701524.808118 0.02837092 -0.02972491 -0.00430083 0.00037354 -0.00279255 -0.00032312
1699701524.907120 0.02812293 -0.02963309 -0.00638843 0.00036082 -0.00281358 -0.00031426
1699701525.009122 0.02797989 -0.02958031 -0.00706587 0.00036132 -0.00277488 -0.00029756
1699701525.108124 0.02785194 -0.02950478 -0.00739151 0.00034715 -0.00278707 -0.00030004
1699701525.210126 0.02782102 -0.02944464 -0.00778190 0.00035154 -0.00276032 -0.00027401
1699701525.309129 0.02785081 -0.02940409 -0.00813236 0.00035554 -0.00274617 -0.00025849
1699701525.408131 0.02773827 -0.02935105 -0.00779520 0.00034705 -0.00276469 -0.00028455
1699701525.507133 0.02760255 -0.02932200 -0.00756922 0.00034469 -0.00276115 -0.00029052
1699701525.609135 0.02758468 -0.02932350 -0.00758045 0.00035406 -0.00274536 -0.00025175
1699701525.708137 0.02755655 -0.02938550 -0.00769447 0.00035358 -0.00274377 -0.00026924
1699701525.807139 0.02753056 -0.02944987 -0.00780798 0.00034822 -0.00274108 -0.00027725
1699701525.909141 0.02756923 -0.02954494 -0.00797148 0.00035323 -0.00274188 -0.00025289
1699701526.008143 0.02758176 -0.02970274 -0.00810853 0.00035600 -0.00272750 -0.00026446
1699701526.110146 0.02754610 -0.02979059 -0.00803653 0.00036067 -0.00272906 -0.00025396
1699701526.209148 0.02754159 -0.02993467 -0.00798231 0.00037212 -0.00273035 -0.00025348
1699701526.308150 0.02748133 -0.03011951 -0.00806988 0.00040095 -0.00271266 -0.00026000
1699701526.407152 0.02738598 -0.03025159 -0.00796550 0.00041931 -0.00270205 -0.00026606
1699701526.509154 0.02726631 -0.03033826 -0.00773557 0.00042533 -0.00271622 -0.00027735
1699701526.608156 0.02711000 -0.03041023 -0.00769255 0.00044829 -0.00270169 -0.00027771
1699701526.710158 0.02686179 -0.03056561 -0.00755549 0.00044732 -0.00271189 -0.00028705
1699701526.809160 0.02652982 -0.03069438 -0.00747290 0.00045464 -0.00271953 -0.00028999
1699701526.908163 0.02600782 -0.03069810 -0.00736093 0.00048090 -0.00270519 -0.00028010
1699701527.007165 0.02534083 -0.03061839 -0.00719445 0.00049652 -0.00269719 -0.00027072
1699701527.109167 0.02466309 -0.03047285 -0.00694324 0.00049117 -0.00270132 -0.00025265
1699701527.208169 0.02382130 -0.03023138 -0.00669871 0.00049447 -0.00269407 -0.00023835
1699701527.307171 0.02293062 -0.02988856 -0.00642105 0.00049554 -0.00267884 -0.00022493
1699701527.409173 0.02218606 -0.02946018 -0.00618955 0.00048914 -0.00267412 -0.00019994
1699701527.508175 0.02142569 -0.02893744 -0.00598032 0.00048793 -0.00267359 -0.00020625
1699701527.607177 0.02070962 -0.02828266 -0.00582831 0.00048631 -0.00266553 -0.00020627
1699701527.709180 0.02015165 -0.02768857 -0.00593389 0.00049148 -0.00265720 -0.00018819
1699701527.808182 0.01967152 -0.02700943 -0.00589308 0.00047987 -0.00266030 -0.00020376
1699701527.907184 0.01923140 -0.02616639 -0.00577675 0.00047364 -0.00265468 -0.00020911
1699701528.009186 0.01881309 -0.02538691 -0.00575472 0.00047885 -0.00264615 -0.00019000
1699701528.108188 0.01829516 -0.02462515 -0.00580690 0.00046537 -0.00264988 -0.00020168
1699701528.207190 0.01784124 -0.02369661 -0.00583106 0.00045171 -0.00265371 -0.00020499
1699701528.309192 0.01746618 -0.02275879 -0.00594541 0.00046027 -0.00265289 -0.00019422
1699701528.408195 0.01711731 -0.02176759 -0.00611500 0.00045215 -0.00265482 -0.00020758
1699701528.507197 0.01682271 -0.02066978 -0.00629869 0.00044692 -0.00265131 -0.00021621
1699701528.609199 0.01658911 -0.01932349 -0.00638712 0.00044667 -0.00265129 -0.00023236
1699701528.708201 0.01655244 -0.01799423 -0.00623532 0.00044708 -0.00264583 -0.00023107
1699701528.807203 0.01666541 -0.01662205 -0.00596151 0.00044458 -0.00264991 -0.00023608
1699701528.909205 0.01677286 -0.01541919 -0.00563889 0.00043321 -0.00265074 -0.00024906
1699701529.008207 0.01688132 -0.01413078 -0.00538093 0.00043212 -0.00265555 -0.00024085
1699701529.107209 0.01678693 -0.01282215 -0.00513480 0.00042741 -0.00265989 -0.00023804
1699701529.209212 0.01643834 -0.01159632 -0.00492094 0.00041983 -0.00265468 -0.00024197
1699701529.308214 0.01582919 -0.01019399 -0.00454068 0.00041491 -0.00267062 -0.00022858
1699701529.407216 0.01509047 -0.00868510 -0.00424945 0.00041661 -0.00268859 -0.00022679
1699701529.509218 0.01401207 -0.00719658 -0.00398934 0.00040564 -0.00269179 -0.00022646
1699701529.608220 0.01289307 -0.00569754 -0.00374278 0.00039885 -0.00269778 -0.00022096
1699701529.707222 0.01202764 -0.00428800 -0.00351595 0.00039391 -0.00270742 -0.00021938
1699701529.809224 0.01063438 -0.00235683 -0.00329644 0.00038775 -0.00271438 -0.00021715
1699701529.908226 0.00943714 -0.00063982 -0.00311392 0.00038647 -0.00272206 -0.00021229
1699701530.007229 0.00817378 0.00121024 -0.00301667 0.00038751 -0.00272865 -0.00021430
1699701530.109231 0.00699052 0.00302044 -0.00291430 0.00038869 -0.00272970 -0.00021336
1699701530.208233 0.00562713 0.00530396 -0.00264770 0.00038869 -0.00274208 -0.00021665
1699701530.307235 0.00437210 0.00732341 -0.00238495 0.00038554 -0.00274914 -0.00021755
1699701530.409237 0.00281111 0.00932770 -0.00241715 0.00038525 -0.00275267 -0.00021945
1699701530.508239 0.00155430 0.01118930 -0.00256669 0.00038860 -0.00274633 -0.00022088
1699701530.607241 0.00019082 0.01312249 -0.00277990 0.00038524 -0.00274034 -0.00022067
1699701530.709244 -0.00116871 0.01474387 -0.00301005 0.00038558 -0.00272922 -0.00021619
1699701530.808246 -0.00244224 0.01626012 -0.00329000 0.00038250 -0.00272773 -0.00021531
1699701530.907248 -0.00372162 0.01800569 -0.00368381 0.00038027 -0.00273073 -0.00021464
1699701531.009250 -0.00450460 0.01897130 -0.00390169 0.00038406 -0.00273367 -0.00021512
1699701531.108252 -0.00513198 0.02008157 -0.00424376 0.00038513 -0.00272935 -0.00022209
1699701531.207254 -0.00549417 0.02078221 -0.00439146 0.00038726 -0.00273301 -0.00022776
1699701531.309257 -0.00544517 0.02119518 -0.00459081 0.00039650 -0.00274117 -0.00023646
1699701531.408259 -0.00536103 0.02195032 -0.00471548 0.00039849 -0.00274091 -0.00023730
1699701531.507261 -0.00567313 0.02307236 -0.00463315 0.00040387 -0.00274400 -0.00024067
1699701531.609263 -0.00600897 0.02385564 -0.00458627 0.00041111 -0.00275008 -0.00024834
1699701531.708265 -0.00670648 0.02481745 -0.00440599 0.00041713 -0.00274081 -0.00025120
1699701531.807267 -0.00737080 0.02562317 -0.00426902 0.00042429 -0.00273761 -0.00025700
1699701531.909269 -0.00851199 0.02576786 -0.00415932 0.00041839 -0.00273172 -0.00025892
1699701532.008271 -0.00961793 0.02562741 -0.00417650 0.00042390 -0.00273427 -0.00026051
1699701532.107274 -0.01041699 0.02548324 -0.00405028 0.00042298 -0.00273239 -0.00026014
1699701532.209276 -0.01198428 0.02502040 -0.00417621 0.00042230 -0.00272427 -0.00025471
1699701532.308278 -0.01269898 0.02496370 -0.00365062 0.00042931 -0.00272748 -0.00026015
1699701532.407280 -0.01382062 0.02448885 -0.00397604 0.00042092 -0.00274739 -0.00024848
1699701532.509282 -0.01447895 0.02385287 -0.00412958 0.00041905 -0.00275377 -0.00025135
1699701532.608284 -0.01490749 0.02350476 -0.00440576 0.00041499 -0.00276215 -0.00024796
1699701532.707286 -0.01520686 0.02315710 -0.00444284 0.00040871 -0.00276624 -0.00024723
1699701532.806288 -0.01537549 0.02294918 -0.00443200 0.00040350 -0.00276798 -0.00024506
1699701532.908291 -0.01528927 0.02258095 -0.00446167 0.00040728 -0.00276740 -0.00024586
1699701533.007293 -0.01507057 0.02209399 -0.00439908 0.00040376 -0.00276880 -0.00024242
1699701533.106295 -0.01466105 0.02161425 -0.00439124 0.00039674 -0.00276425 -0.00024230
1699701533.208297 -0.01413745 0.02105439 -0.00425606 0.00039360 -0.00275799 -0.00024621
1699701533.307299 -0.01366096 0.02042709 -0.00419964 0.00039349 -0.00275429 -0.00025129
1699701533.406301 -0.01293693 0.01936819 -0.00421956 0.00040256 -0.00274798 -0.00025796
1699701533.508303 -0.01231950 0.01842833 -0.00455364 0.00040703 -0.00275104 -0.00026157
1699701533.607306 -0.01137372 0.01696468 -0.00474692 0.00041931 -0.00275307 -0.00027477
1699701533.709308 -0.01082139 0.01586587 -0.00476382 0.00042423 -0.00276003 -0.00027410
1699701533.808310 -0.01046909 0.01522853 -0.00500211 0.00042549 -0.00275028 -0.00027760
1699701533.907312 -0.01022433 0.01483327 -0.00535019 0.00042524 -0.00275006 -0.00027718
1699701534.009314 -0.01012398 0.01459524 -0.00534046 0.00043010 -0.00276213 -0.00026293
1699701534.108316 -0.01014793 0.01446834 -0.00567405 0.00042844 -0.00275387 -0.00026725
1699701534.207318 -0.01029345 0.01443274 -0.00591938 0.00042960 -0.00275329 -0.00026505
1699701534.309320 -0.01041201 0.01440360 -0.00596913 0.00043560 -0.00277173 -0.00024717
1699701534.408323 -0.01040805 0.01435614 -0.00610997 0.00043187 -0.00276037 -0.00025591
1699701534.507325 -0.01036090 0.01431518 -0.00613527 0.00042852 -0.00275723 -0.00025624
1699701534.609327 -0.01013595 0.01430421 -0.00594850 0.00043312 -0.00276271 -0.00023765
1699701534.708329 -0.00997081 0.01420264 -0.00573929 0.00043143 -0.00275326 -0.00024863
1699701534.807331 -0.00979418 0.01407452 -0.00551555 0.00043768 -0.00275359 -0.00025302
1699701534.909333 -0.00950406 0.01386849 -0.00530721 0.00043827 -0.00275189 -0.00023944
1699701535.008335 -0.00933384 0.01366455 -0.00520548 0.00044665 -0.00275603 -0.00024312
1699701535.107337 -0.00930145 0.01337869 -0.00520083 0.00045208 -0.00275660 -0.00024107
1699701535.209340 -0.00925771 0.01314938 -0.00511635 0.00045100 -0.00276397 -0.00022633
1699701535.308342 -0.00939085 0.01295422 -0.00524752 0.00045550 -0.00276122 -0.00022725
1699701535.407344 -0.00962764 0.01290756 -0.00529457 0.00046261 -0.00277435 -0.00022570
1699701535.506346 -0.00994242 0.01312712 -0.00537132 0.00046328 -0.00277282 -0.00022159
1699701535.608348 -0.01019595 0.01354476 -0.00542617 0.00046398 -0.00277402 -0.00021855
1699701535.707350 -0.01047950 0.01415223 -0.00534708 0.00046417 -0.00278659 -0.00021626
1699701535.809352 -0.01052742 0.01478568 -0.00529833 0.00046516 -0.00278514 -0.00020373
1699701535.908355 -0.01065502 0.01539347 -0.00521502 0.00046571 -0.00278605 -0.00020710
1699701536.007357 -0.01080954 0.01606951 -0.00509592 0.00046535 -0.00279722 -0.00020657
1699701536.106359 -0.01094067 0.01684366 -0.00502453 0.00046407 -0.00280551 -0.00020494
1699701536.208361 -0.01095762 0.01768736 -0.00501151 0.00046316 -0.00281348 -0.00020516
1699701536.307363 -0.01100728 0.01851294 -0.00503745 0.00046046 -0.00283267 -0.00020832
1699701536.409365 -0.01101469 0.01922685 -0.00501710 0.00045658 -0.00283485 -0.00020865
1699701536.508367 -0.01149097 0.01994274 -0.00492615 0.00045394 -0.00283193 -0.00020496
1699701536.607369 -0.01223263 0.02072192 -0.00489787 0.00045035 -0.00283017 -0.00020062
1699701536.709372 -0.01268380 0.02139882 -0.00494048 0.00045762 -0.00282185 -0.00018641
1699701536.808374 -0.01305611 0.02187873 -0.00496129 0.00045795 -0.00282431 -0.00018984
1699701536.907376 -0.01309519 0.02214460 -0.00503003 0.00045989 -0.00282767 -0.00018827
1699701537.009378 -0.01267224 0.02226099 -0.00514763 0.00047904 -0.00282140 -0.00016258
1699701537.108380 -0.01252991 0.02210594 -0.00518021 0.00047530 -0.00281920 -0.00018004
1699701537.207382 -0.01231588 0.02192064 -0.00520959 0.00047994 -0.00281475 -0.00018881
1699701537.309384 -0.01177721 0.02195549 -0.00526730 0.00049389 -0.00281633 -0.00016497
1699701537.408386 -0.01136651 0.02181535 -0.00535373 0.00050429 -0.00281343 -0.00018375
1699701537.507389 -0.01102399 0.02164727 -0.00540243 0.00051017 -0.00281174 -0.00019428
1699701537.609391 -0.01048655 0.02148041 -0.00536069 0.00051486 -0.00282015 -0.00017595
1699701537.708393 -0.00970549 0.02097347 -0.00522223 0.00051960 -0.00281620 -0.00019413
1699701537.807395 -0.00865514 0.02041820 -0.00508119 0.00054326 -0.00281388 -0.00020426
1699701537.909397 -0.00714878 0.02005011 -0.00504107 0.00056234 -0.00281630 -0.00019218
1699701538.008399 -0.00578047 0.01972528 -0.00521673 0.00058170 -0.00281466 -0.00020779
1699701538.107401 -0.00464478 0.01937167 -0.00538420 0.00059971 -0.00282266 -0.00021391
1699701538.206403 -0.00342863 0.01886350 -0.00533814 0.00060746 -0.00282103 -0.00021678
1699701538.308406 -0.00201518 0.01775081 -0.00514590 0.00060882 -0.00282739 -0.00021226
1699701538.407408 -0.00056724 0.01576904 -0.00485313 0.00061022 -0.00284001 -0.00020461
1699701538.509410 0.00089852 0.01350480 -0.00463735 0.00060282 -0.00284666 -0.00018707
1699701538.608412 0.00207760 0.01121326 -0.00460161 0.00060513 -0.00285671 -0.00019174
1699701538.707414 0.00262946 0.00944366 -0.00475137 0.00060869 -0.00286694 -0.00019476
1699701538.806416 0.00264042 0.00837184 -0.00501667 0.00061116 -0.00286804 -0.00019791
1699701538.908419 0.00240086 0.00803687 -0.00524771 0.00061588 -0.00287233 -0.00020100
1699701539.007421 0.00192252 0.00824314 -0.00545640 0.00062406 -0.00288269 -0.00020271
1699701539.109423 0.00146978 0.00866090 -0.00562441 0.00063163 -0.00287660 -0.00020206
1699701539.208425 0.00115860 0.00917777 -0.00559153 0.00063856 -0.00289374 -0.00020829
1699701539.307427 0.00083084 0.00967699 -0.00548630 0.00064463 -0.00290755 -0.00020950
1699701539.409429 0.00053204 0.01022529 -0.00541707 0.00064882 -0.00291270 -0.00021203
1699701539.508431 0.00006503 0.01091947 -0.00528671 0.00065049 -0.00292111 -0.00021318
1699701539.607434 -0.00050075 0.01159986 -0.00524573 0.00065252 -0.00292380 -0.00021462
1699701539.709436 -0.00120735 0.01243784 -0.00524836 0.00065457 -0.00293044 -0.00021754
1699701539.808438 -0.00174897 0.01303370 -0.00531209 0.00065701 -0.00293712 -0.00021946
1699701539.907440 -0.00281603 0.01387560 -0.00532853 0.00066470 -0.00295469 -0.00022209
1699701540.009442 -0.00335125 0.01420916 -0.00524195 0.00066912 -0.00296154 -0.00022501
1699701540.108444 -0.00398941 0.01450324 -0.00513143 0.00067010 -0.00295961 -0.00022624
1699701540.207446 -0.00502708 0.01463976 -0.00506885 0.00067326 -0.00296475 -0.00022472
1699701540.306448 -0.00581765 0.01415839 -0.00488054 0.00067336 -0.00295695 -0.00022331
1699701540.408451 -0.00635514 0.01351643 -0.00461464 0.00067682 -0.00295896 -0.00022326
1699701540.507453 -0.00693217 0.01319698 -0.00451156 0.00068153 -0.00296680 -0.00022592
1699701540.609455 -0.00733889 0.01326616 -0.00432407 0.00067840 -0.00296836 -0.00022188
1699701540.708457 -0.00771324 0.01287458 -0.00419248 0.00067840 -0.00296429 -0.00022404
1699701540.807459 -0.00828809 0.01286956 -0.00429767 0.00067712 -0.00296980 -0.00022420
1699701540.906461 -0.00868113 0.01287034 -0.00437630 0.00067444 -0.00296835 -0.00022550
1699701541.008463 -0.00918651 0.01304514 -0.00449185 0.00067494 -0.00296813 -0.00022596
1699701541.107466 -0.00905466 0.01234402 -0.00436382 0.00067634 -0.00297074 -0.00022304
1699701541.206468 -0.00901745 0.01202136 -0.00449202 0.00067734 -0.00296852 -0.00022392
1699701541.308470 -0.00891422 0.01156046 -0.00466303 0.00067674 -0.00297439 -0.00022272
1699701541.407472 -0.00872629 0.01108446 -0.00470766 0.00067341 -0.00298499 -0.00022179
1699701541.506474 -0.00838329 0.01014878 -0.00494057 0.00067037 -0.00298507 -0.00021755
1699701541.608476 -0.00799589 0.00910838 -0.00498916 0.00066251 -0.00298586 -0.00021513
1699701541.707478 -0.00749299 0.00828421 -0.00489461 0.00065267 -0.00298802 -0.00021632
1699701541.809480 -0.00883008 0.00689243 -0.00519592 0.00063274 -0.00298130 -0.00020480
1699701541.908483 -0.00835254 0.00730041 -0.00502482 0.00062582 -0.00298589 -0.00021238
1699701542.007485 -0.00811028 0.00780008 -0.00495250 0.00061425 -0.00298581 -0.00021260
1699701542.109487 -0.00788786 0.00830248 -0.00479527 0.00060638 -0.00297319 -0.00019577
1699701542.208489 -0.00765120 0.00876601 -0.00461677 0.00059456 -0.00296791 -0.00020449
1699701542.307491 -0.00730650 0.00911350 -0.00446774 0.00057594 -0.00295793 -0.00020422
1699701542.406493 -0.00708821 0.00929543 -0.00428879 0.00057096 -0.00295061 -0.00020233
1699701542.508495 -0.00698143 0.00930988 -0.00429053 0.00056776 -0.00294191 -0.00020083
1699701542.607497 -0.00693450 0.00958861 -0.00440531 0.00055315 -0.00293432 -0.00020215
1699701542.709500 -0.00693954 0.01003988 -0.00435224 0.00055639 -0.00293787 -0.00019233
1699701542.808502 -0.00690476 0.01006344 -0.00438746 0.00054986 -0.00291879 -0.00019804
1699701542.907504 -0.00716165 0.00974198 -0.00444406 0.00054372 -0.00290329 -0.00019469
1699701543.009506 -0.00784390 0.00904998 -0.00444683 0.00054704 -0.00291221 -0.00018011
1699701543.108508 -0.00859093 0.00813865 -0.00446451 0.00054479 -0.00288799 -0.00017840
1699701543.207510 -0.00911659 0.00702664 -0.00446376 0.00053778 -0.00287061 -0.00017261
1699701543.309512 -0.00932572 0.00590550 -0.00430284 0.00053667 -0.00287925 -0.00016561
1699701543.408514 -0.00921218 0.00496512 -0.00424603 0.00053300 -0.00285622 -0.00016228
1699701543.507517 -0.00908640 0.00427869 -0.00429076 0.00053550 -0.00284490 -0.00016096
1699701543.609519 -0.00883171 0.00383508 -0.00426595 0.00052764 -0.00285478 -0.00016802
1699701543.711521 -0.00842459 0.00367214 -0.00414899 0.00051887 -0.00285730 -0.00017778
1699701543.807523 -0.00777059 0.00383099 -0.00415666 0.00052346 -0.00283912 -0.00016202
1699701543.909525 -0.00692803 0.00414604 -0.00417793 0.00050527 -0.00283686 -0.00017733
1699701544.008527 -0.00607906 0.00440709 -0.00423286 0.00051144 -0.00283252 -0.00015974
1699701544.107529 -0.00520919 0.00492270 -0.00433781 0.00051712 -0.00283552 -0.00015424
1699701544.209532 -0.00426986 0.00575920 -0.00459231 0.00051146 -0.00282602 -0.00015826
1699701544.308534 -0.00356585 0.00683731 -0.00501411 0.00052174 -0.00283535 -0.00016022
1699701544.407536 -0.00321259 0.00790554 -0.00551329 0.00052707 -0.00284099 -0.00016353
1699701544.509538 -0.00322283 0.00855424 -0.00604471 0.00053081 -0.00283904 -0.00015429
1699701544.608540 -0.00352761 0.00901919 -0.00671178 0.00053020 -0.00284945 -0.00016572
1699701544.707542 -0.00396112 0.00902974 -0.00714629 0.00053188 -0.00285506 -0.00016828
1699701544.809545 -0.00395992 0.00907963 -0.00722930 0.00053808 -0.00285115 -0.00014497
1699701544.908546 -0.00353282 0.00901092 -0.00705898 0.00053548 -0.00285463 -0.00016065
1699701545.007549 -0.00282869 0.00880612 -0.00682894 0.00053263 -0.00284769 -0.00016449
1699701545.109551 -0.00175311 0.00874751 -0.00640865 0.00054014 -0.00285611 -0.00014755
1699701545.208553 -0.00080045 0.00868964 -0.00621278 0.00052868 -0.00285615 -0.00016006
1699701545.307555 -0.00020167 0.00875304 -0.00597135 0.00052208 -0.00286071 -0.00016142
1699701545.409557 0.00013603 0.00875882 -0.00556639 0.00051928 -0.00285629 -0.00016210
1699701545.508559 0.00021639 0.00906486 -0.00499712 0.00051606 -0.00288706 -0.00016112
1699701545.607562 0.00029929 0.00935173 -0.00477995 0.00051630 -0.00289921 -0.00016387
1699701545.709564 0.00020680 0.00979803 -0.00479677 0.00050308 -0.00289590 -0.00017867
1699701545.808566 -0.00004021 0.01048790 -0.00476865 0.00050404 -0.00290803 -0.00016965
1699701545.907568 -0.00026642 0.01114847 -0.00462865 0.00050130 -0.00293237 -0.00016945
1699701546.006570 -0.00079320 0.01182050 -0.00469076 0.00050173 -0.00293279 -0.00017069
1699701546.108572 -0.00129308 0.01248410 -0.00477255 0.00050040 -0.00292719 -0.00017127
1699701546.207574 -0.00170453 0.01297862 -0.00483389 0.00049874 -0.00292364 -0.00017304
1699701546.309577 -0.00194654 0.01335378 -0.00478160 0.00050616 -0.00292179 -0.00017015
1699701546.408579 -0.00220274 0.01389116 -0.00467637 0.00050543 -0.00292757 -0.00017179
1699701546.507581 -0.00255190 0.01421886 -0.00467718 0.00050086 -0.00293368 -0.00017250
1699701546.609583 -0.00270241 0.01449464 -0.00480529 0.00050540 -0.00293726 -0.00017244
1699701546.708585 -0.00285933 0.01470078 -0.00493209 0.00050584 -0.00293600 -0.00017301
1699701546.807587 -0.00307113 0.01486306 -0.00519840 0.00050697 -0.00293704 -0.00017223
1699701546.906589 -0.00316337 0.01499395 -0.00539925 0.00050829 -0.00293661 -0.00017362
1699701547.008591 -0.00319226 0.01511754 -0.00547081 0.00050873 -0.00293421 -0.00017633
1699701547.107594 -0.00310524 0.01528198 -0.00561478 0.00051096 -0.00293698 -0.00017608
1699701547.206596 -0.00291719 0.01535620 -0.00551108 0.00050870 -0.00293342 -0.00017769
1699701547.308598 -0.00263331 0.01532891 -0.00552894 0.00050576 -0.00293294 -0.00017735
1699701547.407600 -0.00235888 0.01557907 -0.00561999 0.00050503 -0.00293675 -0.00017822
1699701547.509602 -0.00235964 0.01540121 -0.00547499 0.00049822 -0.00293464 -0.00018071
1699701547.608604 -0.00269764 0.01516311 -0.00543773 0.00049443 -0.00293088 -0.00018140
1699701547.707606 -0.00324765 0.01483270 -0.00570785 0.00048953 -0.00292122 -0.00017793
1699701547.806608 -0.00324765 0.01483270 -0.00570785 0.00048953 -0.00292122 -0.00017793
1699701547.908611 -0.00390098 0.01416770 -0.00602547 0.00048802 -0.00291774 -0.00016342
1699701548.007613 -0.00397358 0.01392455 -0.00600795 0.00048831 -0.00291771 -0.00016140
1699701548.106615 -0.00383264 0.01386591 -0.00601567 0.00049019 -0.00291019 -0.00015896
1699701548.208617 -0.00366982 0.01384590 -0.00634414 0.00048278 -0.00291454 -0.00015383
1699701548.307619 -0.00349579 0.01384247 -0.00639036 0.00048126 -0.00291381 -0.00014895
1699701548.406621 -0.00329408 0.01378309 -0.00636759 0.00047955 -0.00291114 -0.00014453
1699701548.508623 -0.00264073 0.01356657 -0.00611082 0.00047601 -0.00290791 -0.00013634
1699701548.607625 -0.00219440 0.01382142 -0.00606652 0.00047413 -0.00292019 -0.00013802
1699701548.706628 -0.00158060 0.01416442 -0.00606693 0.00047190 -0.00291851 -0.00013849
1699701548.808630 -0.00104858 0.01435180 -0.00605609 0.00046947 -0.00291907 -0.00013715
1699701548.907632 -0.00008232 0.01437661 -0.00607146 0.00046809 -0.00292074 -0.00013181
1699701549.006634 0.00063414 0.01441023 -0.00603904 0.00047246 -0.00291544 -0.00013022
1699701549.108636 0.00114599 0.01445005 -0.00613049 0.00047885 -0.00291577 -0.00012644
1699701549.207638 0.00136498 0.01461305 -0.00625464 0.00048696 -0.00291673 -0.00012826
1699701549.306640 0.00136569 0.01478156 -0.00636012 0.00049138 -0.00291726 -0.00012935
1699701549.408643 0.00116320 0.01482406 -0.00637452 0.00049544 -0.00291664 -0.00012876
1699701549.507645 0.00108922 0.01478354 -0.00638556 0.00050194 -0.00292270 -0.00012408
1699701549.609647 0.00103965 0.01473836 -0.00631074 0.00051456 -0.00293806 -0.00010692
1699701549.708649 0.00118274 0.01456429 -0.00626397 0.00051446 -0.00294119 -0.00011270
1699701549.807651 0.00135809 0.01437177 -0.00622123 0.00051432 -0.00294773 -0.00011329
1699701549.906653 0.00138867 0.01435947 -0.00620364 0.00051107 -0.00294847 -0.00011288
1699701550.008655 0.00132046 0.01446037 -0.00617899 0.00051125 -0.00295651 -0.00011445
1699701550.107657 0.00117597 0.01474834 -0.00603454 0.00051922 -0.00296888 -0.00011818
1699701550.206660 0.00099872 0.01510389 -0.00595340 0.00052441 -0.00297081 -0.00012105
1699701550.308662 0.00079035 0.01543470 -0.00590326 0.00052844 -0.00297355 -0.00012393
1699701550.407664 0.00064685 0.01572346 -0.00590586 0.00053313 -0.00297935 -0.00012753
1699701550.506666 0.00042890 0.01597412 -0.00591926 0.00053699 -0.00297845 -0.00013043
1699701550.608668 0.00025151 0.01609617 -0.00590204 0.00054322 -0.00298526 -0.00012786
1699701550.707670 0.00015845 0.01618258 -0.00582211 0.00055423 -0.00299658 -0.00012584
1699701550.806672 0.00008258 0.01608064 -0.00579988 0.00056014 -0.00299792 -0.00012503
1699701550.908674 -0.00002165 0.01578643 -0.00566995 0.00056178 -0.00299769 -0.00012176
1699701551.007677 -0.00008898 0.01559627 -0.00549651 0.00056637 -0.00300479 -0.00011899
1699701551.106679 -0.00015713 0.01553588 -0.00541622 0.00056586 -0.00300226 -0.00011679
1699701551.208681 -0.00022414 0.01552643 -0.00533525 0.00056714 -0.00299951 -0.00011554
1699701551.307683 -0.00011968 0.01548513 -0.00521433 0.00056745 -0.00300259 -0.00011206
1699701551.406685 0.00005813 0.01537363 -0.00520248 0.00056921 -0.00299355 -0.00010784
1699701551.508687 0.00015483 0.01538371 -0.00529479 0.00057355 -0.00299759 -0.00010391
1699701551.607689 0.00014136 0.01550394 -0.00519860 0.00057535 -0.00300252 -0.00010172
1699701551.706692 0.00017377 0.01560360 -0.00517698 0.00057466 -0.00299664 -0.00010068
1699701551.808694 0.00016096 0.01563681 -0.00522406 0.00057876 -0.00300294 -0.00009788
1699701551.907696 0.00022085 0.01571985 -0.00526631 0.00057757 -0.00300961 -0.00009403
1699701552.006698 0.00031048 0.01587991 -0.00511505 0.00057820 -0.00301590 -0.00009192
1699701552.108700 0.00036309 0.01592946 -0.00506312 0.00057958 -0.00301811 -0.00008848
1699701552.207702 0.00051792 0.01596830 -0.00498658 0.00057770 -0.00301880 -0.00008815
1699701552.306704 0.00066896 0.01603185 -0.00484233 0.00057429 -0.00301590 -0.00008699
1699701552.408707 0.00085734 0.01599463 -0.00482580 0.00057254 -0.00301326 -0.00008444
1699701552.507709 0.00100152 0.01607427 -0.00476622 0.00057110 -0.00301872 -0.00008416
1699701552.606711 0.00112188 0.01621466 -0.00475411 0.00056683 -0.00302042 -0.00008477
1699701552.708713 0.00122643 0.01645140 -0.00474605 0.00056360 -0.00301658 -0.00008628
1699701552.807715 0.00139165 0.01674483 -0.00476994 0.00055827 -0.00301494 -0.00008899
1699701552.906717 0.00164104 0.01700949 -0.00479098 0.00055481 -0.00301467 -0.00009176
1699701553.008719 0.00188612 0.01711178 -0.00477733 0.00055025 -0.00301811 -0.00009311
1699701553.107722 0.00215064 0.01729875 -0.00472890 0.00054500 -0.00302440 -0.00009639
1699701553.206724 0.00246422 0.01753712 -0.00462523 0.00053727 -0.00302579 -0.00009913
1699701553.308726 0.00286540 0.01755851 -0.00467477 0.00053244 -0.00302527 -0.00011615
1699701553.407728 0.00301780 0.01784372 -0.00462648 0.00053002 -0.00302819 -0.00010529
1699701553.506730 0.00299095 0.01804818 -0.00459871 0.00052642 -0.00302731 -0.00010274
1699701553.608732 0.00287790 0.01820147 -0.00460391 0.00052402 -0.00302325 -0.00010168
1699701553.707734 0.00279550 0.01827323 -0.00459553 0.00052061 -0.00302526 -0.00010219
1699701553.806736 0.00269591 0.01836001 -0.00465436 0.00051275 -0.00303238 -0.00010229
1699701553.908739 0.00267988 0.01840489 -0.00472970 0.00051155 -0.00303077 -0.00010175
1699701554.007741 0.00265440 0.01842882 -0.00481606 0.00050667 -0.00303198 -0.00010095
1699701554.106743 0.00238139 0.01891280 -0.00512880 0.00050595 -0.00303595 -0.00010469
1699701554.208745 0.00236961 0.01871620 -0.00522401 0.00049454 -0.00303126 -0.00010214
1699701554.307747 0.00235515 0.01845301 -0.00528821 0.00048366 -0.00303175 -0.00010076
1699701554.406749 0.00236896 0.01816057 -0.00542158 0.00046941 -0.00303863 -0.00009654
1699701554.508751 0.00247924 0.01783865 -0.00545215 0.00046316 -0.00303787 -0.00009313
1699701554.607754 0.00266653 0.01773422 -0.00539401 0.00045665 -0.00304165 -0.00009031
1699701554.706756 0.00297981 0.01784472 -0.00529406 0.00045111 -0.00304440 -0.00008897
1699701554.808758 0.00333363 0.01794422 -0.00520109 0.00044604 -0.00304070 -0.00008794
1699701554.907760 0.00355528 0.01817131 -0.00528115 0.00044005 -0.00304121 -0.00008709
1699701555.006762 0.00355654 0.01832752 -0.00541153 0.00043175 -0.00304931 -0.00008483
1699701555.108764 0.00346239 0.01826912 -0.00553208 0.00043095 -0.00305048 -0.00009002
1699701555.207766 0.00324756 0.01825085 -0.00565898 0.00041779 -0.00305858 -0.00008214
1699701555.306768 0.00296983 0.01820889 -0.00569151 0.00040427 -0.00306770 -0.00007980
1699701555.408771 0.00274835 0.01822079 -0.00566320 0.00039857 -0.00307018 -0.00007803
1699701555.507773 0.00263065 0.01827690 -0.00562599 0.00039426 -0.00307189 -0.00007607
1699701555.606775 0.00249833 0.01834644 -0.00554835 0.00039259 -0.00307037 -0.00007319
1699701555.708777 0.00240842 0.01833978 -0.00543429 0.00039130 -0.00306477 -0.00007021
1699701555.807779 0.00239663 0.01831389 -0.00528782 0.00038900 -0.00306128 -0.00006770
1699701555.906781 0.00242255 0.01833955 -0.00527921 0.00038747 -0.00306028 -0.00006732
1699701556.008783 0.00256909 0.01841643 -0.00526376 0.00038859 -0.00306795 -0.00005925
1699701556.107785 0.00280041 0.01849871 -0.00535781 0.00038760 -0.00305951 -0.00006512
1699701556.206788 0.00297900 0.01857004 -0.00544601 0.00038656 -0.00305429 -0.00006618
1699701556.308790 0.00318892 0.01856598 -0.00551004 0.00038971 -0.00306282 -0.00005617
1699701556.407792 0.00325204 0.01850412 -0.00562985 0.00038784 -0.00305669 -0.00006027
1699701556.506794 0.00319136 0.01832621 -0.00570131 0.00038526 -0.00305568 -0.00005988
1699701556.608796 0.00312721 0.01814814 -0.00565290 0.00038767 -0.00306324 -0.00004999
1699701556.707798 0.00307945 0.01796247 -0.00561372 0.00039132 -0.00305622 -0.00005228
1699701556.806800 0.00302926 0.01783674 -0.00557738 0.00039434 -0.00305449 -0.00005314
1699701556.908803 0.00303980 0.01773053 -0.00549886 0.00039846 -0.00306419 -0.00004877
1699701557.007805 0.00300239 0.01768982 -0.00539931 0.00040134 -0.00306358 -0.00005178
1699701557.106807 0.00287904 0.01773740 -0.00534891 0.00040747 -0.00306510 -0.00005501
1699701557.208809 0.00270124 0.01779720 -0.00543641 0.00041082 -0.00306407 -0.00005467
1699701557.307811 0.00254707 0.01782646 -0.00547425 0.00041611 -0.00307298 -0.00005555
1699701557.406813 0.00233571 0.01788248 -0.00551597 0.00042251 -0.00308230 -0.00005755
1699701557.508815 0.00223043 0.01792053 -0.00565315 0.00041320 -0.00307372 -0.00006584
1699701557.607817 0.00202183 0.01797542 -0.00569036 0.00042530 -0.00309496 -0.00006417
1699701557.706820 0.00183689 0.01795070 -0.00569147 0.00043334 -0.00310203 -0.00006254
1699701557.808822 0.00176632 0.01790770 -0.00572483 0.00043342 -0.00310132 -0.00005996
1699701557.907824 0.00172961 0.01782332 -0.00572069 0.00043725 -0.00310910 -0.00005866
1699701558.006826 0.00170246 0.01773907 -0.00564304 0.00043980 -0.00311582 -0.00005643
1699701558.108828 0.00171463 0.01771880 -0.00557985 0.00043821 -0.00311575 -0.00005334
1699701558.207830 0.00163360 0.01782994 -0.00546457 0.00043667 -0.00311529 -0.00005250
1699701558.306832 0.00148873 0.01731352 -0.00527086 0.00043029 -0.00311433 -0.00004230
1699701558.408834 0.00161352 0.01782000 -0.00515226 0.00042857 -0.00310972 -0.00004839
1699701558.507837 0.00159525 0.01826901 -0.00510095 0.00042624 -0.00310975 -0.00004705
1699701558.606839 0.00137874 0.01834953 -0.00518063 0.00042461 -0.00311417 -0.00004476
1699701558.708841 0.00092970 0.01981953 -0.00457411 0.00042135 -0.00310181 -0.00006443
1699701558.807843 0.00086255 0.01925430 -0.00517395 0.00042065 -0.00311716 -0.00004370
1699701558.906845 0.00069857 0.01911147 -0.00561495 0.00042305 -0.00312415 -0.00004142
1699701559.008847 0.00079149 0.01914637 -0.00571612 0.00041989 -0.00313125 -0.00004157
1699701559.107849 0.00073266 0.01930161 -0.00583666 0.00041564 -0.00313532 -0.00004097
1699701559.206851 0.00051389 0.01967953 -0.00599485 0.00041818 -0.00314225 -0.00004135
1699701559.308854 0.00057798 0.01988608 -0.00598184 0.00041920 -0.00314046 -0.00004132
1699701559.407856 0.00057697 0.01990759 -0.00596202 0.00041698 -0.00314699 -0.00003936
1699701559.506858 0.00047900 0.01987779 -0.00582986 0.00041004 -0.00315949 -0.00003862
1699701559.608860 0.00051806 0.01975167 -0.00551777 0.00040587 -0.00315652 -0.00003578
1699701559.707862 0.00061300 0.01979426 -0.00337671 0.00039148 -0.00313096 -0.00004141
1699701559.809865 0.00044345 0.01988053 -0.00518315 0.00040311 -0.00316103 -0.00004080
1699701559.908867 0.00044077 0.01986669 -0.00547204 0.00040524 -0.00317082 -0.00004484
1699701560.007869 0.00015270 0.01970019 -0.00557651 0.00039971 -0.00317082 -0.00003790
1699701560.106871 0.00000170 0.01969707 -0.00563588 0.00039515 -0.00317639 -0.00003558
1699701560.208873 -0.00004516 0.01966052 -0.00566189 0.00039214 -0.00318000 -0.00003342
1699701560.307875 -0.00005526 0.01974746 -0.00546769 0.00039156 -0.00317644 -0.00003304
1699701560.406877 -0.00002053 0.01982199 -0.00544497 0.00038944 -0.00318018 -0.00003279
1699701560.508879 0.00007400 0.01997436 -0.00549702 0.00039100 -0.00317638 -0.00003262
1699701560.607882 0.00020206 0.02021142 -0.00557086 0.00039094 -0.00317740 -0.00003448
1699701560.706884 -0.00024310 0.01545795 -0.00220264 0.00035809 -0.00311454 0.00003745
1699701560.808886 0.00017132 0.01949927 -0.00544200 0.00039259 -0.00317074 -0.00003750
1699701560.907888 0.00021430 0.01986609 -0.00555495 0.00039563 -0.00317420 -0.00003259
1699701561.006890 0.00038809 0.02017084 -0.00564585 0.00039238 -0.00317888 -0.00002967
1699701561.108892 0.00040946 0.02012711 -0.00553760 0.00039066 -0.00317135 -0.00002956
1699701561.207894 0.00035067 0.02012569 -0.00559148 0.00038632 -0.00317106 -0.00002522
1699701561.306896 0.00023996 0.02014763 -0.00563529 0.00038249 -0.00317250 -0.00002467
1699701561.408899 0.00023206 0.02018364 -0.00565820 0.00037759 -0.00317430 -0.00002609
1699701561.507901 0.00040177 0.02015808 -0.00584717 0.00037147 -0.00316731 -0.00002530
1699701561.606903 0.00049972 0.02008186 -0.00597662 0.00036952 -0.00317040 -0.00002537
1699701561.708905 0.00068684 0.01992591 -0.00593640 0.00036755 -0.00317817 -0.00002649
1699701561.807907 0.00065964 0.01985702 -0.00596697 0.00036572 -0.00317794 -0.00002613
1699701561.906909 0.00071196 0.01978900 -0.00602284 0.00036232 -0.00317622 -0.00002739
1699701562.008911 0.00070976 0.01969458 -0.00594344 0.00036368 -0.00318222 -0.00002979
1699701562.107913 0.00067256 0.01967961 -0.00598419 0.00035630 -0.00317053 -0.00002367
1699701562.209916 0.00068281 0.01963519 -0.00580838 0.00035131 -0.00316778 -0.00002569
1699701562.308918 0.00079474 0.01965000 -0.00562744 0.00034279 -0.00316151 -0.00002832
1699701562.407920 0.00097924 0.01977961 -0.00560220 0.00034056 -0.00315250 -0.00002470
1699701562.509922 0.00125786 0.01991828 -0.00554635 0.00034227 -0.00315843 -0.00002971
1699701562.608924 0.00162430 0.01999989 -0.00554458 0.00034221 -0.00315663 -0.00003020
1699701562.707926 0.00184974 0.01999573 -0.00565588 0.00033659 -0.00315285 -0.00002968
1699701562.809928 0.00197276 0.01996560 -0.00569994 0.00033279 -0.00315915 -0.00002916
1699701562.908931 0.00195212 0.01991293 -0.00585870 0.00033316 -0.00315391 -0.00002787
1699701563.007933 0.00182711 0.01997422 -0.00595584 0.00033383 -0.00315400 -0.00002888
1699701563.106935 0.00178266 0.02001392 -0.00602674 0.00033354 -0.00315539 -0.00003058
1699701563.208937 0.00179563 0.02000850 -0.00601149 0.00033377 -0.00315992 -0.00003238
1699701563.307939 0.00173213 0.02009937 -0.00608980 0.00033330 -0.00315183 -0.00003258
1699701563.406941 0.00156853 0.02020184 -0.00619431 0.00033116 -0.00315976 -0.00003537
1699701563.508943 0.00160919 0.02016228 -0.00626260 0.00033528 -0.00315232 -0.00003716
1699701563.607945 0.00148829 0.02015696 -0.00647000 0.00033012 -0.00316276 -0.00003663
1699701563.709948 0.00150351 0.02014718 -0.00653128 0.00033446 -0.00316233 -0.00004241
1699701563.808950 0.00147501 0.02016065 -0.00663557 0.00033882 -0.00316918 -0.00004575
1699701563.907952 0.00126606 0.02016768 -0.00672651 0.00033628 -0.00317231 -0.00004330
1699701564.009954 0.00115062 0.02007115 -0.00676725 0.00033559 -0.00318256 -0.00004880
1699701564.108956 0.00100373 0.02004111 -0.00681415 0.00033323 -0.00317536 -0.00005197
1699701564.207958 0.00056218 0.02016684 -0.00675691 0.00033650 -0.00318552 -0.00005013
1699701564.306960 0.00013129 0.02010736 -0.00685162 0.00033631 -0.00318673 -0.00004791
1699701564.408962 -0.00028869 0.01998839 -0.00698292 0.00033117 -0.00318491 -0.00004956
1699701564.507965 -0.00045226 0.01983604 -0.00705723 0.00033491 -0.00318349 -0.00004887
1699701564.606967 -0.00056148 0.01965726 -0.00747435 0.00033413 -0.00319057 -0.00004530
1699701564.708969 -0.00059852 0.01953400 -0.00764760 0.00033021 -0.00319425 -0.00004503
1699701564.807971 -0.00066917 0.01941170 -0.00789834 0.00032589 -0.00319494 -0.00004167
1699701564.906973 -0.00069744 0.01935223 -0.00790297 0.00032075 -0.00319288 -0.00004022
1699701565.008975 -0.00045568 0.01932230 -0.00784476 0.00032115 -0.00319880 -0.00003857
1699701565.107977 -0.00021005 0.01932333 -0.00775285 0.00031813 -0.00319673 -0.00003454
1699701565.206980 -0.00015581 0.01932304 -0.00768640 0.00031652 -0.00319899 -0.00003382
1699701565.308982 0.00026819 0.01928421 -0.00758769 0.00031248 -0.00320162 -0.00003011
1699701565.407984 0.00024354 0.01934756 -0.00745985 0.00031196 -0.00320495 -0.00003478
1699701565.506986 0.00020872 0.01938349 -0.00737914 0.00031187 -0.00320827 -0.00003416
1699701565.608988 0.00041872 0.01938433 -0.00746207 0.00031234 -0.00320805 -0.00002453
1699701565.707990 0.00026913 0.01935537 -0.00751589 0.00030840 -0.00320857 -0.00003114
1699701565.806992 0.00016143 0.01936050 -0.00750375 0.00030420 -0.00321660 -0.00003237
1699701565.908995 0.00029461 0.01924073 -0.00748452 0.00030740 -0.00321863 -0.00003322
1699701566.007997 0.00051897 0.01932583 -0.00738863 0.00030617 -0.00321560 -0.00003176
1699701566.106999 0.00057643 0.01939267 -0.00729366 0.00030783 -0.00321851 -0.00003302
1699701566.209001 0.00061963 0.01934600 -0.00737740 0.00031690 -0.00320467 -0.00004011
1699701566.308003 0.00064141 0.01928822 -0.00739424 0.00031814 -0.00320590 -0.00003537
1699701566.407005 0.00065336 0.01926278 -0.00736707 0.00032104 -0.00320312 -0.00003272
1699701566.509007 0.00070343 0.01922231 -0.00741705 0.00033210 -0.00317970 -0.00004082
1699701566.608010 0.00067584 0.01917497 -0.00762917 0.00033962 -0.00319502 -0.00003417
1699701566.707012 0.00039742 0.01775199 -0.00889276 0.00035469 -0.00321328 -0.00000295
1699701566.809014 0.00052733 0.01832945 -0.00853747 0.00035122 -0.00319368 -0.00003199
1699701566.908016 0.00060657 0.01859794 -0.00839981 0.00035218 -0.00319761 -0.00002809
1699701567.007018 0.00071442 0.01871347 -0.00841673 0.00035599 -0.00319530 -0.00002551
1699701567.109020 0.00066229 0.01885658 -0.00833294 0.00035278 -0.00319429 -0.00002888
1699701567.208022 0.00068424 0.01891967 -0.00823974 0.00035650 -0.00318567 -0.00002531
1699701567.307024 0.00069657 0.01892162 -0.00808051 0.00035984 -0.00317871 -0.00002179
1699701567.409027 0.00064410 0.01891723 -0.00794465 0.00035812 -0.00318340 -0.00002292
1699701567.508029 0.00056953 0.01890864 -0.00793391 0.00035817 -0.00317387 -0.00002079
1699701567.607031 0.00046712 0.01882234 -0.00782287 0.00035651 -0.00316600 -0.00001812
1699701567.709033 0.00040525 0.01876032 -0.00764438 0.00035507 -0.00316755 -0.00001800
1699701567.808035 0.00040525 0.01876032 -0.00764438 0.00035507 -0.00316755 -0.00001800
1699701567.907037 0.00028372 0.01866069 -0.00740233 0.00035257 -0.00314624 -0.00001432
1699701568.009039 0.00041297 0.01907567 -0.00712938 0.00035558 -0.00314503 -0.00002548
1699701568.108042 0.00016445 0.01885711 -0.00709296 0.00035245 -0.00313329 -0.00001486
1699701568.207044 -0.00003786 0.01862590 -0.00698938 0.00034993 -0.00312326 -0.00001143
1699701568.309046 -0.00009560 0.01865093 -0.00710981 0.00034813 -0.00312356 -0.00001439
1699701568.408048 -0.00008915 0.01869143 -0.00725255 0.00035017 -0.00311743 -0.00001431
1699701568.507050 -0.00000565 0.01883577 -0.00748638 0.00035311 -0.00311402 -0.00001435
1699701568.609052 0.00000179 0.01890055 -0.00771944 0.00035217 -0.00311495 -0.00001802
1699701568.708054 0.00013891 0.01892354 -0.00810060 0.00035232 -0.00310672 -0.00002115
1699701568.807056 0.00019372 0.01878019 -0.00790881 0.00035060 -0.00309317 -0.00001867
1699701568.909059 0.00023223 0.01863103 -0.00785322 0.00034939 -0.00310005 -0.00001977
1699701569.008061 0.00027072 0.01855659 -0.00798419 0.00033553 -0.00307182 -0.00001961
1699701569.107063 0.00026895 0.01851743 -0.00792026 0.00032769 -0.00306023 -0.00002131
1699701569.209065 0.00016739 0.01836510 -0.00760913 0.00033020 -0.00306478 -0.00002290
1699701569.308067 0.00013524 0.01829740 -0.00757791 0.00032318 -0.00305024 -0.00002147
1699701569.407069 0.00018843 0.01828723 -0.00754547 0.00031744 -0.00304707 -0.00002299
1699701569.509071 0.00029202 0.01825497 -0.00745655 0.00032244 -0.00306305 -0.00002516
1699701569.608073 0.00048839 0.01822592 -0.00739576 0.00031116 -0.00304922 -0.00002318
1699701569.707076 0.00053962 0.01821393 -0.00734466 0.00030408 -0.00304475 -0.00002293
1699701569.806078 0.00056256 0.01820050 -0.00727354 0.00030069 -0.00304206 -0.00002208
1699701569.908080 0.00054252 0.01812799 -0.00719081 0.00030027 -0.00303974 -0.00002282
1699701570.007082 0.00049521 0.01803753 -0.00713223 0.00030271 -0.00304328 -0.00002244
1699701570.109084 0.00045533 0.01794166 -0.00724205 0.00030643 -0.00303528 -0.00002400
1699701570.208086 0.00050439 0.01790803 -0.00716494 0.00030532 -0.00303800 -0.00002197
1699701570.307088 0.00054360 0.01790698 -0.00717310 0.00030369 -0.00303680 -0.00002154
1699701570.409091 0.00068908 0.01790138 -0.00729155 0.00030124 -0.00302277 -0.00002377
1699701570.508093 0.00071437 0.01790627 -0.00734225 0.00029964 -0.00303164 -0.00002443
1699701570.607095 0.00065689 0.01786099 -0.00737490 0.00029820 -0.00303123 -0.00002512
1699701570.709097 0.00064757 0.01784090 -0.00745308 0.00029432 -0.00302115 -0.00002464
1699701570.808099 0.00063884 0.01779559 -0.00754477 0.00029735 -0.00302789 -0.00002359
1699701570.907101 0.00061748 0.01773781 -0.00768363 0.00029827 -0.00303265 -0.00002205
1699701571.009103 0.00061570 0.01764215 -0.00779827 0.00029664 -0.00302395 -0.00002160
1699701571.108105 0.00056399 0.01754706 -0.00785096 0.00029820 -0.00302748 -0.00002053
1699701571.207108 0.00050783 0.01751669 -0.00793078 0.00029989 -0.00302689 -0.00002061
1699701571.309110 0.00045049 0.01754214 -0.00801135 0.00029950 -0.00302062 -0.00002337
1699701571.408112 0.00042112 0.01763785 -0.00794107 0.00030131 -0.00301954 -0.00002419
1699701571.507114 0.00053742 0.01763796 -0.00792919 0.00030303 -0.00301623 -0.00002428
1699701571.609116 0.00060201 0.01761021 -0.00777145 0.00030286 -0.00301037 -0.00002801
1699701571.708118 0.00045090 0.01752177 -0.00750099 0.00030118 -0.00300409 -0.00002739
1699701571.807120 0.00032127 0.01735507 -0.00727291 0.00030112 -0.00299463 -0.00002976
1699701571.909122 0.00031123 0.01725784 -0.00722223 0.00030131 -0.00299203 -0.00002959
1699701572.008125 0.00022554 0.01710621 -0.00722787 0.00030363 -0.00298648 -0.00002710
1699701572.107127 0.00015097 0.01703815 -0.00723622 0.00030099 -0.00297924 -0.00002638
1699701572.206129 0.00016345 0.01695459 -0.00723934 0.00030065 -0.00297168 -0.00002667
1699701572.308131 0.00007417 0.01692139 -0.00731998 0.00030023 -0.00296537 -0.00002675
1699701572.407133 0.00009550 0.01697844 -0.00749930 0.00030166 -0.00296389 -0.00002723
1699701572.509135 0.00010693 0.01705501 -0.00734598 0.00030223 -0.00295445 -0.00002866
1699701572.608137 0.00004875 0.01702592 -0.00756365 0.00030589 -0.00295725 -0.00003167
1699701572.707139 0.00002925 0.01699628 -0.00761442 0.00030511 -0.00295037 -0.00003512
1699701572.809142 -0.00002186 0.01694133 -0.00781072 0.00029998 -0.00294508 -0.00003954
1699701572.908144 -0.00002704 0.01693582 -0.00786633 0.00029949 -0.00293970 -0.00004107
1699701573.007146 -0.00005789 0.01694162 -0.00786187 0.00029739 -0.00293674 -0.00004405
1699701573.109148 0.00000562 0.01691510 -0.00777058 0.00029302 -0.00293326 -0.00004621
1699701573.208150 -0.00000052 0.01695791 -0.00775670 0.00030075 -0.00293038 -0.00005250
1699701573.307152 -0.00000847 0.01696513 -0.00768470 0.00029976 -0.00293483 -0.00005273
1699701573.409155 0.00005033 0.01687989 -0.00785635 0.00029615 -0.00292576 -0.00005692
1699701573.508157 -0.00001227 0.01683340 -0.00779186 0.00029115 -0.00292777 -0.00005450
1699701573.607159 -0.00007824 0.01680429 -0.00789573 0.00028782 -0.00292675 -0.00005751
1699701573.709161 0.00009719 0.01666598 -0.00803372 0.00027952 -0.00292399 -0.00006782
1699701573.808163 0.00004305 0.01663961 -0.00807190 0.00028481 -0.00292837 -0.00006047
1699701573.907165 0.00006015 0.01659586 -0.00809512 0.00028446 -0.00293177 -0.00005681
1699701574.009167 0.00020210 0.01658044 -0.00812314 0.00027687 -0.00294201 -0.00006264
1699701574.108170 0.00035495 0.01668403 -0.00816547 0.00027432 -0.00293873 -0.00005404
1699701574.207172 0.00046726 0.01673640 -0.00812978 0.00026790 -0.00293815 -0.00005486
1699701574.309174 0.00065161 0.01675121 -0.00813681 0.00026228 -0.00294537 -0.00006348
1699701574.408176 0.00081047 0.01681902 -0.00811118 0.00026020 -0.00294546 -0.00005952
1699701574.507178 0.00100172 0.01681120 -0.00786451 0.00025215 -0.00294985 -0.00005785
1699701574.606180 0.00113929 0.01677174 -0.00767556 0.00025090 -0.00294675 -0.00005793
1699701574.708182 0.00119174 0.01670777 -0.00769029 0.00024712 -0.00294893 -0.00005632
1699701574.807184 0.00113002 0.01668418 -0.00777224 0.00023720 -0.00295749 -0.00005600
1699701574.906187 0.00106232 0.01663048 -0.00787910 0.00023638 -0.00295440 -0.00005539
1699701575.008189 0.00101646 0.01656943 -0.00793046 0.00023370 -0.00295534 -0.00005564
1699701575.107191 0.00094396 0.01656523 -0.00795863 0.00023280 -0.00295601 -0.00005497
1699701575.206193 0.00078094 0.01662123 -0.00793227 0.00022692 -0.00296183 -0.00005472
1699701575.308195 0.00068962 0.01656167 -0.00783237 0.00022181 -0.00296720 -0.00005285
1699701575.407197 0.00068888 0.01646981 -0.00764542 0.00021469 -0.00297646 -0.00005108
1699701575.506199 0.00074994 0.01644274 -0.00755947 0.00021329 -0.00297550 -0.00005003
1699701575.608202 0.00089478 0.01641588 -0.00749800 0.00021246 -0.00297102 -0.00004782
1699701575.707204 0.00107179 0.01642648 -0.00750949 0.00020942 -0.00297415 -0.00004835
1699701575.806206 0.00114950 0.01647384 -0.00754977 0.00020347 -0.00298190 -0.00004972
1699701575.908208 0.00117264 0.01654801 -0.00760465 0.00020165 -0.00298749 -0.00005344
1699701576.007210 0.00109607 0.01654041 -0.00762670 0.00020050 -0.00299451 -0.00005600
1699701576.109212 0.00096250 0.01647292 -0.00774204 0.00019858 -0.00300750 -0.00006023
1699701576.208214 0.00089469 0.01636359 -0.00768187 0.00019429 -0.00300661 -0.00005908
1699701576.307216 0.00063658 0.01623328 -0.00743943 0.00019122 -0.00301105 -0.00005657
1699701576.406219 0.00055235 0.01623295 -0.00731814 0.00019212 -0.00301525 -0.00005839
1699701576.508221 0.00021842 0.01626589 -0.00714010 0.00019781 -0.00301830 -0.00006099
1699701576.607223 0.00008857 0.01623010 -0.00702828 0.00019710 -0.00302964 -0.00005967
1699701576.706225 -0.00027781 0.01628066 -0.00702866 0.00020416 -0.00303794 -0.00006233
1699701576.808227 -0.00031684 0.01626857 -0.00713672 0.00020239 -0.00303760 -0.00006025
1699701576.907229 -0.00055367 0.01617639 -0.00729118 0.00020076 -0.00304456 -0.00005998
1699701577.006231 -0.00064821 0.01608747 -0.00734348 0.00019885 -0.00305163 -0.00006048
1699701577.108233 -0.00067689 0.01594104 -0.00736927 0.00020296 -0.00305122 -0.00006121
1699701577.207236 -0.00059882 0.01589007 -0.00728932 0.00020297 -0.00305460 -0.00006246
1699701577.306238 -0.00053256 0.01587232 -0.00719647 0.00020544 -0.00306045 -0.00006417
1699701577.408240 -0.00049731 0.01580931 -0.00710524 0.00020635 -0.00305718 -0.00006505
1699701577.507242 -0.00041775 0.01564691 -0.00710473 0.00020225 -0.00306644 -0.00006348
1699701577.609244 -0.00015849 0.01555147 -0.00698376 0.00019975 -0.00308151 -0.00006449
1699701577.708246 -0.00003846 0.01533910 -0.00696962 0.00019852 -0.00308191 -0.00005978
1699701577.807248 -0.00011715 0.01521317 -0.00692741 0.00020078 -0.00308398 -0.00005811
1699701577.909250 0.00002556 0.01511889 -0.00679890 0.00019754 -0.00309347 -0.00005532
1699701578.008253 -0.00012750 0.01501245 -0.00678234 0.00020012 -0.00309716 -0.00005647
1699701578.107255 -0.00022161 0.01482459 -0.00673716 0.00019919 -0.00310567 -0.00005453
1699701578.209257 -0.00011727 0.01482222 -0.00663416 0.00019832 -0.00311760 -0.00005218
1699701578.308259 -0.00012891 0.01474066 -0.00670074 0.00019366 -0.00312317 -0.00005098
1699701578.407261 -0.00020075 0.01479803 -0.00675233 0.00019323 -0.00312584 -0.00005385
1699701578.506263 -0.00017065 0.01482652 -0.00674614 0.00018772 -0.00312757 -0.00005238
1699701578.608265 -0.00006462 0.01480159 -0.00695898 0.00018703 -0.00312700 -0.00005059
1699701578.707268 -0.00011582 0.01476629 -0.00692468 0.00018191 -0.00313278 -0.00005155
1699701578.809270 0.00007057 0.01479003 -0.00689313 0.00017846 -0.00314338 -0.00005208
1699701578.908272 -0.00000336 0.01467739 -0.00687557 0.00017619 -0.00314740 -0.00004934
1699701579.007274 0.00001917 0.01458169 -0.00689271 0.00017412 -0.00315310 -0.00004565
1699701579.109276 0.00007452 0.01454663 -0.00687842 0.00017729 -0.00316635 -0.00004647
1699701579.208278 0.00010424 0.01459046 -0.00698926 0.00017610 -0.00316277 -0.00004713
1699701579.307280 0.00004626 0.01452964 -0.00697919 0.00017823 -0.00316365 -0.00004735
1699701579.409282 0.00026087 0.01456739 -0.00698665 0.00017950 -0.00317173 -0.00004836
1699701579.508285 0.00023554 0.01456718 -0.00690748 0.00018757 -0.00318274 -0.00004833
1699701579.607287 0.00023384 0.01455365 -0.00686262 0.00019048 -0.00318886 -0.00004808
1699701579.709289 0.00031552 0.01454593 -0.00686759 0.00019512 -0.00320113 -0.00004647
1699701579.808291 0.00024991 0.01450405 -0.00698710 0.00019610 -0.00319639 -0.00004719
1699701579.907293 0.00012940 0.01438660 -0.00698052 0.00019693 -0.00319589 -0.00004734
1699701580.009295 0.00027872 0.01429826 -0.00697232 0.00019954 -0.00320629 -0.00004559
1699701580.108298 0.00022107 0.01426858 -0.00700759 0.00020223 -0.00320598 -0.00004545
1699701580.207299 0.00020354 0.01425202 -0.00700687 0.00020552 -0.00321208 -0.00004713
1699701580.309302 0.00032833 0.01427849 -0.00713661 0.00020732 -0.00322302 -0.00004636
1699701580.408304 0.00022273 0.01421128 -0.00712301 0.00021027 -0.00322083 -0.00004564
1699701580.507306 0.00013801 0.01412443 -0.00709689 0.00021335 -0.00322426 -0.00004338
1699701580.609308 0.00022931 0.01411948 -0.00701509 0.00021585 -0.00323379 -0.00004129
1699701580.708310 0.00016429 0.01411046 -0.00701262 0.00021741 -0.00323255 -0.00004245
1699701580.807312 0.00005936 0.01403278 -0.00696717 0.00021583 -0.00323492 -0.00004081
1699701580.909315 0.00008205 0.01406283 -0.00694078 0.00021603 -0.00324386 -0.00003763
1699701581.008317 0.00003433 0.01406617 -0.00682685 0.00021605 -0.00325361 -0.00003841
1699701581.107319 -0.00004231 0.01408970 -0.00682026 0.00021608 -0.00325981 -0.00004065
1699701581.209321 0.00002807 0.01408966 -0.00685668 0.00021823 -0.00327124 -0.00003744
1699701581.308323 -0.00005058 0.01409809 -0.00694986 0.00021901 -0.00326666 -0.00003873
1699701581.407325 -0.00012757 0.01405970 -0.00699995 0.00022181 -0.00326791 -0.00003978
1699701581.509327 -0.00007340 0.01407284 -0.00695049 0.00022145 -0.00327535 -0.00003928
1699701581.608330 -0.00014811 0.01413448 -0.00698655 0.00022144 -0.00327415 -0.00003960
1699701581.707332 -0.00027007 0.01406284 -0.00688744 0.00022194 -0.00327909 -0.00003965
1699701581.809334 -0.00026190 0.01399905 -0.00688755 0.00022180 -0.00328236 -0.00003540
1699701581.908336 -0.00042013 0.01398701 -0.00679502 0.00021804 -0.00328304 -0.00003993
1699701582.007338 -0.00060647 0.01386387 -0.00683099 0.00021844 -0.00328473 -0.00004053
1699701582.109340 -0.00055292 0.01376167 -0.00696138 0.00021768 -0.00329003 -0.00003641
1699701582.208342 -0.00056997 0.01367678 -0.00706664 0.00021837 -0.00328940 -0.00003814
1699701582.307344 -0.00059125 0.01365187 -0.00705498 0.00021705 -0.00328790 -0.00003914
1699701582.406347 -0.00059267 0.01358263 -0.00705369 0.00021455 -0.00328863 -0.00003653
1699701582.508349 -0.00054501 0.01352023 -0.00714300 0.00021405 -0.00328659 -0.00003439
1699701582.607351 -0.00044891 0.01347869 -0.00720960 0.00021494 -0.00328932 -0.00003240
1699701582.709353 -0.00027179 0.01345646 -0.00723640 0.00021919 -0.00329858 -0.00002615
1699701582.808355 -0.00020737 0.01346376 -0.00732430 0.00021619 -0.00329122 -0.00003228
1699701582.907357 -0.00017818 0.01343611 -0.00731257 0.00021633 -0.00329192 -0.00003343
1699701583.009359 -0.00010356 0.01336715 -0.00719600 0.00022040 -0.00330047 -0.00002886
1699701583.108361 -0.00001082 0.01331236 -0.00721022 0.00022084 -0.00328989 -0.00003208
1699701583.207364 0.00008005 0.01328889 -0.00719974 0.00022162 -0.00328861 -0.00003244
1699701583.306366 0.00020455 0.01329205 -0.00719033 0.00022206 -0.00328933 -0.00003246
1699701583.408368 0.00025807 0.01334053 -0.00715099 0.00022263 -0.00328784 -0.00003261
1699701583.507370 0.00030614 0.01338448 -0.00708959 0.00022208 -0.00328825 -0.00003203
1699701583.606372 0.00037690 0.01340708 -0.00703459 0.00022323 -0.00329144 -0.00003229
1699701583.708374 0.00038972 0.01342336 -0.00706437 0.00022480 -0.00329018 -0.00003149
1699701583.807376 0.00048126 0.01346304 -0.00704980 0.00022797 -0.00329464 -0.00003182
1699701583.906379 0.00057702 0.01344310 -0.00706786 0.00023087 -0.00329658 -0.00003264
1699701584.008381 0.00064311 0.01338594 -0.00719839 0.00023161 -0.00329576 -0.00003361
1699701584.107383 0.00070616 0.01337922 -0.00728815 0.00023048 -0.00330069 -0.00003258
1699701584.206385 0.00072238 0.01340750 -0.00723895 0.00023222 -0.00331483 -0.00003250
1699701584.308387 0.00075007 0.01344550 -0.00723757 0.00023184 -0.00331180 -0.00003347
1699701584.407389 0.00071878 0.01344733 -0.00716363 0.00023309 -0.00331433 -0.00003432
1699701584.506391 0.00056524 0.01343037 -0.00709252 0.00023421 -0.00331484 -0.00003463
1699701584.608393 0.00054904 0.01331857 -0.00706686 0.00023538 -0.00331207 -0.00003483
1699701584.707396 0.00050124 0.01326559 -0.00697409 0.00023437 -0.00331591 -0.00003524
1699701584.806398 0.00047565 0.01320943 -0.00697603 0.00023441 -0.00332086 -0.00003462
1699701584.908400 0.00035007 0.01326493 -0.00687303 0.00023213 -0.00331762 -0.00003471
1699701585.007402 0.00032333 0.01331246 -0.00688489 0.00023343 -0.00331749 -0.00003513
1699701585.106404 0.00023148 0.01340662 -0.00677334 0.00023296 -0.00332380 -0.00003538
1699701585.208406 0.00016417 0.01352161 -0.00681330 0.00023525 -0.00332205 -0.00003641
1699701585.307408 0.00005443 0.01359890 -0.00688158 0.00023445 -0.00332626 -0.00003903
1699701585.406410 0.00002263 0.01362453 -0.00686917 0.00023324 -0.00333041 -0.00003984
1699701585.508413 -0.00000147 0.01366912 -0.00683407 0.00023097 -0.00332860 -0.00004027
1699701585.607415 -0.00000306 0.01371065 -0.00683731 0.00023107 -0.00333061 -0.00004055
1699701585.706417 -0.00003751 0.01374046 -0.00699763 0.00023287 -0.00333032 -0.00004151
1699701585.808419 -0.00009301 0.01373627 -0.00710163 0.00023445 -0.00332731 -0.00004210
