timestamp ba_x ba_y ba_z bg_x bg_y bg_z
1697506107.002118 0.00001307 0.00000673 -0.01081562 -0.00002072 -0.00022519 0.00019665
1697506107.101120 0.00003580 0.00001114 -0.01769026 -0.00001945 -0.00022100 0.00019839
1697506107.203122 0.00008866 0.00002164 -0.03376588 -0.00001763 -0.00020937 0.00020363
1697506107.302124 0.00014332 0.00003376 -0.05086591 -0.00001760 -0.00019905 0.00020852
1697506107.401126 0.00019809 0.00004763 -0.06893781 -0.00001877 -0.00018808 0.00021408
1697506107.503128 0.00023352 0.00005777 -0.08111953 -0.00001945 -0.00018052 0.00021693
1697506107.602130 0.00028641 0.00007572 -0.10104329 -0.00002414 -0.00016779 0.00022153
1697506107.701133 0.00033753 0.00009338 -0.12163864 -0.00003041 -0.00015462 0.00022224
1697506107.803135 0.00037816 0.00010773 -0.13909040 -0.00003633 -0.00014282 0.00022214
1697506107.902137 0.00041826 0.00012149 -0.15696228 -0.00004110 -0.00013101 0.00022017
1697506108.001139 0.00045873 0.00013484 -0.17528361 -0.00004661 -0.00012071 0.00022093
1697506108.103141 0.00049090 0.00014314 -0.19363691 -0.00005245 -0.00010709 0.00022139
1697506108.202143 0.00052227 0.00014982 -0.21580529 -0.00005854 -0.00009713 0.00021995
1697506108.301145 0.00054822 0.00015572 -0.23787109 -0.00005991 -0.00009106 0.00021725
1697506108.403147 0.00057565 0.00015850 -0.26034575 -0.00005682 -0.00008349 0.00020880
1697506108.502150 0.00059702 0.00016258 -0.27848204 -0.00005185 -0.00007983 0.00020686
1697506108.601152 0.00061890 0.00016645 -0.29679329 -0.00004536 -0.00007658 0.00020524
1697506108.700154 0.00064748 0.00016976 -0.31928143 -0.00003018 -0.00007046 0.00020322
1697506108.802156 0.00066770 0.00017127 -0.33361165 -0.00001667 -0.00006743 0.00020172
1697506108.901158 0.00069297 0.00017116 -0.35698472 0.00000456 -0.00007155 0.00019939
1697506109.000160 0.00070259 0.00017147 -0.38127268 0.00002304 -0.00007202 0.00020226
1697506109.102162 0.00071095 0.00017330 -0.40564032 0.00003777 -0.00007643 0.00020009
1697506109.201164 0.00071556 0.00017556 -0.42504614 0.00005035 -0.00008141 0.00019619
1697506109.303167 0.00073265 0.00017617 -0.44897902 0.00006079 -0.00008941 0.00018877
1697506109.402169 0.00074322 0.00017696 -0.47336391 0.00007604 -0.00009954 0.00018332
1697506109.501171 0.00074805 0.00017860 -0.49281742 0.00008202 -0.00010951 0.00018062
1697506109.600173 0.00075138 0.00017910 -0.51194190 0.00008490 -0.00011675 0.00017759
1697506109.702175 0.00075557 0.00018182 -0.53490191 0.00007865 -0.00012146 0.00017530
1697506109.801177 0.00076876 0.00017812 -0.56178503 0.00006970 -0.00013041 0.00016924
1697506109.900179 0.00077706 0.00017831 -0.58355415 0.00006605 -0.00013795 0.00016576
1697506110.002182 0.00078163 0.00017922 -0.59710514 0.00006364 -0.00014201 0.00016060
1697506110.101184 0.00078631 0.00017883 -0.61355475 0.00005761 -0.00014773 0.00015383
1697506110.203186 0.00079227 0.00017783 -0.63270471 0.00006078 -0.00015506 0.00014607
1697506110.302188 0.00079834 0.00017797 -0.65159507 0.00006172 -0.00016111 0.00013796
1697506110.401190 0.00080514 0.00017774 -0.66914604 0.00006942 -0.00016612 0.00013196
1697506110.500192 0.00081262 0.00017788 -0.68540482 0.00007628 -0.00016800 0.00012917
1697506110.602195 0.00082046 0.00017815 -0.70048928 0.00008415 -0.00016538 0.00013270
1697506110.701196 0.00082708 0.00018014 -0.71187121 0.00009409 -0.00016343 0.00013250
1697506110.800199 0.00083293 0.00018149 -0.72531528 0.00010660 -0.00015859 0.00013287
1697506110.902201 0.00083613 0.00018191 -0.73767427 0.00011960 -0.00014938 0.00013220
1697506111.001203 0.00080916 0.00017610 -0.74810521 0.00012558 -0.00013560 0.00013686
1697506111.103205 0.00077541 0.00016726 -0.75747341 0.00012632 -0.00012092 0.00013763
1697506111.202207 0.00074294 0.00015951 -0.76408975 0.00011990 -0.00011569 0.00014308
1697506111.301209 0.00073757 0.00013912 -0.77176407 0.00010854 -0.00011212 0.00015382
1697506111.400212 0.00072661 0.00012498 -0.77873724 0.00011060 -0.00010477 0.00015888
1697506111.502214 0.00071041 0.00010857 -0.78450114 0.00011267 -0.00011294 0.00014895
1697506111.601216 0.00069767 0.00009570 -0.78879849 0.00010909 -0.00012120 0.00014325
1697506111.700218 0.00068214 0.00007745 -0.79281927 0.00010516 -0.00011801 0.00013968
1697506111.799220 0.00066051 0.00005734 -0.79603476 0.00010424 -0.00009216 0.00013829
1697506111.901222 0.00061344 0.00002388 -0.79737718 0.00009869 -0.00005771 0.00014209
1697506112.000224 0.00056181 -0.00000013 -0.79996929 0.00009889 -0.00000646 0.00013946
1697506112.102226 0.00048492 -0.00002849 -0.80212904 0.00010710 0.00003165 0.00013466
1697506112.201229 0.00042219 -0.00004809 -0.80450674 0.00005601 0.00001662 0.00012462
1697506112.300231 0.00035974 -0.00008387 -0.80646122 0.00000216 0.00002433 0.00011054
1697506112.399233 0.00030263 -0.00014143 -0.80773839 -0.00003242 0.00004450 0.00010305
1697506112.501235 0.00031326 -0.00029828 -0.80829437 -0.00006489 0.00006317 0.00010610
1697506112.600237 0.00040386 -0.00048923 -0.80913073 -0.00007583 0.00008318 0.00010522
1697506112.702239 0.00047087 -0.00062725 -0.80978971 -0.00007664 0.00010064 0.00010471
1697506112.801241 0.00054251 -0.00079290 -0.81049820 -0.00007190 0.00011227 0.00010713
1697506112.903244 0.00058985 -0.00089993 -0.81049039 -0.00007340 0.00010635 0.00011440
1697506113.002246 0.00067500 -0.00107368 -0.81046129 -0.00009463 0.00008374 0.00011449
1697506113.104248 0.00081312 -0.00142192 -0.81076502 -0.00017517 0.00003546 0.00012824
1697506113.203250 0.00090610 -0.00168298 -0.81035264 -0.00019720 0.00002458 0.00011022
1697506113.305252 0.00095174 -0.00171413 -0.81022163 -0.00019148 0.00002617 0.00013113
1697506113.404254 0.00095165 -0.00171487 -0.80998480 -0.00019281 0.00001632 0.00012566
1697506113.503256 0.00095199 -0.00171636 -0.80983300 -0.00019702 0.00001176 0.00012057
1697506113.602258 0.00091797 -0.00176653 -0.80933190 -0.00020065 -0.00000212 0.00011663
1697506113.704261 0.00090364 -0.00180881 -0.80898538 -0.00019746 -0.00000178 0.00011356
1697506113.803263 0.00090472 -0.00182268 -0.80887337 -0.00019403 -0.00000264 0.00011520
1697506113.902265 0.00077996 -0.00163643 -0.80889627 -0.00018943 0.00000652 0.00011708
1697506114.004267 0.00089307 -0.00149587 -0.80890944 -0.00018132 0.00000624 0.00011597
1697506114.103269 0.00097155 -0.00144812 -0.80878249 -0.00016748 0.00000616 0.00011389
1697506114.205271 0.00103769 -0.00140454 -0.80858294 -0.00015144 -0.00000326 0.00012678
1697506114.304273 0.00102893 -0.00137712 -0.80842991 -0.00013971 0.00000792 0.00012319
1697506114.403275 0.00098693 -0.00135357 -0.80830140 -0.00013528 0.00002870 0.00011737
1697506114.505278 0.00094786 -0.00136191 -0.80823096 -0.00012790 0.00004197 0.00012073
1697506114.604280 0.00087811 -0.00130222 -0.80809686 -0.00011326 0.00006422 0.00010722
1697506114.703282 0.00083238 -0.00126849 -0.80794452 -0.00010583 0.00007265 0.00009773
1697506114.805284 0.00077612 -0.00128031 -0.80786616 -0.00009922 0.00006366 0.00010101
1697506114.904286 0.00072997 -0.00119838 -0.80773431 -0.00009266 0.00006687 0.00009538
1697506115.003288 0.00064727 -0.00111714 -0.80770869 -0.00008756 0.00006262 0.00008781
1697506115.105290 0.00056293 -0.00108345 -0.80771553 -0.00008766 0.00006354 0.00009005
1697506115.204293 0.00046303 -0.00090633 -0.80760892 -0.00008315 0.00006459 0.00008412
1697506115.306295 0.00031520 -0.00086421 -0.80766532 -0.00006954 0.00009706 0.00008108
1697506115.408297 0.00012919 -0.00076600 -0.80768937 -0.00003085 0.00020669 0.00008087
1697506115.507299 -0.00002959 -0.00060257 -0.80751357 -0.00001603 0.00022844 0.00008344
1697506115.606301 -0.00026224 -0.00028953 -0.80729785 -0.00000869 0.00022979 0.00007767
1697506115.705303 -0.00048286 -0.00008868 -0.80732121 -0.00000627 0.00022391 0.00007192
1697506115.807306 -0.00064526 -0.00004961 -0.80744240 -0.00000519 0.00020996 0.00007569
1697506115.906308 -0.00080995 0.00011704 -0.80728743 0.00000070 0.00021054 0.00007561
1697506116.005310 -0.00094377 0.00022999 -0.80722600 0.00000818 0.00021196 0.00007385
1697506116.107312 -0.00116894 0.00025821 -0.80733318 0.00002534 0.00020934 0.00007482
1697506116.206314 -0.00130256 0.00038146 -0.80717428 0.00003001 0.00020154 0.00007538
1697506116.305316 -0.00147403 0.00053664 -0.80704224 0.00003884 0.00018501 0.00006775
1697506116.407318 -0.00168981 0.00066829 -0.80700495 0.00004861 0.00016049 0.00005831
1697506116.506320 -0.00207062 0.00083642 -0.80713031 0.00005233 0.00014190 0.00005413
1697506116.605323 -0.00238703 0.00095005 -0.80714928 0.00004815 0.00012935 0.00005427
1697506116.704325 -0.00276049 0.00102300 -0.80699152 0.00004365 0.00009414 0.00005453
1697506116.809327 -0.00312203 0.00097523 -0.80699634 0.00003861 0.00006460 0.00005656
1697506116.905329 -0.00367727 0.00098139 -0.80705107 0.00003729 0.00004627 0.00005780
1697506117.001331 -0.00406934 0.00109375 -0.80700388 0.00003241 0.00002299 0.00005559
1697506117.103333 -0.00454447 0.00124370 -0.80698363 0.00002464 0.00001305 0.00005330
1697506117.202335 -0.00491279 0.00131745 -0.80688300 0.00001853 0.00001093 0.00005117
1697506117.301337 -0.00544894 0.00105927 -0.80713695 0.00001295 0.00004650 0.00004349
1697506117.400339 -0.00571895 0.00101165 -0.80706498 0.00001328 0.00004537 0.00004303
1697506117.499341 -0.00631302 0.00103230 -0.80723590 0.00001179 0.00004128 0.00004462
1697506117.598344 -0.00652280 0.00102243 -0.80726209 0.00001338 0.00003383 0.00004332
1697506117.697346 -0.00716099 0.00085833 -0.80743190 0.00001473 0.00002073 0.00003953
1697506117.796348 -0.00739509 0.00076714 -0.80748412 0.00001238 0.00001359 0.00003720
1697506117.898350 -0.00802874 0.00018979 -0.80743182 0.00001149 -0.00001043 0.00003567
1697506117.997352 -0.00862834 -0.00015151 -0.80714586 0.00001620 -0.00001665 0.00002946
1697506118.096354 -0.00906944 -0.00041114 -0.80712286 0.00001542 -0.00002846 0.00002613
1697506118.195356 -0.00913038 -0.00044422 -0.80712790 0.00001499 -0.00003040 0.00002590
1697506118.294358 -0.00956330 -0.00077634 -0.80726857 0.00001115 -0.00005241 0.00002475
1697506118.393361 -0.00966445 -0.00085086 -0.80730549 0.00001111 -0.00005713 0.00002348
1697506118.492363 -0.01008615 -0.00141926 -0.80748694 0.00001943 -0.00004797 0.00001324
1697506118.588365 -0.01043721 -0.00174298 -0.80734005 0.00002318 -0.00005685 0.00000975
1697506118.690367 -0.01088217 -0.00232417 -0.80720500 0.00002424 -0.00007597 -0.00000787
1697506118.789369 -0.01132461 -0.00280017 -0.80686231 0.00002193 -0.00008781 -0.00002140
1697506118.888371 -0.01192913 -0.00341368 -0.80705271 0.00002612 -0.00009192 -0.00003521
1697506118.987373 -0.01233686 -0.00383848 -0.80728549 0.00002916 -0.00009115 -0.00004825
1697506119.086375 -0.01294875 -0.00464883 -0.80778522 0.00003948 -0.00010337 -0.00006183
1697506119.182378 -0.01340141 -0.00508030 -0.80786426 0.00003681 -0.00011490 -0.00006220
1697506119.281380 -0.01386993 -0.00551531 -0.80770802 0.00003449 -0.00012949 -0.00006075
1697506119.380382 -0.01426277 -0.00590189 -0.80762297 0.00002479 -0.00015079 -0.00005701
1697506119.479384 -0.01472709 -0.00638514 -0.80765569 0.00001376 -0.00017450 -0.00005030
1697506119.578386 -0.01524032 -0.00695008 -0.80766044 0.00000116 -0.00018821 -0.00004298
1697506119.680388 -0.01582550 -0.00779851 -0.80753711 -0.00000026 -0.00018935 -0.00004317
1697506119.776390 -0.01632816 -0.00837609 -0.80752900 0.00000058 -0.00019564 -0.00004452
1697506119.878392 -0.01675231 -0.00894238 -0.80775936 -0.00000475 -0.00018757 -0.00004558
1697506119.977394 -0.01721870 -0.00950364 -0.80782850 0.00000140 -0.00019930 -0.00004620
1697506120.076396 -0.01772991 -0.01009021 -0.80808632 0.00000344 -0.00020301 -0.00004170
1697506120.172399 -0.01822148 -0.01073180 -0.80849775 -0.00000835 -0.00019996 -0.00004119
1697506120.271401 -0.01866065 -0.01138047 -0.80889559 -0.00001384 -0.00021223 -0.00003206
1697506120.370403 -0.01904410 -0.01199267 -0.80903604 -0.00001088 -0.00020772 -0.00002914
1697506120.469405 -0.01935866 -0.01264438 -0.80864792 -0.00001959 -0.00020308 -0.00002672
1697506120.571407 -0.01970923 -0.01340732 -0.80829713 -0.00002937 -0.00022661 -0.00002134
1697506120.670409 -0.01998183 -0.01401966 -0.80821918 -0.00002553 -0.00023367 -0.00002191
1697506120.769411 -0.02030092 -0.01466545 -0.80821519 -0.00003929 -0.00024662 -0.00001172
1697506120.871413 -0.02064035 -0.01550502 -0.80820695 -0.00003578 -0.00024949 -0.00000358
1697506120.970416 -0.02095680 -0.01618123 -0.80788582 -0.00003476 -0.00023989 -0.00000132
1697506121.069418 -0.02131823 -0.01684859 -0.80774850 -0.00003956 -0.00023622 0.00000221
1697506121.171420 -0.02165443 -0.01766302 -0.80784979 -0.00003780 -0.00023860 0.00000810
1697506121.270422 -0.02193776 -0.01822959 -0.80751820 -0.00002957 -0.00024219 0.00000108
1697506121.369424 -0.02221054 -0.01876757 -0.80761358 -0.00002537 -0.00025301 -0.00000189
1697506121.471426 -0.02249509 -0.01955873 -0.80770547 -0.00001548 -0.00026206 -0.00000525
1697506121.570428 -0.02277071 -0.02013563 -0.80761320 -0.00000804 -0.00023028 -0.00000297
1697506121.669430 -0.02314667 -0.02072229 -0.80778363 -0.00000550 -0.00020643 -0.00000453
1697506121.771433 -0.02354135 -0.02154672 -0.80804767 -0.00001047 -0.00018897 -0.00000570
1697506121.870435 -0.02394818 -0.02221518 -0.80772760 -0.00001848 -0.00019351 -0.00000130
1697506121.969437 -0.02429291 -0.02275746 -0.80757522 -0.00002122 -0.00018379 0.00000907
1697506122.071439 -0.02474398 -0.02357110 -0.80781711 -0.00002736 -0.00014182 0.00001101
1697506122.170441 -0.02516124 -0.02415864 -0.80763826 -0.00003208 -0.00016223 0.00000901
1697506122.269443 -0.02551844 -0.02466433 -0.80779601 -0.00004316 -0.00016387 0.00000775
1697506122.371445 -0.02578556 -0.02520906 -0.80809700 -0.00004790 -0.00017263 0.00001033
1697506122.470448 -0.02609174 -0.02575558 -0.80814123 -0.00005219 -0.00018323 0.00001297
1697506122.572450 -0.02631391 -0.02621380 -0.80842750 -0.00005994 -0.00019423 0.00001211
1697506122.671452 -0.02646982 -0.02653521 -0.80856298 -0.00005437 -0.00018045 0.00001084
1697506122.770454 -0.02667223 -0.02691182 -0.80831797 -0.00006011 -0.00021582 0.00000971
1697506122.869456 -0.02683417 -0.02735388 -0.80801861 -0.00005926 -0.00024205 0.00000284
1697506122.971458 -0.02703715 -0.02795548 -0.80790560 -0.00005773 -0.00028158 -0.00000087
1697506123.070460 -0.02722380 -0.02831884 -0.80789303 -0.00006158 -0.00029541 -0.00000451
1697506123.169462 -0.02748011 -0.02883505 -0.80786135 -0.00006724 -0.00030596 -0.00000678
1697506123.268465 -0.02764212 -0.02917860 -0.80794684 -0.00006746 -0.00030319 -0.00000388
1697506123.370467 -0.02785207 -0.02966774 -0.80795709 -0.00006546 -0.00030125 -0.00000565
1697506123.469469 -0.02806420 -0.03026781 -0.80793558 -0.00006320 -0.00030500 -0.00000941
1697506123.571471 -0.02834867 -0.03113039 -0.80801043 -0.00005983 -0.00030278 -0.00001003
1697506123.670473 -0.02861910 -0.03176034 -0.80774939 -0.00005760 -0.00030163 -0.00001137
1697506123.769475 -0.02879568 -0.03223562 -0.80787390 -0.00005731 -0.00029016 -0.00001000
1697506123.868477 -0.02899357 -0.03274898 -0.80815680 -0.00006724 -0.00027551 -0.00000794
1697506123.970480 -0.02920448 -0.03330994 -0.80825611 -0.00006780 -0.00028412 -0.00000480
1697506124.069482 -0.02935867 -0.03380684 -0.80838886 -0.00006856 -0.00028520 -0.00000219
1697506124.171484 -0.02948268 -0.03445840 -0.80868571 -0.00005797 -0.00022188 0.00001127
1697506124.270486 -0.02958774 -0.03495974 -0.80811213 -0.00006085 -0.00024422 0.00001226
1697506124.369488 -0.02964412 -0.03534311 -0.80810377 -0.00005703 -0.00024641 0.00000804
1697506124.468490 -0.02962368 -0.03570175 -0.80797485 -0.00005775 -0.00024013 0.00000995
1697506124.570493 -0.02959415 -0.03610902 -0.80784873 -0.00005261 -0.00023637 0.00000799
1697506124.669495 -0.02956202 -0.03652506 -0.80775286 -0.00005242 -0.00024648 0.00001160
1697506124.768497 -0.02945310 -0.03694972 -0.80780224 -0.00004966 -0.00025074 0.00001928
1697506124.870499 -0.02939651 -0.03718076 -0.80792265 -0.00004965 -0.00024843 0.00002420
1697506124.969501 -0.02928314 -0.03760626 -0.80795074 -0.00005064 -0.00024771 0.00002522
1697506125.068503 -0.02910692 -0.03794347 -0.80783025 -0.00008118 -0.00026385 0.00002889
1697506125.170505 -0.02881980 -0.03846087 -0.80816809 -0.00010379 -0.00029404 0.00003648
1697506125.269507 -0.02855920 -0.03884109 -0.80830344 -0.00010915 -0.00029785 0.00004303
1697506125.368510 -0.02835994 -0.03914787 -0.80845080 -0.00010987 -0.00029928 0.00004607
1697506125.470512 -0.02790890 -0.03953283 -0.80867036 -0.00011799 -0.00031559 0.00005274
1697506125.569514 -0.02729726 -0.03982405 -0.80851103 -0.00011943 -0.00031807 0.00005165
1697506125.668516 -0.02686577 -0.04008010 -0.80848318 -0.00011898 -0.00031845 0.00005349
1697506125.770518 -0.02633013 -0.04038832 -0.80847294 -0.00012532 -0.00033134 0.00005654
1697506125.872520 -0.02563422 -0.04073850 -0.80822903 -0.00013038 -0.00035074 0.00005444
1697506125.968522 -0.02501787 -0.04093456 -0.80817957 -0.00013731 -0.00034742 0.00005790
1697506126.070524 -0.02447905 -0.04121604 -0.80836692 -0.00013772 -0.00034008 0.00005344
1697506126.169527 -0.02409838 -0.04136625 -0.80818168 -0.00013975 -0.00033336 0.00006158
1697506126.268529 -0.02371402 -0.04152788 -0.80816052 -0.00014261 -0.00032896 0.00006684
1697506126.370531 -0.02342295 -0.04181310 -0.80832706 -0.00014388 -0.00033353 0.00006038
1697506126.469533 -0.02316865 -0.04203876 -0.80817003 -0.00014068 -0.00032929 0.00006480
1697506126.568535 -0.02291339 -0.04226417 -0.80800132 -0.00013786 -0.00032999 0.00006191
1697506126.670537 -0.02263780 -0.04256410 -0.80809143 -0.00013224 -0.00033062 0.00005290
1697506126.769539 -0.02234840 -0.04281253 -0.80789880 -0.00012900 -0.00032208 0.00005343
1697506126.868541 -0.02208131 -0.04304647 -0.80794487 -0.00012769 -0.00031310 0.00005083
1697506126.970544 -0.02179664 -0.04331207 -0.80803902 -0.00013322 -0.00029994 0.00004239
1697506127.069546 -0.02153607 -0.04351140 -0.80802691 -0.00012460 -0.00026357 0.00004468
1697506127.171548 -0.02128428 -0.04375076 -0.80786207 -0.00012873 -0.00026144 0.00004549
1697506127.270550 -0.02108599 -0.04393489 -0.80786246 -0.00012649 -0.00024032 0.00004439
1697506127.369552 -0.02090961 -0.04409624 -0.80766821 -0.00013156 -0.00025884 0.00005633
1697506127.468554 -0.02078116 -0.04421466 -0.80769873 -0.00013366 -0.00027045 0.00005859
1697506127.570556 -0.02062326 -0.04436258 -0.80790659 -0.00013485 -0.00027724 0.00005466
1697506127.669559 -0.02048691 -0.04448198 -0.80790900 -0.00013128 -0.00026718 0.00005650
1697506127.768561 -0.02025746 -0.04467408 -0.80772991 -0.00012452 -0.00025925 0.00005205
1697506127.870563 -0.02004020 -0.04485878 -0.80782395 -0.00012757 -0.00025010 0.00004471
1697506127.969565 -0.01982053 -0.04503703 -0.80772337 -0.00012755 -0.00026040 0.00004005
1697506128.068567 -0.01962254 -0.04519557 -0.80781459 -0.00012583 -0.00024429 0.00004170
1697506128.170569 -0.01940559 -0.04535986 -0.80798075 -0.00012332 -0.00022793 0.00004397
1697506128.269571 -0.01921154 -0.04551807 -0.80779786 -0.00012304 -0.00022355 0.00005052
1697506128.368573 -0.01899919 -0.04566787 -0.80773835 -0.00012435 -0.00020757 0.00005805
1697506128.467576 -0.01880540 -0.04580625 -0.80772875 -0.00012456 -0.00020434 0.00006581
1697506128.569578 -0.01858738 -0.04593444 -0.80784633 -0.00013472 -0.00021404 0.00006947
1697506128.668580 -0.01838013 -0.04604782 -0.80789622 -0.00014068 -0.00021043 0.00007833
1697506128.770582 -0.01813981 -0.04613488 -0.80826780 -0.00014384 -0.00021962 0.00009086
1697506128.869584 -0.01792954 -0.04622996 -0.80833047 -0.00014094 -0.00023213 0.00009574
1697506128.968586 -0.01769961 -0.04631845 -0.80846405 -0.00015007 -0.00024108 0.00010870
1697506129.067588 -0.01749173 -0.04639355 -0.80864255 -0.00016145 -0.00023860 0.00011084
1697506129.169590 -0.01725032 -0.04644172 -0.80900223 -0.00016245 -0.00022296 0.00011416
1697506129.268593 -0.01703956 -0.04648367 -0.80904586 -0.00016156 -0.00022970 0.00012279
1697506129.367595 -0.01684692 -0.04654891 -0.80897634 -0.00015541 -0.00022017 0.00013397
1697506129.466597 -0.01669859 -0.04660090 -0.80896388 -0.00014982 -0.00019541 0.00013913
1697506129.565599 -0.01646385 -0.04665057 -0.80904395 -0.00015168 -0.00018203 0.00014753
1697506129.664601 -0.01628255 -0.04669065 -0.80911675 -0.00015322 -0.00018584 0.00015134
1697506129.766603 -0.01600252 -0.04668390 -0.80925639 -0.00015365 -0.00019349 0.00016004
1697506129.865605 -0.01574938 -0.04667994 -0.80888406 -0.00015039 -0.00018332 0.00016190
1697506129.964607 -0.01547730 -0.04666086 -0.80875120 -0.00015892 -0.00019064 0.00016833
1697506130.066610 -0.01528330 -0.04663470 -0.80847686 -0.00015431 -0.00019759 0.00015980
1697506130.165612 -0.01514968 -0.04662915 -0.80839982 -0.00015590 -0.00021002 0.00015913
1697506130.264614 -0.01496542 -0.04660604 -0.80832129 -0.00015887 -0.00021230 0.00015975
1697506130.366616 -0.01485349 -0.04658061 -0.80840785 -0.00015912 -0.00022630 0.00015250
1697506130.465618 -0.01473502 -0.04654707 -0.80832555 -0.00015847 -0.00021547 0.00015131
1697506130.564620 -0.01467799 -0.04651206 -0.80833882 -0.00015204 -0.00021342 0.00014295
1697506130.666622 -0.01462803 -0.04646733 -0.80842869 -0.00014626 -0.00020302 0.00014170
1697506130.765625 -0.01457862 -0.04644686 -0.80823247 -0.00014210 -0.00021290 0.00014386
1697506130.864627 -0.01461045 -0.04649862 -0.80813993 -0.00012495 -0.00023461 0.00012170
1697506130.960629 -0.01458631 -0.04648536 -0.80822289 -0.00013550 -0.00023638 0.00013211
1697506131.062631 -0.01455286 -0.04643079 -0.80837375 -0.00013580 -0.00024374 0.00013186
1697506131.158633 -0.01447853 -0.04640959 -0.80799399 -0.00013588 -0.00022419 0.00014551
1697506131.257635 -0.01440368 -0.04631181 -0.80843606 -0.00012858 -0.00022428 0.00013568
1697506131.359637 -0.01432177 -0.04616953 -0.80872542 -0.00012954 -0.00022056 0.00013300
1697506131.458639 -0.01422781 -0.04605683 -0.80886555 -0.00011478 -0.00021246 0.00012883
1697506131.557642 -0.01411799 -0.04592349 -0.80889673 -0.00011238 -0.00021451 0.00013165
1697506131.659644 -0.01394130 -0.04569119 -0.80880209 -0.00011197 -0.00021532 0.00012652
1697506131.758646 -0.01379890 -0.04551800 -0.80852155 -0.00011084 -0.00024148 0.00012546
1697506131.857648 -0.01366131 -0.04533050 -0.80851597 -0.00011532 -0.00025052 0.00012627
1697506131.959650 -0.01350152 -0.04506611 -0.80854215 -0.00011446 -0.00024571 0.00012060
1697506132.058652 -0.01339784 -0.04486326 -0.80846132 -0.00011756 -0.00024558 0.00012563
1697506132.157654 -0.01331601 -0.04462129 -0.80848118 -0.00011986 -0.00024627 0.00012847
1697506132.259656 -0.01321625 -0.04430884 -0.80862374 -0.00012896 -0.00024175 0.00012794
1697506132.358659 -0.01311944 -0.04394232 -0.80867970 -0.00013538 -0.00024118 0.00013250
1697506132.457661 -0.01295971 -0.04344469 -0.80885900 -0.00010767 -0.00021478 0.00013894
1697506132.559663 -0.01280587 -0.04276915 -0.80868903 -0.00009315 -0.00020630 0.00013870
1697506132.658665 -0.01269021 -0.04214786 -0.80854805 -0.00009110 -0.00020706 0.00013818
1697506132.757667 -0.01258255 -0.04155599 -0.80855684 -0.00009089 -0.00021077 0.00013272
1697506132.859669 -0.01251540 -0.04085369 -0.80850658 -0.00008971 -0.00021776 0.00012811
1697506132.958671 -0.01241648 -0.04001668 -0.80861458 -0.00009075 -0.00020161 0.00012776
1697506133.057673 -0.01236014 -0.03924855 -0.80864523 -0.00008600 -0.00018239 0.00012674
1697506133.159676 -0.01232592 -0.03865170 -0.80855045 -0.00008214 -0.00019233 0.00011627
1697506133.258678 -0.01231591 -0.03810234 -0.80855542 -0.00007539 -0.00016630 0.00011743
1697506133.357680 -0.01230918 -0.03752583 -0.80853955 -0.00007225 -0.00015341 0.00011904
1697506133.459682 -0.01230653 -0.03700227 -0.80869482 -0.00006649 -0.00013700 0.00011142
1697506133.558684 -0.01229478 -0.03644769 -0.80857390 -0.00006344 -0.00015349 0.00011636
1697506133.657686 -0.01228276 -0.03608263 -0.80847752 -0.00006315 -0.00015816 0.00011769
1697506133.759688 -0.01228522 -0.03547576 -0.80844093 -0.00005916 -0.00015210 0.00010993
1697506133.858691 -0.01229324 -0.03510526 -0.80818453 -0.00005816 -0.00016341 0.00011334
1697506133.957693 -0.01231986 -0.03471050 -0.80804298 -0.00005671 -0.00016873 0.00011106
1697506134.059695 -0.01237069 -0.03420368 -0.80828252 -0.00005501 -0.00017441 0.00010042
1697506134.158697 -0.01245651 -0.03388462 -0.80846360 -0.00005495 -0.00017436 0.00010199
1697506134.257699 -0.01258138 -0.03354673 -0.80868087 -0.00006296 -0.00015579 0.00010163
1697506134.356701 -0.01266147 -0.03330355 -0.80882667 -0.00006736 -0.00014715 0.00010234
1697506134.458703 -0.01275839 -0.03297949 -0.80913632 -0.00006211 -0.00012259 0.00010080
1697506134.557705 -0.01288023 -0.03274583 -0.80917953 -0.00006503 -0.00013872 0.00010071
1697506134.656708 -0.01303393 -0.03254680 -0.80918148 -0.00006751 -0.00014516 0.00009806
1697506134.758710 -0.01316043 -0.03229757 -0.80925665 -0.00006557 -0.00013983 0.00009421
1697506134.857712 -0.01330722 -0.03199806 -0.80901331 -0.00006293 -0.00014972 0.00009242
1697506134.956714 -0.01342361 -0.03173853 -0.80893357 -0.00006514 -0.00015459 0.00009470
1697506135.058716 -0.01359654 -0.03134160 -0.80911344 -0.00006701 -0.00014870 0.00008981
1697506135.157718 -0.01382883 -0.03101011 -0.80913941 -0.00006827 -0.00015915 0.00008415
1697506135.256720 -0.01406367 -0.03064094 -0.80917267 -0.00007080 -0.00015021 0.00008162
1697506135.358722 -0.01429162 -0.03016342 -0.80936351 -0.00007001 -0.00015052 0.00007998
1697506135.457725 -0.01454235 -0.02972930 -0.80951808 -0.00006800 -0.00015499 0.00007528
1697506135.556727 -0.01476013 -0.02930309 -0.80970722 -0.00006945 -0.00016402 0.00007456
1697506135.658729 -0.01491979 -0.02881876 -0.80992805 -0.00006699 -0.00015563 0.00007059
1697506135.757731 -0.01511436 -0.02837389 -0.80987281 -0.00006413 -0.00017240 0.00006897
1697506135.856733 -0.01529848 -0.02784840 -0.81003362 -0.00006751 -0.00018766 0.00007096
1697506135.955735 -0.01539869 -0.02747870 -0.81022266 -0.00006246 -0.00019921 0.00007030
1697506136.057738 -0.01551137 -0.02697389 -0.81038880 -0.00005560 -0.00020635 0.00006972
1697506136.156739 -0.01555981 -0.02641522 -0.81045381 -0.00005499 -0.00021103 0.00007065
1697506136.258742 -0.01557170 -0.02570275 -0.81054434 -0.00005266 -0.00021819 0.00006772
1697506136.357744 -0.01559155 -0.02506349 -0.81050008 -0.00003464 -0.00022974 0.00007145
1697506136.456746 -0.01558417 -0.02448628 -0.81045782 -0.00002047 -0.00023233 0.00006999
1697506136.558748 -0.01550367 -0.02378568 -0.81041139 -0.00002051 -0.00024433 0.00007254
1697506136.657750 -0.01539432 -0.02309217 -0.81043576 -0.00002498 -0.00023468 0.00007185
1697506136.756752 -0.01530984 -0.02242544 -0.81050138 -0.00002805 -0.00023062 0.00007195
1697506136.855755 -0.01519038 -0.02158635 -0.81066655 -0.00002874 -0.00023225 0.00007074
1697506136.957757 -0.01508896 -0.02077830 -0.81095074 -0.00003349 -0.00024300 0.00007311
1697506137.056759 -0.01500565 -0.02010687 -0.81115926 -0.00004015 -0.00024155 0.00007353
1697506137.155761 -0.01499742 -0.01939760 -0.81120833 -0.00003458 -0.00023594 0.00006946
1697506137.257763 -0.01503268 -0.01848673 -0.81137581 -0.00003676 -0.00023312 0.00006835
1697506137.356765 -0.01506554 -0.01769900 -0.81164313 -0.00003643 -0.00023526 0.00006920
1697506137.455767 -0.01508570 -0.01693676 -0.81186834 -0.00003780 -0.00023688 0.00006910
1697506137.554770 -0.01509516 -0.01632568 -0.81204692 -0.00004223 -0.00023511 0.00007138
1697506137.656772 -0.01514258 -0.01555581 -0.81244691 -0.00003832 -0.00023512 0.00006359
1697506137.755774 -0.01513171 -0.01482750 -0.81287279 -0.00004222 -0.00023508 0.00006210
1697506137.854776 -0.01514966 -0.01411174 -0.81323314 -0.00004513 -0.00024099 0.00006186
1697506137.956778 -0.01519783 -0.01340440 -0.81352098 -0.00004215 -0.00024402 0.00006279
1697506138.055780 -0.01524482 -0.01280168 -0.81358811 -0.00004191 -0.00024612 0.00006402
1697506138.154782 -0.01533047 -0.01231511 -0.81348734 -0.00004253 -0.00025661 0.00006190
1697506138.256784 -0.01536211 -0.01185903 -0.81327962 -0.00004269 -0.00026236 0.00006314
1697506138.355787 -0.01541106 -0.01138924 -0.81327956 -0.00004225 -0.00026881 0.00006251
1697506138.454789 -0.01551983 -0.01083013 -0.81336751 -0.00004512 -0.00026704 0.00005915
1697506138.556791 -0.01561904 -0.01036062 -0.81338933 -0.00004600 -0.00026628 0.00005649
1697506138.655793 -0.01572095 -0.00990193 -0.81329408 -0.00004621 -0.00026725 0.00005548
1697506138.754795 -0.01588799 -0.00947189 -0.81302510 -0.00004808 -0.00026493 0.00005301
1697506138.856797 -0.01604914 -0.00899139 -0.81286063 -0.00004705 -0.00026315 0.00005341
1697506138.955799 -0.01619140 -0.00860326 -0.81271269 -0.00004558 -0.00026536 0.00005190
1697506139.054801 -0.01631498 -0.00829922 -0.81280915 -0.00004591 -0.00026465 0.00005567
1697506139.156804 -0.01648223 -0.00784436 -0.81293559 -0.00004777 -0.00026021 0.00005496
1697506139.255806 -0.01672366 -0.00753409 -0.81298003 -0.00004379 -0.00026589 0.00005273
1697506139.354808 -0.01692517 -0.00732813 -0.81305772 -0.00004312 -0.00026878 0.00005460
1697506139.456810 -0.01728214 -0.00688087 -0.81334766 -0.00004420 -0.00026735 0.00005710
1697506139.555812 -0.01746825 -0.00672192 -0.81339958 -0.00004581 -0.00027197 0.00005700
1697506139.654814 -0.01763602 -0.00665452 -0.81344053 -0.00004576 -0.00027009 0.00005774
1697506139.756816 -0.01788313 -0.00650689 -0.81340654 -0.00004133 -0.00027239 0.00005621
1697506139.855819 -0.01808655 -0.00645967 -0.81334681 -0.00003930 -0.00027573 0.00005326
1697506139.954821 -0.01831936 -0.00640045 -0.81336010 -0.00003756 -0.00027868 0.00004863
1697506140.056823 -0.01865012 -0.00626293 -0.81346453 -0.00003768 -0.00027982 0.00004607
1697506140.155825 -0.01908956 -0.00616982 -0.81352187 -0.00004070 -0.00029364 0.00004350
1697506140.254827 -0.01950149 -0.00611107 -0.81359233 -0.00004041 -0.00030267 0.00004370
1697506140.353829 -0.01988987 -0.00603700 -0.81379843 -0.00003716 -0.00029304 0.00004374
1697506140.455831 -0.02010086 -0.00597566 -0.81388828 -0.00003682 -0.00028461 0.00004517
1697506140.557833 -0.02035483 -0.00573256 -0.81404134 -0.00003640 -0.00028059 0.00004314
1697506140.656836 -0.02061084 -0.00547061 -0.81406052 -0.00003747 -0.00029139 0.00004128
1697506140.755838 -0.02087977 -0.00530944 -0.81403499 -0.00003441 -0.00028009 0.00004094
1697506140.854840 -0.02111236 -0.00516955 -0.81395072 -0.00003503 -0.00027124 0.00004416
1697506140.953842 -0.02131088 -0.00504833 -0.81390137 -0.00003038 -0.00026378 0.00004332
1697506141.055844 -0.02136873 -0.00499241 -0.81379341 -0.00002837 -0.00026704 0.00004563
1697506141.157846 -0.02136346 -0.00488086 -0.81383807 -0.00002837 -0.00027710 0.00004884
1697506141.253848 -0.02135422 -0.00476966 -0.81377743 -0.00002751 -0.00027677 0.00005027
1697506141.352850 -0.02140222 -0.00473849 -0.81367943 -0.00003108 -0.00027676 0.00005188
1697506141.451853 -0.02146372 -0.00469544 -0.81368596 -0.00003229 -0.00027543 0.00005307
1697506141.550855 -0.02171554 -0.00458091 -0.81375130 -0.00002537 -0.00026387 0.00005006
1697506141.649857 -0.02193282 -0.00445573 -0.81383585 -0.00002296 -0.00026263 0.00004900
1697506141.748859 -0.02216134 -0.00430783 -0.81398872 -0.00002047 -0.00026167 0.00004472
1697506141.847861 -0.02249797 -0.00409640 -0.81414521 -0.00001887 -0.00026680 0.00004293
1697506141.949863 -0.02279441 -0.00391107 -0.81430713 -0.00001544 -0.00027485 0.00004288
1697506142.048865 -0.02298569 -0.00373599 -0.81448801 -0.00001291 -0.00027749 0.00004432
1697506142.147867 -0.02305569 -0.00371409 -0.81465328 -0.00000450 -0.00027883 0.00004421
1697506142.246870 -0.02309527 -0.00372852 -0.81466878 -0.00000491 -0.00027872 0.00004590
1697506142.345872 -0.02313082 -0.00376906 -0.81466848 -0.00000721 -0.00027404 0.00004554
1697506142.444874 -0.02312907 -0.00380369 -0.81460139 -0.00000626 -0.00027469 0.00004337
1697506142.540876 -0.02310187 -0.00386270 -0.81461963 -0.00000669 -0.00027568 0.00004193
1697506142.642878 -0.02313044 -0.00391586 -0.81447662 -0.00000081 -0.00027732 0.00003340
1697506142.741880 -0.02310869 -0.00399552 -0.81446140 0.00000388 -0.00028003 0.00003180
1697506142.843882 -0.02303046 -0.00397802 -0.81459906 0.00000598 -0.00027212 0.00003447
1697506142.939884 -0.02295555 -0.00406522 -0.81455768 0.00001299 -0.00028928 0.00003271
1697506143.041887 -0.02289475 -0.00418118 -0.81458111 0.00001593 -0.00029348 0.00003177
1697506143.140889 -0.02278149 -0.00431012 -0.81459233 0.00001136 -0.00029495 0.00003263
1697506143.239891 -0.02271555 -0.00437658 -0.81455574 0.00001400 -0.00028977 0.00003090
1697506143.341893 -0.02265927 -0.00441721 -0.81451540 0.00001542 -0.00029149 0.00003384
1697506143.440895 -0.02256778 -0.00445716 -0.81439479 0.00001779 -0.00029530 0.00003504
1697506143.539897 -0.02247668 -0.00448710 -0.81431821 0.00002233 -0.00029865 0.00003436
1697506143.641899 -0.02236166 -0.00452637 -0.81450671 0.00001730 -0.00029522 0.00003469
1697506143.740901 -0.02223585 -0.00456638 -0.81470029 0.00001358 -0.00029944 0.00003555
1697506143.842904 -0.02211789 -0.00450225 -0.81501924 0.00000887 -0.00030784 0.00003854
1697506143.941906 -0.02206639 -0.00451424 -0.81510118 0.00000866 -0.00030633 0.00003323
1697506144.040908 -0.02202100 -0.00452520 -0.81529582 0.00000742 -0.00030773 0.00003248
1697506144.139910 -0.02200138 -0.00455149 -0.81550283 0.00000156 -0.00030792 0.00003347
1697506144.238912 -0.02198128 -0.00460593 -0.81561225 -0.00000041 -0.00030932 0.00003270
1697506144.340914 -0.02195838 -0.00463127 -0.81564262 -0.00000018 -0.00031086 0.00003071
1697506144.439916 -0.02190395 -0.00464010 -0.81557810 0.00000214 -0.00031556 0.00003234
1697506144.535918 -0.02188581 -0.00463709 -0.81544772 -0.00000139 -0.00031719 0.00003155
1697506144.634920 -0.02184853 -0.00465951 -0.81537473 -0.00000014 -0.00031437 0.00003125
1697506144.733922 -0.02181139 -0.00468360 -0.81540325 -0.00000204 -0.00030846 0.00003231
1697506144.832925 -0.02177636 -0.00471244 -0.81544188 -0.00000129 -0.00030878 0.00003327
1697506144.931927 -0.02172006 -0.00477365 -0.81550484 -0.00000033 -0.00031338 0.00003532
1697506145.030929 -0.02167455 -0.00489917 -0.81558248 0.00000124 -0.00031411 0.00003593
1697506145.129931 -0.02166176 -0.00500242 -0.81565865 0.00000019 -0.00031588 0.00003438
1697506145.231933 -0.02163338 -0.00509210 -0.81591193 -0.00000199 -0.00030421 0.00003571
1697506145.327935 -0.02159534 -0.00522961 -0.81586587 -0.00000155 -0.00032133 0.00003838
1697506145.426937 -0.02154291 -0.00537530 -0.81592580 -0.00000071 -0.00033190 0.00003833
1697506145.525939 -0.02148231 -0.00551766 -0.81601994 -0.00000359 -0.00034069 0.00003959
1697506145.624942 -0.02141773 -0.00566807 -0.81605001 -0.00000112 -0.00034176 0.00003965
1697506145.726944 -0.02144809 -0.00578024 -0.81604810 -0.00000544 -0.00034480 0.00003999
1697506145.825946 -0.02144863 -0.00587663 -0.81610416 -0.00000727 -0.00034730 0.00004324
1697506145.924948 -0.02145067 -0.00603932 -0.81622897 -0.00001744 -0.00033694 0.00004177
1697506146.023950 -0.02149210 -0.00624006 -0.81638005 -0.00002360 -0.00032991 0.00004156
1697506146.125952 -0.02157980 -0.00642410 -0.81658149 -0.00002306 -0.00032984 0.00004107
1697506146.224954 -0.02148473 -0.00656891 -0.81673039 -0.00002349 -0.00033599 0.00004008
1697506146.323956 -0.02147328 -0.00674233 -0.81670801 -0.00002121 -0.00033281 0.00003885
1697506146.422959 -0.02144160 -0.00696025 -0.81676226 -0.00002389 -0.00033083 0.00004138
1697506146.524961 -0.02142616 -0.00711070 -0.81671548 -0.00002240 -0.00032550 0.00004051
1697506146.623963 -0.02145922 -0.00727263 -0.81666836 -0.00002175 -0.00032703 0.00003912
1697506146.722965 -0.02146968 -0.00732074 -0.81646336 -0.00002185 -0.00031633 0.00003689
1697506146.824967 -0.02148879 -0.00741387 -0.81632367 -0.00002268 -0.00031291 0.00003772
1697506146.923969 -0.02160944 -0.00762733 -0.81641826 -0.00001781 -0.00031224 0.00003861
1697506147.025971 -0.02163040 -0.00767303 -0.81645821 -0.00001469 -0.00031441 0.00003931
1697506147.124974 -0.02160951 -0.00769860 -0.81651052 -0.00001568 -0.00030757 0.00003966
1697506147.226976 -0.02164880 -0.00771149 -0.81647525 -0.00001163 -0.00030847 0.00004076
1697506147.325978 -0.02170747 -0.00777963 -0.81640580 -0.00000935 -0.00031352 0.00003967
1697506147.424980 -0.02174596 -0.00786908 -0.81638916 -0.00000084 -0.00030370 0.00003671
1697506147.523982 -0.02197545 -0.00809715 -0.81630738 0.00000151 -0.00031336 0.00003289
1697506147.625984 -0.02207287 -0.00825278 -0.81640986 -0.00000162 -0.00031746 0.00003591
1697506147.724986 -0.02215279 -0.00838349 -0.81644302 0.00000016 -0.00031454 0.00003467
1697506147.823988 -0.02223858 -0.00851263 -0.81634355 0.00000228 -0.00031355 0.00003329
1697506147.922991 -0.02227562 -0.00859162 -0.81626229 -0.00000045 -0.00031722 0.00003279
1697506148.024993 -0.02226997 -0.00860540 -0.81633988 -0.00000284 -0.00032166 0.00003085
1697506148.123995 -0.02226225 -0.00873438 -0.81633678 -0.00000248 -0.00032786 0.00002823
1697506148.225997 -0.02236655 -0.00862523 -0.81605730 0.00000152 -0.00033346 0.00002216
1697506148.324999 -0.02234011 -0.00851116 -0.81609486 0.00000369 -0.00032307 0.00002238
1697506148.424001 -0.02232632 -0.00847299 -0.81596565 0.00000356 -0.00031984 0.00002072
1697506148.523003 -0.02226383 -0.00855579 -0.81584525 0.00000575 -0.00031231 0.00001672
1697506148.625005 -0.02219286 -0.00859123 -0.81571441 0.00000729 -0.00032268 0.00001584
1697506148.724008 -0.02211377 -0.00866071 -0.81569832 0.00000588 -0.00032328 0.00001193
1697506148.823010 -0.02204647 -0.00885827 -0.81571043 0.00000550 -0.00031380 0.00001188
1697506148.922012 -0.02195691 -0.00901088 -0.81574317 0.00000369 -0.00030681 0.00001459
1697506149.024014 -0.02177117 -0.00907051 -0.81578587 0.00000252 -0.00030318 0.00001551
1697506149.123016 -0.02175466 -0.00918531 -0.81580678 0.00000668 -0.00030786 0.00000490
1697506149.222018 -0.02173179 -0.00925767 -0.81594901 0.00000740 -0.00031131 -0.00000029
1697506149.324020 -0.02178427 -0.00923190 -0.81602860 0.00000550 -0.00031329 -0.00000074
1697506149.423023 -0.02182287 -0.00929533 -0.81608127 0.00000490 -0.00030585 -0.00000273
1697506149.522025 -0.02183456 -0.00941023 -0.81597450 0.00000479 -0.00030765 -0.00000299
1697506149.621027 -0.02182440 -0.00952749 -0.81601147 0.00000873 -0.00029830 -0.00000380
1697506149.723029 -0.02179693 -0.00962223 -0.81596717 0.00000848 -0.00030223 -0.00000599
1697506149.822031 -0.02191866 -0.00972294 -0.81601146 0.00001207 -0.00030371 -0.00001169
1697506149.921033 -0.02197702 -0.00987733 -0.81605228 0.00001232 -0.00029777 -0.00001889
1697506150.020035 -0.02204496 -0.00988326 -0.81613373 0.00001588 -0.00030654 -0.00001871
1697506150.119037 -0.02208936 -0.00981825 -0.81612512 0.00001612 -0.00030767 -0.00002046
1697506150.221040 -0.02216649 -0.00968011 -0.81606553 0.00001562 -0.00030933 -0.00002194
1697506150.320042 -0.02217540 -0.00957660 -0.81617660 0.00001237 -0.00030697 -0.00002238
1697506150.419044 -0.02214815 -0.00954270 -0.81621793 0.00001261 -0.00031428 -0.00002121
1697506150.518046 -0.02211340 -0.00954416 -0.81629573 0.00001397 -0.00031470 -0.00002335
1697506150.620048 -0.02200475 -0.00961081 -0.81621778 0.00001207 -0.00031749 -0.00002444
1697506150.719050 -0.02190847 -0.00973438 -0.81637141 0.00001463 -0.00031500 -0.00002486
1697506150.818052 -0.02179364 -0.00987886 -0.81646338 0.00001322 -0.00032355 -0.00002449
1697506150.920054 -0.02166799 -0.01005623 -0.81698306 0.00000556 -0.00032551 -0.00002639
1697506151.019057 -0.02149747 -0.01034553 -0.81716985 0.00000298 -0.00032367 -0.00002835
1697506151.118059 -0.02133142 -0.01063888 -0.81723989 0.00000226 -0.00032944 -0.00002958
1697506151.220061 -0.02120226 -0.01084045 -0.81740938 0.00000389 -0.00033069 -0.00003162
1697506151.319063 -0.02108727 -0.01100845 -0.81761817 0.00000201 -0.00032588 -0.00002823
1697506151.418065 -0.02100548 -0.01123787 -0.81774032 -0.00000083 -0.00032341 -0.00003386
1697506151.517067 -0.02081701 -0.01153535 -0.81804881 -0.00000925 -0.00031859 -0.00003648
1697506151.619069 -0.02063689 -0.01169663 -0.81817627 -0.00001367 -0.00032364 -0.00002756
1697506151.718071 -0.02053262 -0.01184986 -0.81823925 -0.00002735 -0.00031746 -0.00003231
1697506151.817074 -0.02043888 -0.01196173 -0.81804857 -0.00003255 -0.00032437 -0.00003162
1697506151.916076 -0.02039404 -0.01205656 -0.81788998 -0.00003412 -0.00032475 -0.00003507
1697506152.018078 -0.02036855 -0.01214948 -0.81793785 -0.00003493 -0.00032856 -0.00003414
1697506152.117080 -0.02033748 -0.01229767 -0.81802799 -0.00003630 -0.00033068 -0.00003504
1697506152.216082 -0.02033516 -0.01235830 -0.81810161 -0.00003618 -0.00033682 -0.00003710
1697506152.315084 -0.02035556 -0.01255514 -0.81826211 -0.00003603 -0.00033974 -0.00004010
1697506152.417086 -0.02036743 -0.01271619 -0.81839605 -0.00003596 -0.00034169 -0.00004129
1697506152.516088 -0.02045341 -0.01291592 -0.81860654 -0.00003717 -0.00035049 -0.00004243
1697506152.615091 -0.02051221 -0.01308266 -0.81870736 -0.00003865 -0.00035384 -0.00004229
1697506152.714093 -0.02054255 -0.01321107 -0.81868732 -0.00004310 -0.00035737 -0.00004258
1697506152.816095 -0.02055011 -0.01332587 -0.81868853 -0.00004267 -0.00036042 -0.00003912
1697506152.915097 -0.02056129 -0.01343529 -0.81889481 -0.00004109 -0.00036016 -0.00000836
1697506153.014099 -0.02056740 -0.01347303 -0.81889563 -0.00004227 -0.00036105 -0.00002258
1697506153.116101 -0.02055432 -0.01357581 -0.81898212 -0.00004092 -0.00035589 -0.00000038
1697506153.215103 -0.02053346 -0.01367112 -0.81899406 -0.00003652 -0.00035060 0.00000028
1697506153.314106 -0.02056813 -0.01377451 -0.81903976 -0.00003620 -0.00035852 -0.00002809
1697506153.413108 -0.02062308 -0.01385086 -0.81897801 -0.00003110 -0.00035478 -0.00003699
1697506153.515110 -0.02062585 -0.01395436 -0.81878764 -0.00002433 -0.00034577 -0.00003003
1697506153.614112 -0.02069887 -0.01401653 -0.81871108 -0.00002078 -0.00034917 -0.00003500
1697506153.713114 -0.02078815 -0.01399991 -0.81885243 -0.00002023 -0.00035253 -0.00003366
1697506153.812116 -0.02088869 -0.01391672 -0.81916283 -0.00001832 -0.00035149 -0.00003400
1697506153.911118 -0.02102829 -0.01384929 -0.81928636 -0.00001700 -0.00035292 -0.00003480
1697506154.010120 -0.02110684 -0.01391487 -0.81932744 -0.00001606 -0.00035035 -0.00003550
1697506154.109123 -0.02126967 -0.01411294 -0.81945340 -0.00001630 -0.00035221 -0.00003452
1697506154.211125 -0.02146375 -0.01439548 -0.81947226 -0.00001809 -0.00035563 -0.00003384
1697506154.316127 -0.02160222 -0.01472695 -0.81956709 -0.00001988 -0.00036629 -0.00004272
1697506154.412129 -0.02169990 -0.01510925 -0.81965047 -0.00002339 -0.00036041 -0.00004631
1697506154.508131 -0.02180508 -0.01536570 -0.81988251 -0.00002107 -0.00036553 -0.00003794
1697506154.610133 -0.02189321 -0.01551180 -0.82018885 -0.00001797 -0.00037653 -0.00003314
1697506154.709135 -0.02197704 -0.01559276 -0.82030198 -0.00001604 -0.00038714 -0.00003111
1697506154.811137 -0.02200084 -0.01568268 -0.82038008 -0.00001457 -0.00039286 -0.00004250
1697506154.907140 -0.02207951 -0.01575538 -0.82040311 -0.00001437 -0.00039918 -0.00003476
1697506155.009142 -0.02219424 -0.01583212 -0.82028146 -0.00001437 -0.00040055 -0.00004173
1697506155.108144 -0.02226653 -0.01592205 -0.82005909 -0.00001388 -0.00040479 -0.00003686
1697506155.207146 -0.02231450 -0.01601818 -0.81984996 -0.00000970 -0.00039679 -0.00003637
1697506155.309148 -0.02234379 -0.01612848 -0.81964653 -0.00001093 -0.00039701 -0.00004395
1697506155.408150 -0.02235098 -0.01622408 -0.81954181 -0.00000756 -0.00039533 -0.00003868
1697506155.507152 -0.02138345 -0.01609392 -0.81964135 0.00001688 -0.00039750 -0.00007379
1697506155.609154 -0.02144766 -0.01614161 -0.81962702 -0.00000328 -0.00039448 -0.00004729
1697506155.708157 -0.02153460 -0.01615279 -0.81965131 -0.00000196 -0.00040237 -0.00003714
1697506155.807159 -0.02162154 -0.01613891 -0.81966321 -0.00000052 -0.00040614 -0.00003464
1697506155.909161 -0.02060798 -0.01561780 -0.81821557 0.00003821 -0.00038688 -0.00009476
1697506156.008163 -0.02072113 -0.01556401 -0.81929195 -0.00000084 -0.00040568 -0.00003862
1697506156.107165 -0.02090465 -0.01549629 -0.81988707 -0.00001240 -0.00042037 -0.00002945
1697506156.209167 -0.02105562 -0.01543958 -0.81996773 -0.00000856 -0.00039187 -0.00003649
1697506156.308169 -0.02123395 -0.01539946 -0.81982854 -0.00001455 -0.00041151 -0.00002973
1697506156.407171 -0.02139116 -0.01536390 -0.81988038 -0.00001443 -0.00041955 -0.00002273
1697506156.509174 -0.02155203 -0.01533163 -0.81959230 -0.00001679 -0.00041148 -0.00002999
1697506156.608176 -0.02167913 -0.01529864 -0.81958385 -0.00001654 -0.00041448 -0.00002581
1697506156.707178 -0.02178854 -0.01526332 -0.81955594 -0.00001681 -0.00041403 -0.00002533
1697506156.809180 -0.02178213 -0.01521472 -0.81991437 -0.00001839 -0.00042612 -0.00002830
1697506156.908182 -0.02180266 -0.01515769 -0.81981481 -0.00001584 -0.00042291 -0.00002757
1697506157.007184 -0.02149743 -0.01509485 -0.82038649 -0.00001821 -0.00042897 -0.00002414
1697506157.109187 -0.02152727 -0.01505980 -0.81967554 -0.00000318 -0.00047608 -0.00003137
1697506157.208189 -0.02165322 -0.01501728 -0.81909590 -0.00000724 -0.00042895 -0.00003382
1697506157.307191 -0.02175013 -0.01495496 -0.81896124 -0.00000949 -0.00041795 -0.00003408
1697506157.409193 -0.02183539 -0.01486214 -0.81882053 -0.00000593 -0.00043369 -0.00004147
1697506157.508195 -0.02191115 -0.01474902 -0.81879180 -0.00000337 -0.00041847 -0.00003689
1697506157.607197 -0.02199330 -0.01472877 -0.81795482 -0.00000507 -0.00040641 -0.00003379
1697506157.709199 -0.02202179 -0.01468870 -0.81747559 -0.00000109 -0.00040753 -0.00003660
1697506157.808202 -0.02204381 -0.01465214 -0.81783771 -0.00000306 -0.00041005 -0.00003605
1697506157.910204 -0.02212771 -0.01463714 -0.81824278 -0.00000119 -0.00041209 -0.00003658
1697506158.009206 -0.02215739 -0.01466668 -0.81831338 -0.00000427 -0.00041668 -0.00003440
1697506158.108208 -0.02215778 -0.01473042 -0.81824748 -0.00000371 -0.00041151 -0.00003467
1697506158.207210 -0.02214838 -0.01481030 -0.81812667 -0.00000350 -0.00040777 -0.00003547
1697506158.309212 -0.02215558 -0.01490082 -0.81807078 -0.00000330 -0.00040512 -0.00003772
1697506158.408214 -0.02229359 -0.01502670 -0.81848473 -0.00000368 -0.00042403 -0.00003993
1697506158.510216 -0.02243218 -0.01517757 -0.81861791 -0.00000368 -0.00043046 -0.00003727
1697506158.609219 -0.02306479 -0.01537698 -0.82009040 -0.00000373 -0.00045185 -0.00004878
1697506158.708221 -0.02326472 -0.01554452 -0.81910019 -0.00000179 -0.00043167 -0.00003790
1697506158.810223 -0.02347448 -0.01574778 -0.81901984 -0.00000103 -0.00043365 -0.00003500
1697506158.909225 -0.02365250 -0.01594495 -0.81907310 -0.00000135 -0.00043018 -0.00003004
1697506159.014227 -0.02381130 -0.01616948 -0.81890022 -0.00000171 -0.00044109 -0.00002069
1697506159.110229 -0.02392315 -0.01639716 -0.81897233 -0.00000170 -0.00043798 -0.00002051
1697506159.209231 -0.02401150 -0.01661390 -0.81883992 -0.00000135 -0.00044558 -0.00001880
1697506159.308233 -0.02408122 -0.01666392 -0.81897680 -0.00000679 -0.00044323 0.00000738
1697506159.410236 -0.02407124 -0.01634469 -0.81903803 -0.00000290 -0.00045945 0.00003445
1697506159.512238 -0.02394210 -0.01565456 -0.81910243 0.00001396 -0.00050622 0.00005046
1697506159.608240 -0.02369908 -0.01472406 -0.81934470 0.00001359 -0.00051529 0.00006292
1697506159.710242 -0.02331107 -0.01360869 -0.81989676 0.00000905 -0.00051860 0.00007218
1697506159.809244 -0.02267519 -0.01245081 -0.82038039 0.00000568 -0.00052544 0.00007484
1697506159.908246 -0.02203432 -0.01140108 -0.82098562 0.00000221 -0.00053155 0.00007480
1697506160.010248 -0.02137475 -0.01052287 -0.82182717 -0.00000858 -0.00053871 0.00007666
1697506160.109251 -0.02058765 -0.00955585 -0.82248657 -0.00001305 -0.00053982 0.00007877
1697506160.208253 -0.01992253 -0.00879616 -0.82301409 -0.00001727 -0.00054994 0.00008062
1697506160.310255 -0.01923137 -0.00803710 -0.82367481 -0.00002222 -0.00054664 0.00008136
1697506160.409257 -0.01867936 -0.00747710 -0.82419030 -0.00002601 -0.00055076 0.00008189
1697506160.511259 -0.01825266 -0.00707619 -0.82470293 -0.00002670 -0.00054585 0.00008339
1697506160.610261 -0.01790767 -0.00677146 -0.82535089 -0.00003335 -0.00054757 0.00009017
1697506160.709263 -0.01754830 -0.00654663 -0.82590187 -0.00003347 -0.00054658 0.00009110
1697506160.811265 -0.01718824 -0.00642680 -0.82641975 -0.00003374 -0.00054688 0.00009390
1697506160.910268 -0.01685036 -0.00641094 -0.82695117 -0.00003407 -0.00054405 0.00009384
1697506161.009270 -0.01653436 -0.00649376 -0.82745990 -0.00003452 -0.00054313 0.00009365
1697506161.111272 -0.01625003 -0.00667308 -0.82799107 -0.00003348 -0.00054259 0.00009697
1697506161.210274 -0.01598486 -0.00693922 -0.82846141 -0.00003020 -0.00054033 0.00010023
1697506161.309276 -0.01574641 -0.00728587 -0.82892498 -0.00002914 -0.00053448 0.00010009
1697506161.408278 -0.01552432 -0.00770197 -0.82935195 -0.00002739 -0.00052187 0.00010020
1697506161.510280 -0.01528514 -0.00819425 -0.82970800 -0.00002802 -0.00051578 0.00009982
1697506161.609282 -0.01505390 -0.00874798 -0.83007965 -0.00002854 -0.00051817 0.00009892
1697506161.711285 -0.01481064 -0.00945449 -0.83052391 -0.00002827 -0.00052124 0.00010004
1697506161.810287 -0.01464075 -0.01012431 -0.83097705 -0.00002677 -0.00051963 0.00010065
1697506161.909289 -0.01446946 -0.01085166 -0.83134929 -0.00002699 -0.00052082 0.00009934
1697506162.008291 -0.01431818 -0.01163014 -0.83176483 -0.00002651 -0.00052152 0.00010013
1697506162.110293 -0.01421093 -0.01235243 -0.83219155 -0.00002629 -0.00052003 0.00010012
1697506162.209295 -0.01410013 -0.01323309 -0.83261452 -0.00002546 -0.00051872 0.00010188
1697506162.308297 -0.01399525 -0.01415439 -0.83299985 -0.00002417 -0.00051817 0.00010459
1697506162.410300 -0.01391233 -0.01499052 -0.83336911 -0.00002435 -0.00051866 0.00010562
1697506162.509302 -0.01385336 -0.01585361 -0.83377903 -0.00002428 -0.00051816 0.00010545
1697506162.608304 -0.01380367 -0.01675160 -0.83417886 -0.00002455 -0.00051805 0.00010744
1697506162.710306 -0.01376465 -0.01769521 -0.83458152 -0.00002609 -0.00051888 0.00010678
1697506162.809308 -0.01378459 -0.01865479 -0.83510021 -0.00002448 -0.00050878 0.00010570
1697506162.908310 -0.01375801 -0.01964799 -0.83536859 -0.00002365 -0.00051012 0.00010626
1697506163.010313 -0.01375751 -0.02067976 -0.83578229 -0.00002309 -0.00051211 0.00010740
1697506163.109314 -0.01377181 -0.02171974 -0.83616528 -0.00002295 -0.00051232 0.00010878
1697506163.208317 -0.01380535 -0.02278096 -0.83656795 -0.00002375 -0.00051202 0.00010841
1697506163.307319 -0.01384753 -0.02386342 -0.83695193 -0.00002341 -0.00051242 0.00010934
1697506163.409321 -0.01390031 -0.02498074 -0.83735710 -0.00002346 -0.00051307 0.00011015
1697506163.508323 -0.01397432 -0.02609882 -0.83774777 -0.00002352 -0.00051382 0.00010925
1697506163.610325 -0.01405646 -0.02724042 -0.83815827 -0.00002265 -0.00051369 0.00011076
1697506163.709327 -0.01415878 -0.02838895 -0.83854531 -0.00002363 -0.00051353 0.00011164
1697506163.808330 -0.01426799 -0.02954964 -0.83890548 -0.00002397 -0.00051255 0.00010959
1697506163.907331 -0.01438319 -0.03072145 -0.83926141 -0.00002412 -0.00051438 0.00010924
1697506164.006334 -0.01454585 -0.03190197 -0.83973984 -0.00002330 -0.00050849 0.00010901
1697506164.108336 -0.01476150 -0.03309899 -0.84031288 -0.00002044 -0.00049110 0.00011013
1697506164.207338 -0.01490416 -0.03430353 -0.84046303 -0.00002037 -0.00049005 0.00011036
1697506164.306340 -0.01506387 -0.03551044 -0.84077852 -0.00001981 -0.00049131 0.00010870
1697506164.408342 -0.01526180 -0.03673895 -0.84125237 -0.00002019 -0.00048878 0.00010741
1697506164.507344 -0.01547172 -0.03795212 -0.84163632 -0.00002028 -0.00048547 0.00010694
1697506164.609347 -0.01565728 -0.03918755 -0.84193129 -0.00002749 -0.00049101 0.00010683
1697506164.708349 -0.01608791 -0.04039071 -0.84297814 -0.00002649 -0.00049127 0.00010823
1697506164.807351 -0.01657256 -0.04158987 -0.84365423 -0.00002584 -0.00049301 0.00010820
1697506164.906353 -0.01742579 -0.04328089 -0.84636093 -0.00001943 -0.00049406 0.00011494
1697506165.008355 -0.01874168 -0.04561105 -0.84857730 -0.00001465 -0.00049517 0.00010209
1697506165.107357 -0.02009111 -0.04781752 -0.85014104 -0.00001683 -0.00049870 0.00010102
1697506165.206359 -0.02154116 -0.05012386 -0.85127235 -0.00001787 -0.00050317 0.00010123
1697506165.308362 -0.02302950 -0.05248834 -0.85209831 -0.00001945 -0.00050942 0.00010120
1697506165.407364 -0.02451632 -0.05481645 -0.85284558 -0.00001947 -0.00050629 0.00009983
1697506165.506366 -0.02532419 -0.05614942 -0.85317068 -0.00002288 -0.00052306 0.00010038
